-3.293010173365473747e-03
-1.023343532851640758e-14
-1.521786004304885864e-01
3.430560696870088577e-03
3.384532872587442398e-03
-3.692155471071600914e-03
3.827961394563317299e-03
3.234225809574127197e-01
-4.287058711051940918e-01
9.479022026062011719e-02
-1.517870426177978516e-01
-3.837712109088897705e-01
3.310724627226591110e-03
1.674141465122876016e-34
1.521904170513153076e-01
3.308141604065895081e-03
-5.098018050193786621e-01
3.415528917685151100e-03
2.460612712323613331e-16
-2.543320655822753906e-01
1.525028049945831299e-01
-2.158083617687225342e-01
-4.396654549054801464e-05
3.369239391759037971e-03
-2.151185125112533569e-01
-1.518418639898300171e-01
-3.372453385964035988e-03
-2.489195913076400757e-01
1.524193137884140015e-01
3.886943161487579346e-01
3.365949494764208794e-03
-1.640177145600318909e-02
-8.476030230522155762e-01
-1.520091444253921509e-01
1.231395595932703818e-29
-5.667670965194702148e-01
2.528933882713317871e-01
6.242939457297325134e-02
-4.920450598001480103e-02
3.498335368931293488e-03
3.341658506542444229e-03
1.337172836065292358e-01
1.525992006063461304e-01
-1.527340561151504517e-01
-6.270101666450500488e-01
-1.517998576164245605e-01
3.428620234946500034e-13
-3.452809527516365051e-03
2.761151790618896484e-01
1.589036347938744811e-29
-1.520328968763351440e-01
-1.521492451429367065e-01
-3.452613251283764839e-03
6.479982566157116430e-13
-3.768646173482021645e-31
-3.359952941536903381e-03
3.315998706966638565e-03
3.047730028629302979e-01
2.580872476100921631e-01
-3.441819688305258751e-03
-3.538467921316623688e-03
-1.501759886741638184e-01
-3.311566077172756195e-03
-1.523011177778244019e-01
1.529384702444076538e-01
-6.453882411493728266e-35
3.408254124224185944e-03
3.511235117912292480e-03
3.366566495969891548e-03
4.364679455757141113e-01
4.287058711051940918e-01
-3.867576122283935547e-01
-3.409886965528130531e-03
-7.461484434160869770e-30
-9.296628087759017944e-02
-6.901153326034545898e-01
3.645804568792842890e-30
-3.604547819122672081e-03
-2.508441209793090820e-01
4.495418816804885864e-02
3.589813597500324249e-03
1.522143781185150146e-01
-1.887317597866058350e-01
3.428705735132098198e-03
-2.044195830821990967e-01
-1.520676314830780029e-01
3.342194249853491783e-03
-6.621478199958801270e-01
5.500761446845403694e-33
1.530275046825408936e-01
1.666675416345242411e-05
-3.414674429222941399e-03
-1.520215570926666260e-01
4.530848860740661621e-01
-3.516486845910549164e-03
-6.755328178405761719e-01
3.970991075038909912e-01
6.107704341411590576e-02
1.518495976924896240e-01
1.519903987646102905e-01
-2.647494673728942871e-01
-3.043623864650726318e-01
-2.085377381888520176e-08
-1.601186096668243408e-01
-1.522479355335235596e-01
-3.588147461414337158e-03
2.719720900058746338e-01
3.457090351730585098e-03
1.827043294906616211e-01
3.681632280349731445e-01
-1.073446571826934814e-01
3.443962661549448967e-03
-9.256583550013450208e-30
-8.652216196060180664e-02
-3.445556387305259705e-03
4.078459739685058594e-02
-3.278967225924134254e-03
3.451460599899291992e-01
-3.309791088104248047e-01
-2.455924004316329956e-01
-1.523011177778244019e-01
-1.520676314830780029e-01
-3.422561334446072578e-03
-1.525028049945831299e-01
-3.516216529533267021e-03
-4.647625835891309760e-31
2.235877364873886108e-01
3.453918034210801125e-03
-3.088855445384979248e-01
2.162667363882064819e-01
-3.553726011887192726e-03
8.387008309364318848e-01
1.520350873470306396e-01
1.044799014925956726e-01
-3.462996799498796463e-03
3.462060587480664253e-03
-3.390636527910828590e-03
1.757486164569854736e-01
-5.471225976943969727e-01
3.392601618543267250e-03
4.465069174766540527e-01
-3.687428310513496399e-03
9.846275463278594354e-31
1.160716374386122746e-29
-3.520359750837087631e-03
-2.153881639242172241e-01
2.071043998003005981e-01
3.583660582080483437e-03
-2.050586342811584473e-01
5.027543306350708008e-01
4.252411127090454102e-01
2.438714951276779175e-01
-3.386697033420205116e-03
2.515315115451812744e-01
3.765019774436950684e-01
-2.639680206775665283e-01
3.425627481192350388e-03
3.535267664119601250e-03
-1.170887276530265808e-01
-3.391509642824530602e-03
-3.449672367423772812e-03
-2.001444399356842041e-01
3.319634357467293739e-03
-3.472595242783427238e-03
2.156895995140075684e-01
7.094644871585842338e-10
-3.516875207424163818e-01
2.469848245382308960e-01
3.678797185420989990e-02
-5.371038317680358887e-01
-2.205266505479812622e-01
-4.675588905811309814e-01
3.614025190472602844e-03
-1.521788388490676880e-01
1.696081757545471191e-01
-1.521089673042297363e-01
-2.185650765895843506e-01
-4.859945774078369141e-01
-3.047802150249481201e-01
7.714086771011352539e-01
3.310148604214191437e-03
3.479617182165384293e-03
4.419639706611633301e-01
-3.301113611087203026e-03
-3.428901312872767448e-03
2.231395095586776733e-01
3.597855567932128906e-01
-2.979038655757904053e-01
1.227302994800880942e-29
1.454388797283172607e-01
-3.507420187816023827e-03
3.229115903377532959e-01
3.475974081084132195e-03
8.773304305265128278e-10
-3.605571575462818146e-03
-3.361700801178812981e-03
-6.382455311017061086e-33
4.811618924140930176e-01
-3.487490816041827202e-03
-9.362872689962387085e-03
4.791829288005828857e-01
-3.491695737466216087e-03
-3.528703236952424049e-03
-3.391614416614174843e-03
3.450966905802488327e-03
-1.522233784198760986e-01
-4.678705036640167236e-01
-3.367874072864651680e-03
3.264373092583955360e-13
3.792580962181091309e-01
1.488054543733596802e-01
-5.180492401123046875e-01
-2.644787430763244629e-01
-2.164070308208465576e-01
2.523273229598999023e-01
-3.450236516073346138e-03
2.487720699899454446e-29
3.463465254753828049e-03
3.088919480345023932e-30
-3.169897198677062988e-01
-1.789828836917877197e-01
-3.587082326412200928e-01
-1.528244763612747192e-01
3.462467575445771217e-03
1.123020201921463013e-01
-3.417076775804162025e-03
3.412646651268005371e-01
-3.428761614486575127e-03
-2.338858246803283691e-01
3.776631057262420654e-01
7.050611972808837891e-01
-9.213201460798613358e-33
2.639959454536437988e-01
-2.109148800373077393e-01
-2.140511423349380493e-01
3.548871958628296852e-03
-9.154830934234964342e-35
-2.070665508508682251e-01
2.711217403411865234e-01
-3.408418595790863037e-01
3.449077252298593521e-03
-3.781976997852325439e-01
6.040795127293782298e-30
-2.976444084197282791e-03
6.130465865135192871e-01
-7.033972144126892090e-01
-3.274548053741455078e-01
-1.854063123464584351e-01
3.344637574627995491e-03
6.880504488945007324e-01
-2.484503537416458130e-01
-1.256889253854751587e-01
2.540274560451507568e-01
2.934659421443939209e-01
-6.427058577537536621e-01
3.387651639059185982e-03
1.521736830472946167e-01
1.033276085333250297e-30
2.001444399356842041e-01
-3.587075043469667435e-03
-3.388788318261504173e-03
-3.424442606046795845e-03
2.213129401206970215e-02
3.317970316857099533e-03
3.304785117506980896e-03
2.079349756240844727e-01
3.436576575040817261e-03
-2.145527452230453491e-01
-1.833763987379869726e-32
2.633342444896697998e-01
3.719592324024467258e-31
-4.671870768070220947e-01
-4.211463034152984619e-01
-1.522037684917449951e-01
-3.491035662591457367e-03
3.895652294158935547e-01
-1.520328968763351440e-01
1.430444568395614624e-01
-1.582234501838684082e-01
-3.311153501272201538e-03
2.810293436050415039e-01
4.617947340011596680e-01
-1.646091043949127197e-01
-3.438649466261267662e-03
1.729934960603713989e-01
-3.065136306660415366e-13
4.366848766803741455e-01
-2.160680890083312988e-01
2.103504091501235962e-01
-1.519540697336196899e-01
1.517228633165359497e-01
3.403084818273782730e-03
-1.905990988016128540e-01
3.324737772345542908e-03
1.454388797283172607e-01
-3.088793754577636719e-01
4.636620283126831055e-01
-2.981755733489990234e-01
-4.026615992188453674e-02
-3.778576254844665527e-01
-4.928186237812042236e-01
3.334284992888569832e-03
-3.452160358428955078e-01
3.195306956768035889e-01
-5.687784403562545776e-02
-3.045813143253326416e-01
-3.583246171474456787e-01
3.992356384177972496e-31
4.061842858791351318e-01
3.234225809574127197e-01
-3.438353072851896286e-03
-3.482792759314179420e-03
3.399655921384692192e-03
-3.191255331039428711e-01
3.267445653107641848e-34
-4.377706050872802734e-01
-4.928660094738006592e-01
3.391917562112212181e-03
1.834113963272178215e-34
2.109145820140838623e-01
-2.797010242938995361e-01
3.661637892946600914e-03
-1.528110057115554810e-01
3.461262444034218788e-03
-2.355532944202423096e-01
3.339259186759591103e-03
-3.502061357721686363e-03
-1.522125899791717529e-01
3.307995386421680450e-03
-3.435714868828654289e-03
-3.411011071875691414e-03
-2.845311760902404785e-01
3.363661235198378563e-03
4.507081380318295421e-31
-3.411043435335159302e-03
3.330524545162916183e-03
5.722450380311436237e-31
2.138694715759657598e-32
1.999026536941528320e-01
3.457625163719058037e-03
-3.109578490257263184e-01
2.696232199668884277e-01
3.067626357078552246e-01
3.415194572880864143e-03
-3.477628529071807861e-01
-2.487856745719909668e-01
-3.259702324867248535e-01
3.379553323611617088e-03
-3.331518266350030899e-03
-4.228321313858032227e-01
3.426648909226059914e-03
6.167674809694290161e-02
-2.148103863000869751e-01
-2.129166722297668457e-01
-7.087258190373201214e-30
3.456800011917948723e-03
3.469876246526837349e-03
3.535521449521183968e-03
3.418290754780173302e-03
7.494031903965772276e-35
3.544185459613800049e-01
-1.523959040641784668e-01
-8.713668584823608398e-02
-3.386561293154954910e-03
-3.413655562326312065e-03
-2.791609764099121094e-01
2.028605490922927856e-01
-3.407801734283566475e-03
3.333494300022721291e-03
5.941241383552551270e-01
3.458285238593816757e-03
-3.371582599356770515e-03
3.006894886493682861e-01
2.061591753242955234e-18
-3.390020690858364105e-03
3.513703346252441406e-01
3.781364858150482178e-01
3.430508542805910110e-03
-2.193216532468795776e-01
3.392571350559592247e-03
-1.843178011948601750e-34
2.670676708221435547e-01
-4.061915557091270866e-31
2.720730304718017578e-01
5.538970828056335449e-01
3.500534221529960632e-03
-9.926751511002696849e-33
4.777956381440162659e-02
3.360536880791187286e-03
4.201822578907012939e-01
3.413618309423327446e-03
3.379249013960361481e-03
-3.418614389374852180e-03
-2.646166980266571045e-01
-2.164541631937026978e-01
1.702868491411209106e-01
-5.720310211181640625e-01
1.624700576066970825e-01
3.223420977592468262e-01
1.621151417493820190e-01
3.418965873921726586e-32
-2.158378362655639648e-01
-7.511830925941467285e-01
1.808708178355298815e-33
3.443324705585837364e-03
-1.640176959335803986e-02
-4.223524495595290636e-19
2.806501090526580811e-01
-3.511046525090932846e-03
-2.501472917042951839e-33
-3.248613774776458740e-01
2.124341130256652832e-01
1.564291715621948242e-01
-1.527392268180847168e-01
3.912115693092346191e-01
1.632068157196044922e-01
1.521012485027313232e-01
1.106710061430931091e-01
-3.724411218575447589e-35
3.428101539611816406e-03
-2.623665332794189453e-01
3.345896257087588310e-03
-1.524989604949951172e-01
-1.521319150924682617e-01
1.448634564876556396e-01
2.099591493606567383e-01
-3.556549549102783203e-03
2.555899620056152344e-01
-3.330876817926764488e-03
-9.488753974437713623e-02
-1.062063848325522919e-13
1.528921276330947876e-01
-1.587461829185485840e-01
-4.476015567779541016e-01
-1.521881520748138428e-01
-4.663752019405364990e-02
-2.163043320178985596e-01
-3.383705858141183853e-03
-1.632068157196044922e-01
-2.141388654708862305e-01
1.913679093122482300e-01
3.642995494644660272e-29
-2.449245452880859375e-01
3.167068660259246826e-01
-3.487808862701058388e-03
-2.537830471992492676e-01
-2.162157297134399414e-01
3.421620232984423637e-03
2.106392681598663330e-01
5.203978419303894043e-01
2.040884643793106079e-01
1.521786004304885864e-01
3.508394956588745117e-01
3.919857442378997803e-01
-2.333825528621673584e-01
-5.453495979309082031e-01
3.698635399341583252e-01
2.158456146717071533e-01
3.356900764629244804e-03
-4.562505185604095459e-01
-3.442412940785288811e-03
3.301461040973663330e-01
-3.848060369491577148e-01
1.521788388490676880e-01
-1.514664441347122192e-01
-3.238290846347808838e-01
-2.158648222684860229e-01
-3.508781781420111656e-03
-4.087705612182617188e-01
-3.411387326195836067e-03
2.626990675926208496e-01
-3.965090811252593994e-01
2.541799082410163619e-30
3.425222821533679962e-03
4.081592559814453125e-01
-1.827378273010253906e-01
-1.517230272293090820e-01
-3.478451166301965714e-03
1.393777294696537051e-29
-3.666691780090332031e-01
1.514664441347122192e-01
-3.482756614685058594e-01
2.156895995140075684e-01
-3.066424131393432617e-01
-4.331247881054878235e-02
2.404510527849197388e-01
2.161789387464523315e-01
-3.434504615142941475e-03
4.957266896963119507e-02
5.055118203163146973e-01
-2.161580026149749756e-01
1.517053395509719849e-01
3.467960981652140617e-03
-4.808968603610992432e-01
2.638604044914245605e-01
3.418967593461275101e-03
-3.364898962900042534e-03
1.837618201971054077e-01
3.381881397217512131e-03
2.145994752645492554e-01
3.383882110938429832e-03
-2.449716329574584961e-01
2.147054672241210938e-01
-1.525150835514068604e-01
-3.414716571569442749e-03
-1.052902415394783020e-01
-3.502625524997711182e-01
-1.138583943247795105e-01
1.968981027603149414e-01
2.439602017402648926e-01
6.762018799781799316e-01
2.266564369201660156e-01
1.522075682878494263e-01
-1.525178253650665283e-01
2.139879316091537476e-01
2.867289185523986816e-01
1.550878584384918213e-01
2.008638828992843628e-01
-3.451092168688774109e-03
-5.751031041145324707e-01
3.976247310638427734e-01
-3.505454631522297859e-03
-6.237214803695678711e-02
2.479537725448608398e-01
3.355549881234765053e-03
1.640554964542388916e-01
-1.523825973272323608e-01
-3.514422569423913956e-03
-6.296174228191375732e-02
1.223100945353507996e-01
-2.201526314020156860e-01
3.403335576876997948e-03
-5.292589068412780762e-01
-3.405585186555981636e-03
-1.526219993829727173e-01
-5.638725757598876953e-01
-3.409899072721600533e-03
4.849002659320831299e-01
4.273275136947631836e-01
8.845629220333209442e-30
-2.105294913053512573e-01
-2.930364012718200684e-01
2.172312289476394653e-01
-1.640177145600318909e-02
1.601172414927368691e-29
3.849106603202470031e-35
-5.262122090552025160e-31
-2.775093019008636475e-01
1.519964188337326050e-01
-2.373637557029724121e-01
2.762669920921325684e-01
-1.558442413806915283e-01
-6.674177646636962891e-01
-6.686156988143920898e-01
6.617879271507263184e-01
3.941105902194976807e-01
3.701923191547393799e-01
-7.157993968576192856e-03
-3.502602688968181610e-03
4.348245859146118164e-01
-3.817698939201363828e-07
3.867576420307159424e-01
-1.999026536941528320e-01
6.209737062454223633e-01
-3.478702390566468239e-03
-8.701947331428527832e-01
4.265835583209991455e-01
1.693418443699543172e-15
3.378792200237512589e-03
2.640190422534942627e-01
-1.243477240204811096e-01
3.533601993694901466e-03
-3.312504151836037636e-03
3.606868674978613853e-03
-4.986176202289714154e-31
3.004890084266662598e-01
-3.442621091380715370e-03
-3.500390565022826195e-03
-1.517146527767181396e-01
6.922122240066528320e-01
-1.931568980216979980e-01
-1.518686264753341675e-01
4.230540990829467773e-01
2.882483303546905518e-01
-3.496554447337985039e-03
3.676359076052904129e-03
1.522479355335235596e-01
3.675438929349184036e-03
-2.604886293411254883e-01
1.283993273973464966e-01
-3.532910021021962166e-03
-4.160976409912109375e-01
-3.528663516044616699e-01
-1.522119641304016113e-01
-1.232225373387336731e-01
-3.407516749575734138e-03
3.424754366278648376e-03
-4.016894698143005371e-01
-5.467613339424133301e-01
3.415215294808149338e-03
-2.751124039928604628e-33
-1.639125738381535942e-34
3.509478643536567688e-03
-2.156292051076889038e-01
2.431742399930953979e-01
2.719471156597137451e-01
3.455521073192358017e-03
7.826432585716247559e-02
1.517313718795776367e-01
-3.092343509197235107e-01
-2.584543228149414062e-01
3.318147500976920128e-03
1.520956605672836304e-01
-5.238894820213317871e-01
3.003656268119812012e-01
6.336370110511779785e-01
3.428356256335973740e-03
3.462874330580234528e-03
-2.150685638189315796e-01
6.973891854286193848e-01
-5.354846715927124023e-01
-3.124522566795349121e-01
-3.442569635808467865e-03
3.471091156825423241e-03
-3.449669573456048965e-03
1.491891632803739269e-30
3.340166760608553886e-03
-1.891912221908569336e-01
-3.448143135756254196e-03
-4.403620958328247070e-01
-1.522279977798461914e-01
-4.144595265388488770e-01
1.593831926584243774e-01
-1.529384702444076538e-01
3.416887251660227776e-03
2.194648976439061983e-11
-1.711350679397583008e-01
7.205897460798223863e-35
-3.288631094619631767e-03
-1.522233784198760986e-01
-3.056556880474090576e-01
4.876442551612854004e-01
3.436917671933770180e-03
-3.153165876865386963e-01
-3.414965933188796043e-03
2.185776644056348826e-32
3.511278191581368446e-03
-1.529812216758728027e-01
2.151426374912261963e-01
3.454502439126372337e-03
-4.695876538753509521e-01
3.500656224787235260e-03
3.365588607266545296e-03
3.574298694729804993e-03
1.208828436577707929e-29
-3.434504149481654167e-03
2.409144827038512671e-30
-2.364428490400314331e-01
-3.683974267914891243e-03
1.527340561151504517e-01
-2.646598219871520996e-01
2.786060273647308350e-01
2.199878543615341187e-01
-1.682888117834950056e-30
-3.620843403041362762e-03
6.722090776250709534e-31
-4.011375904083251953e-01
-3.368643810972571373e-03
3.368464065715670586e-03
3.390759928151965141e-03
3.295381320640444756e-03
-3.386265831068158150e-03
2.066866074677944178e-31
-2.659306526184082031e-01
2.290742546319961548e-01
-3.445867216214537621e-03
1.401882901886699925e-29
-3.398560220375657082e-03
-4.357030093669891357e-01
-3.548924028873443604e-01
-1.529530435800552368e-01
-2.126391232013702393e-01
2.007668316364288330e-01
-2.370706498622894287e-01
-2.161964476108551025e-01
-4.082751572132110596e-01
-5.759240388870239258e-01
-3.321868833154439926e-03
-3.387897042557597160e-03
2.460101991891860962e-01
-2.159803807735443115e-01
3.653213679790496826e-01
-1.477963477373123169e-01
-2.566808462142944336e-01
-2.911245524883270264e-01
-1.529595553874969482e-01
-3.521417966112494469e-03
3.597900504246354103e-03
-2.008638828992843628e-01
1.726240661525935138e-08
-1.795817464590072632e-01
-3.166238665580749512e-01
3.359856782481074333e-03
2.654351294040679932e-01
4.990667402744293213e-01
-3.429330186918377876e-03
-3.371107857674360275e-03
3.433165373280644417e-03
-1.527089327573776245e-01
-2.645887732505798340e-01
-3.411526326090097427e-03
2.151802927255630493e-01
2.568519441394008799e-35
4.646882787346839905e-02
-2.163720726966857910e-01
3.506365418434143066e-01
-3.307941835373640060e-03
-1.036125347018241882e-01
-3.167172074317932129e-01
-3.808631002902984619e-01
2.284698933362960815e-01
-2.769026160240173340e-01
-1.619954971478366756e-30
2.121431380510330200e-01
3.375250147655606270e-03
-3.103953599929809570e-01
3.383402246981859207e-03
-1.520297378301620483e-01
1.110896704464939849e-31
8.155502893776998413e-35
3.445623209699988365e-03
2.097352549594701495e-35
3.589758649468421936e-03
4.140071272850036621e-01
2.159019857645034790e-01
3.444458823651075363e-03
4.207878839224576950e-03
-2.109182476997375488e-01
2.108103036880493164e-01
-1.795144230127334595e-01
-2.151152789592742920e-01
3.365872660651803017e-03
-1.523924320936203003e-01
3.543562954291701317e-03
2.782724797725677490e-01
-1.681101173162460327e-01
-3.020305931568145752e-01
2.790808081626892090e-01
1.527682095766067505e-01
4.826582968235015869e-01
-2.166120409965515137e-01
1.114878574028915266e-31
-5.937821865081787109e-01
3.011430799961090088e-01
-1.520091444253921509e-01
3.433137433603405952e-03
-2.155862003564834595e-01
3.052048385143280029e-01
-4.209550097584724426e-03
-3.438624087721109390e-03
2.995973825454711914e-01
-1.527243405580520630e-01
-6.290037035942077637e-01
3.388090874523186358e-08
-2.184918224811553955e-01
-2.351161390542984009e-01
2.442391812801361084e-01
3.479416249319911003e-03
2.796642119928320656e-31
-3.327052108943462372e-03
-3.186353744788019973e-19
3.461052197962999344e-03
3.433868288993835449e-01
1.521224975585937500e-01
-2.077530911744988497e-30
1.206415444612503052e-01
-1.519921123981475830e-01
1.246324773121542180e-35
-3.419228829443454742e-03
-3.742098212242126465e-01
1.522987931966781616e-01
3.497511846944689751e-03
3.540571546182036400e-03
-3.449939191341400146e-03
-3.358952701091766357e-03
-3.319160081446170807e-03
1.528022587299346924e-01
3.468959359452128410e-03
-3.377590095624327660e-03
-2.601957917213439941e-01
2.152704298496246338e-01
-1.528921276330947876e-01
-3.459938568994402885e-03
-1.105287659196827383e-29
3.445191308856010437e-03
3.480615559965372086e-03
-3.420973429456353188e-03
4.992552101612091064e-01
3.222684562206268311e-01
5.134932580403983593e-04
3.317030845209956169e-03
3.829925656318664551e-01
3.427766729146242142e-03
2.540273070335388184e-01
2.518498897552490234e-01
8.593965730464817578e-36
3.767085969448089600e-01
-6.224258015967366897e-33
1.509250523668015376e-05
2.708175182342529297e-01
-1.520943194627761841e-01
-1.433376370375738389e-29
7.690464258193969727e-01
-3.319252748042345047e-03
-4.847761094570159912e-01
3.415621584281325340e-03
-4.632785096652613528e-35
-5.947471408267876037e-30
7.324578762054443359e-01
-3.548677777871489525e-03
3.417039988562464714e-03
3.809104561805725098e-01
1.250687785708512184e-32
-2.867549955844879150e-01
-4.659241130670654947e-31
1.521317660808563232e-01
1.338122583665329998e-29
2.593218088150024414e-01
4.135767817497253418e-01
1.522037684917449951e-01
3.392689628526568413e-03
1.496877670288085938e-01
-3.425834001973271370e-03
-4.020146131515502930e-01
1.519921123981475830e-01
2.623642044923912180e-33
-3.422898007556796074e-03
1.520215570926666260e-01
-1.788545399904251099e-02
-2.847802937030792236e-01
4.161021709442138672e-01
-3.603251874446868896e-01
3.372085047885775566e-03
-3.938854038715362549e-01
3.363019526004791260e-01
1.601532846689224243e-01
-3.614886105060577393e-01
1.521089673042297363e-01
-1.521881520748138428e-01
-2.436958402395248413e-01
3.546743886545300484e-03
-5.019544363021850586e-01
3.903559148311614990e-01
3.795184493064880371e-01
3.254290819168090820e-01
-9.571184217929840088e-02
2.132406830787658691e-01
3.872119188308715820e-01
3.609358370304107666e-01
-1.321579898685981979e-30
-3.557674288749694824e-01
-4.173405170440673828e-01
3.664041161537170410e-01
-3.520048921927809715e-03
2.161134183406829834e-01
-7.976269721984863281e-01
-1.379543840885162354e-01
3.313840329647064209e-01
3.457284532487392426e-03
2.044130116701126099e-01
2.235877364873886108e-01
2.618504166603088379e-01
-3.326416714116930962e-03
2.516157031059265137e-01
2.016638159829887722e-34
3.332194173708558083e-03
5.502862334251403809e-01
3.535138675943017006e-03
1.067504490492865443e-05
3.312625922262668610e-03
3.396698972210288048e-03
-4.304055869579315186e-01
3.444326343014836311e-03
3.246131837368011475e-01
3.432943252846598625e-03
-3.307033097371459007e-03
4.222978651523590088e-01
4.989655315876007080e-01
1.521012485027313232e-01
-2.720919549465179443e-01
1.518577337265014648e-01
-3.480550134554505348e-03
3.337580943480134010e-03
-2.097630947828292847e-01
-3.322184085845947266e-03
3.490781877189874649e-03
-1.521761715412139893e-01
-3.443285357207059860e-03
-3.247486660256981850e-03
-3.574513364583253860e-03
-1.850806772708892822e-01
1.827036738395690918e-01
-1.769416481256484985e-01
-3.810998499393463135e-01
2.666579745709896088e-02
-3.316012909635901451e-03
2.121431380510330200e-01
-2.720772624015808105e-01
6.796293705701828003e-02
3.463812870904803276e-03
2.165951132774353027e-01
3.445290327072143555e-01
1.219229176640510559e-01
2.960776090621948242e-01
3.262096643447875977e-01
-3.393948310986161232e-03
-1.654197667733114940e-08
5.135185627781869950e-31
8.052986420647184108e-31
-1.404258246831293538e-30
2.675046026706695557e-01
3.743999600410461426e-01
3.542186459526419640e-03
3.458490362390875816e-03
-1.375576108694076538e-01
-3.272863104939460754e-03
3.373051295056939125e-03
-3.189781597622979490e-30
4.259683489799499512e-01
1.145218205475050992e-29
2.332843542098999023e-01
2.655309438705444336e-01
-2.166918069124221802e-01
1.517998576164245605e-01
2.162133604288101196e-01
-2.036421559751033783e-03
-2.000750005245208740e-01
-3.288131672888994217e-03
1.516958177089691162e-01
-3.306749165058135986e-01
-3.427977208048105240e-03
-3.420427674427628517e-03
2.538315355777740479e-01
2.364841476082801819e-02
5.968195467712421032e-31
3.601043717935681343e-03
-3.245562001914131269e-31
2.905283868312835693e-01
-1.517586410045623779e-01
3.990457952022552490e-01
-6.881541048642247915e-05
1.421323960969073829e-29
-3.434069454669952393e-03
-2.493419498205184937e-01
-3.438527695834636688e-03
-3.313174471259117126e-03
3.431391669437289238e-03
-2.439396419994009402e-21
-3.443658119067549706e-03
2.711679041385650635e-01
-3.399414243176579475e-03
3.452677978202700615e-03
1.520815640687942505e-01
7.508562505245208740e-02
-2.223198919974509060e-34
3.447665600106120110e-03
-3.498794976621866226e-03
3.495899727568030357e-03
-2.153103947639465332e-01
3.409831551834940910e-03
6.160907074809074402e-02
2.173172856093993213e-29
-3.476883750408887863e-03
3.073978424072265625e-01
-2.272011637687683105e-01
-4.453689754009246826e-01
2.642426192760467529e-01
-2.163043320178985596e-01
-3.160284459590911865e-01
-3.397858003154397011e-03
3.318614792078733444e-03
3.268124461174011230e-01
2.323275059461593628e-01
-3.307417966425418854e-03
4.701561033725738525e-01
3.472529584541916847e-03
1.548050642013549805e-01
1.522062569856643677e-01
-3.336174180731177330e-03
3.418758511543273926e-03
-3.407762153074145317e-03
-3.982776105403900146e-01
-3.378416644409298897e-03
-1.707835793495178223e-01
-3.601449975101813515e-34
2.701968550682067871e-01
3.339797025546431541e-03
3.854640945792198181e-02
1.607719651852690390e-10
3.483993466943502426e-03
-1.520013213157653809e-01
-3.320541698485612869e-03
-1.819657832384109497e-01
-3.463020082563161850e-03
3.438657149672508240e-03
2.595967054367065430e-01
-3.396469401195645332e-03
1.520350873470306396e-01
-2.680837213993072510e-01
-2.271138592907341881e-30
2.342355847358703613e-01
4.976509883999824524e-02
1.525178253650665283e-01
3.469247603788971901e-03
3.449983894824981689e-03
4.674532711505889893e-01
-3.448816714808344841e-03
3.478149175643920898e-01
1.632068157196044922e-01
3.407401265576481819e-03
2.129197865724563599e-01
3.332339460030198097e-03
3.436522092670202255e-03
-4.148642119701718251e-31
-3.488157177343964577e-03
-3.453296376392245293e-03
-4.350389242172241211e-01
2.793451305478811264e-03
-4.432945549488067627e-01
5.428239139200430350e-34
1.522446125745773315e-01
-3.795601234239345895e-36
-1.520464420318603516e-01
1.522087454795837402e-01
-3.923467993736267090e-01
-3.371766069903969765e-03
1.339783370494842529e-01
5.784360376385063817e-31
6.713603734970092773e-01
-1.080859079957008362e-01
2.161815613508224487e-01
4.984203279018402100e-01
3.344781463965773582e-03
2.151928246021270752e-01
-3.481368767097592354e-03
-3.547902451828122139e-03
5.159124805335235999e-32
2.830311954021453857e-01
6.575837135314941406e-01
4.757165610790252686e-01
1.073246805306407609e-29
-2.023471146821975708e-01
-3.394537372514605522e-03
-4.518432915210723877e-01
7.104928493499755859e-01
-3.798136413097381592e-01
3.638120368123054504e-03
-2.159348279237747192e-01
3.359718481078743935e-03
-3.044225275516510010e-01
-3.866667449474334717e-01
3.406699514016509056e-03
-3.387723816558718681e-03
-3.522243583574891090e-03
5.189637541770935059e-01
3.367783501744270325e-03
-4.848239570856094360e-02
3.413985250517725945e-03
4.740594625473022461e-01
-2.730335295200347900e-01
2.166499942541122437e-01
-3.465739777311682701e-03
1.518686264753341675e-01
6.659286618232727051e-01
-3.474017838016152382e-03
-5.571004748344421387e-01
2.842939198017120361e-01
-3.408435033634305000e-03
-1.521895229816436768e-01
3.285974860191345215e-01
6.624121624554391019e-07
3.314199391752481461e-03
-2.662295401096343994e-01
3.299443125724792480e-01
1.522075682878494263e-01
-1.429059803485870361e-01
-3.507597604766488075e-03
-5.606911778450012207e-01
3.513213014230132103e-03
-4.294781684875488281e-01
-5.552093982696533203e-01
-3.601726377382874489e-03
-3.394186962395906448e-03
6.302618980407714844e-01
3.445826936513185501e-03
3.588708350434899330e-03
-1.087279990315437317e-01
-2.588772475719451904e-01
-1.522011216729879379e-02
-4.550865888595581055e-01
-3.055143654346466064e-01
-2.156669497489929199e-01
-6.183623075485229492e-01
2.646387517452239990e-01
2.164727449417114258e-01
3.361564362421631813e-03
-1.417540311813354492e-01
2.784404158592224121e-01
-2.091442346572875977e-01
-3.525783540681004524e-03
1.770773977041244507e-01
-3.445514943450689316e-03
2.183499634265899658e-01
-3.372576320543885231e-03
-1.061343328219270521e-13
-1.521492451429367065e-01
-2.221899032592773438e-01
-3.424589289352297783e-03
-2.720895111560821533e-01
3.375881351530551910e-03
-3.227121531963348389e-01
9.825364829370686846e-30
2.631883621215820312e-01
3.262673318386077881e-01
-3.623940749093890190e-03
-3.451253753155469894e-03
3.630190789699554443e-01
3.383785951882600784e-03
3.638169495388865471e-03
2.162157297134399414e-01
7.572305202484130859e-02
1.453325654881500690e-34
-3.525443142279982567e-03
1.919298470020294189e-01
-2.171555660336894645e-32
1.521895229816436768e-01
3.674088408731678638e-32
3.473744494840502739e-03
-2.417249828577041626e-01
4.077624678611755371e-01
9.804818034172058105e-02
-1.429059803485870361e-01
-3.236022630158338241e-31
-3.786908984184265137e-01
-1.522446125745773315e-01
-3.423507092520594597e-03
-3.470591967925429344e-03
-3.559479257091879845e-03
2.627949118614196777e-01
-3.133301436901092529e-01
4.329596161842346191e-01
3.549262182787060738e-03
1.600373261082152896e-24
-5.598652362823486328e-02
-3.037534654140472412e-01
3.272573929280042648e-03
-1.523825973272323608e-01
1.659016311168670654e-02
-4.361006915569305420e-01
-3.436462720856070518e-03
-6.034488677978515625e-01
-3.309632884338498116e-03
-3.408894175663590431e-03
3.065209090709686279e-01
-3.387919161468744278e-03
3.465405898168683052e-03
-1.558442413806915283e-01
-3.441663226112723351e-03
-2.591753602027893066e-01
-2.648932039737701416e-01
-1.669802665710449219e-01
-3.854640945792198181e-02
2.151426374912261963e-01
-3.470015013590455055e-03
2.752965688705444336e-01
3.356629284098744392e-03
-2.143415510654449463e-01
-3.667154014110565186e-01
1.232225373387336731e-01
3.540239995345473289e-03
1.347776213472022952e-30
3.349184757098555565e-03
2.752965688705444336e-01
-5.096118431538343430e-03
-2.166146934032440186e-01
-3.142002957130633753e-34
-5.441730104193825428e-32
-3.615736262872815132e-03
3.642756026238203049e-03
-1.960595697164535522e-01
1.844569033886597074e-29
4.169191718101501465e-01
-6.666374802589416504e-01
3.450914053246378899e-03
2.147124362073556845e-31
-2.488786429166793823e-01
2.419815212488174438e-01
1.516946554183959961e-01
1.522026509046554565e-01
-1.528515070676803589e-01
-3.362834220752120018e-03
3.518352285027503967e-03
-3.473305841907858849e-03
3.463685279712080956e-03
6.593742339053705362e-33
2.802719473838806152e-01
-6.169152855873107910e-01
3.382659517228603363e-03
5.083396434783935547e-01
2.148222178220748901e-01
-6.998305320739746094e-01
3.505433909595012665e-03
3.326407400891184807e-03
5.225721597671508789e-01
1.521881520748138428e-01
-6.955377907455396829e-20
-3.663764568045735359e-03
-3.887037300135258379e-29
2.428529709577560425e-01
3.374287858605384827e-03
-1.140895787501393552e-18
-3.530726535245776176e-03
2.170113027095794678e-01
-1.526940315961837769e-01
-1.406803333160145889e-30
-4.013287425041198730e-01
2.162269055843353271e-01
-3.368393052369356155e-03
2.596595287322998047e-01
1.522087454795837402e-01
1.527818143367767334e-01
3.356288652867078781e-03
3.640509909018874168e-03
-2.823329567909240723e-01
2.782981991767883301e-01
3.289931220933794975e-03
-3.053219616413116455e-01
-3.400548594072461128e-03
1.519964188337326050e-01
4.397446880226294262e-35
4.657382369041442871e-01
1.195906847715377808e-01
3.533427836373448372e-03
-3.479761769995093346e-03
-9.198576956987380981e-02
-3.366372361779212952e-02
1.103543490171432495e-01
-3.361203940585255623e-03
3.333939006552100182e-03
2.649012506008148193e-01
3.983228802680969238e-01
-5.907024741172790527e-01
6.787266013512277232e-30
3.479879582300782204e-03
-2.696273326873779297e-01
-4.088224768638610840e-01
3.449649317190051079e-03
-2.293573319911956787e-01
-3.532945876941084862e-03
-2.161404788494110107e-01
3.420876562595367432e-01
-3.476315643638372421e-03
-6.534528136253356934e-01
3.052048385143280029e-01
3.031421601772308350e-01
1.521718651056289673e-01
3.358814865350723267e-03
1.170887276530265808e-01
-2.311640977859497070e-01
1.430191993713378906e-01
-2.516197264194488525e-01
-3.287674784660339355e-01
3.500488400459289551e-01
-3.436820581555366516e-03
-7.556653618812561035e-01
-3.396399552002549171e-03
5.952863097190856934e-01
3.445348469540476799e-03
-2.828564941883087158e-01
-3.050164580345153809e-01
-2.153881639242172241e-01
-3.367195604369044304e-03
4.996921122074127197e-01
3.511185292154550552e-03
1.522564142942428589e-01
1.659311205148696899e-01
-3.767437338829040527e-01
-1.689393963502275986e-34
3.331212094053626060e-03
3.377109533175826073e-03
7.233624458312988281e-01
1.521043926477432251e-01
-1.347447931766510010e-01
1.517313718795776367e-01
3.454273641109466553e-01
3.444719128310680389e-03
3.489241236820816994e-03
-8.390865474939346313e-02
-2.148473262786865234e-01
-3.419799963012337685e-03
3.782965838909149170e-01
2.241435497999191284e-01
-6.120461130105789646e-32
-1.217789426445960999e-01
2.626188099384307861e-01
-3.662849310785531998e-03
-3.530885791406035423e-03
-4.947517812252044678e-01
2.290149480104446411e-01
2.343368828296661377e-01
4.631901085376739502e-01
1.499300832682841367e-15
-5.553391575813293457e-01
-3.490879898890852928e-03
2.987710833549499512e-01
3.355253934860229492e-01
-4.132057428359985352e-01
3.375606238842010498e-01
3.310961881652474403e-03
-1.534252166748046875e-01
3.235876858234405518e-01
-5.104616880416870117e-01
-1.523011177778244019e-01
3.421531757339835167e-03
5.154129862785339355e-01
-8.815234133765579324e-30
-9.848421159238707509e-34
3.541020676493644714e-03
3.403815673664212227e-03
2.162906229496002197e-01
-3.383551724255084991e-03
-2.967456281185150146e-01
3.448035335168242455e-03
1.477963477373123169e-01
-5.073170736432075500e-02
-2.787773609161376953e-01
3.314866684377193451e-03
-1.516958177089691162e-01
2.521277666091918945e-01
-1.522452235221862793e-01
3.393262159079313278e-03
-3.491301089525222778e-03
3.476562211290001869e-03
-7.508562505245208740e-02
1.516014486551284790e-01
1.523825973272323608e-01
1.521904170513153076e-01
3.426571609452366829e-03
1.523825973272323608e-01
-3.364351578056812286e-03
-1.921811306055542263e-32
-2.536159138024077041e-34
-3.724047448486089706e-03
-4.607749581336975098e-01
-3.364762961864471436e-01
-3.500497899949550629e-03
-1.189040690660476685e-01
-3.339997231960296631e-01
-1.330270308722897224e-35
-9.988796159954211123e-31
3.491604924201965332e-01
-2.650007009506225586e-01
-1.290971906581530928e-28
3.271276354789733887e-01
3.608728647232055664e-01
3.905950784683227539e-01
1.529881656169891357e-01
-3.307332284748554230e-03
3.378899302333593369e-03
3.346265526488423347e-03
3.362587420269846916e-03
1.954830139875411987e-01
-1.543982028961181641e-01
2.153881639242172241e-01
-1.522446125745773315e-01
3.424935042858123779e-03
-3.357770387083292007e-03
1.521486490964889526e-01
-5.884187221527099609e-01
5.275561809539794922e-01
3.471327712759375572e-03
3.523852527141571045e-01
-1.215137590548920343e-08
2.149509787559509277e-01
3.425781149417161942e-03
-9.300869462140954929e-36
-2.648074030876159668e-01
-1.590891927480697632e-01
-1.528352499008178711e-01
-1.521990001201629639e-01
-4.933055639266967773e-01
2.748498573296043049e-32
-3.320232965052127838e-03
-3.361757611855864525e-03
1.974546462297439575e-01
-7.453892330510667280e-35
-2.588762938976287842e-01
-1.436626747437612358e-34
3.583987476304173470e-03
3.594928653910756111e-03
-3.327445592731237411e-03
-3.435119986534118652e-03
-1.520275622606277466e-01
3.869129717350006104e-01
5.867219037003490456e-12
-3.443472785875201225e-03
-2.928070724010467529e-01
-2.592135965824127197e-01
-3.655122007215200669e-30
3.311848044395446777e-01
-2.857750356197357178e-01
-1.518677324056625366e-01
2.846703529357910156e-01
3.827863037586212158e-01
-3.508178982883691788e-03
-1.519800275564193726e-01
7.740533328615128994e-05
-6.806430144933507018e-31
-3.566316794604063034e-03
-1.521691828966140747e-01
-3.315480649471282959e-01
-3.381018759682774544e-03
3.935746550559997559e-01
-1.598565112033516018e-30
2.297184765338897705e-01
3.558421730995178223e-01
3.519497578963637352e-03
-2.145446235742277754e-29
-3.376640379428863525e-03
2.148103863000869751e-01
-3.264355473220348358e-03
-3.517127595841884613e-03
3.751117289066314697e-01
1.516958177089691162e-01
3.358506364747881889e-03
2.538250684738159180e-01
-4.210819303989410400e-01
2.713317275047302246e-01
1.522430777549743652e-01
-1.337172836065292358e-01
-3.380096750333905220e-03
4.376476589061727562e-34
8.424416929483413696e-02
2.777706682682037354e-01
3.058255612850189209e-01
7.751145958900451660e-01
2.495379596948623657e-01
3.405897645279765129e-03
-4.237979948520660400e-01
-3.336800960823893547e-03
-3.509215777739882469e-03
2.345618667291826543e-29
3.371506696566939354e-03
1.529842019081115723e-01
2.160003632307052612e-01
-3.020460009574890137e-01
-3.643971169367432594e-03
-3.286349475383758545e-01
-3.740666943485848606e-05
-3.344544675201177597e-03
-3.512550843879580498e-03
9.296628087759017944e-02
-1.261501610279083252e-01
1.386387450498162081e-34
3.421502709388732910e-01
-5.638796091079711914e-01
7.855303065471659689e-31
3.489615395665168762e-03
-3.369501559063792229e-03
-2.148103863000869751e-01
-5.709957978667281491e-30
4.310500919818878174e-01
3.477583406493067741e-03
2.355532944202423096e-01
1.808234155178070068e-01
-1.530099213123321533e-01
1.657858788967132568e-01
-1.238462621501086355e-34
-4.350544884800910950e-03
-3.402610775083303452e-03
1.494189345976337790e-04
-3.930117527488619089e-04
-3.379064612090587616e-03
3.286396324672995892e-31
2.168233692646026611e-01
-3.985477297197412404e-30
-4.237983226776123047e-01
-1.199663355946540833e-01
3.063950538635253906e-01
-2.162037789821624756e-01
-3.490753937512636185e-03
-2.642429471015930176e-01
2.710106670856475830e-01
-3.405735595151782036e-03
-2.989886105060577393e-01
-3.526434069499373436e-03
3.366337390616536140e-03
-9.878005159112374065e-30
3.348192200064659119e-03
1.522119641304016113e-01
-1.146074309945106506e-01
-3.357517765834927559e-03
-3.512163646519184113e-03
-2.120304256677627563e-01
2.816228270530700684e-01
-3.481480991467833519e-03
-2.640157938003540039e-01
1.517870426177978516e-01
-5.053019523620605469e-01
3.350746119394898415e-03
3.312178654596209526e-03
-8.840031986432334038e-30
-4.228544831275939941e-01
-2.331657856702804565e-01
3.512861728668212891e-01
-4.249954223632812500e-01
2.251197955631897816e-34
3.050186634063720703e-01
4.922459721565246582e-01
3.431410063058137894e-03
-2.535199820995330811e-01
-2.627945840358734131e-01
3.305939259007573128e-03
2.403072416782379150e-01
-1.771235461790873804e-34
-2.567927837371826172e-01
3.485155524685978889e-03
1.522069573402404785e-01
-3.854640945792198181e-02
-3.752922415733337402e-01
-3.362723886966705322e-01
2.355788946151733398e-01
3.442890346050262451e-01
9.667337011219022461e-31
-5.509585656654364073e-30
4.443716108798980713e-01
3.242228627204895020e-01
4.127739928662776947e-03
4.228465855121612549e-01
-3.415977815166115761e-03
4.630114883184432983e-03
-4.518939501924806761e-35
-2.982288002967834473e-01
3.567939624190330505e-03
-2.154987007379531860e-01
1.518611013889312744e-01
-5.897931456565856934e-01
-3.402593778446316719e-03
3.450819291174411774e-03
-3.438986837863922119e-03
3.343300195410847664e-03
1.522446125745773315e-01
-6.167674809694290161e-02
-3.476250218227505684e-03
2.988599538803100586e-01
6.490982756427067731e-30
3.459995985031127930e-01
-3.396700369194149971e-03
-3.324340563267469406e-03
2.403772301005082440e-35
1.530336588621139526e-01
1.528596282005310059e-01
3.361093811690807343e-03
1.989746124309021980e-06
-2.505230605602264404e-01
-2.040363699197769165e-01
1.521319150924682617e-01
2.829534113407135010e-01
-1.530336588621139526e-01
-2.651448249816894531e-01
-8.739565014839172363e-01
-2.746255993843078613e-01
7.630281895399093628e-02
1.102478653192520142e-01
6.305696964263916016e-01
-1.944013535976409912e-01
-2.151426374912261963e-01
4.923621416091918945e-01
1.497238576412200928e-01
3.071626126766204834e-01
-3.308480083942413330e-01
-3.123302161693572998e-01
2.645080685615539551e-01
-3.651660978794097900e-01
1.521788388490676880e-01
-2.876713409682604513e-30
-1.376056373119354248e-01
3.435283899307250977e-03
8.795327544212341309e-01
2.628389298915863037e-01
3.339326474815607071e-03
-2.545622289180755615e-01
-3.444682806730270386e-03
3.395001171156764030e-03
-2.601597607135772705e-01
3.873390853404998779e-01
3.398040076717734337e-03
4.079302251338958740e-01
-1.510524534817945447e-30
1.881119906902313232e-01
1.522987931966781616e-01
1.520275622606277466e-01
-4.048874080181121826e-01
1.849336513259913772e-06
1.881267929903449664e-30
-1.521486490964889526e-01
-3.776778578758239746e-01
-2.159216850996017456e-01
-2.284698933362960815e-01
1.493590623140335083e-01
5.479053854942321777e-01
6.555565542699111073e-35
3.431284567341208458e-03
3.400137126445770264e-01
1.205166103318333626e-03
-1.531109660863876343e-01
5.649037957191467285e-01
-3.231423795223236084e-01
-3.110105217675412777e-36
-6.655354499816894531e-01
4.124187491548936475e-35
3.435612423345446587e-03
3.413790371268987656e-03
3.866420302074402571e-04
-6.489312052726745605e-01
2.648991346359252930e-01
-2.151185125112533569e-01
3.240504562854766846e-01
2.333456277847290039e-01
-5.734425111875904109e-34
-3.740706741809844971e-01
-3.431761171668767929e-03
3.497770754620432854e-03
-3.416008083149790764e-03
6.309967637062072754e-01
1.982708275318145752e-01
3.914170265197753906e-01
4.180574027012462289e-34
2.116102278232574463e-01
-3.360183443874120712e-03
-3.409503726288676262e-03
-5.948047041893005371e-01
-3.399447770789265633e-03
-3.454372985288500786e-03
-1.480085104703903198e-01
2.295572012662887573e-01
2.137195020914077759e-01
3.470323747023940086e-03
-2.769515812397003174e-01
-3.971667587757110596e-01
3.586060134693980217e-03
-8.835262805223464966e-02
1.527592092752456665e-01
2.164994274214531292e-30
-3.452529897913336754e-03
3.360221860930323601e-03
3.486190689727663994e-03
-4.718773995048275665e-30
-4.378801286220550537e-01
2.597755789756774902e-01
-9.287583827972412109e-02
-3.204211294651031494e-01
-4.697175025939941406e-01
-2.120909541845321655e-01
-6.293960809707641602e-01
-2.638069391250610352e-01
3.346573095768690109e-03
7.128589153289794922e-01
-1.566912980018980965e-29
2.963942289352416992e-01
2.593947649002075195e-01
3.470012685284018517e-03
3.396881977096199989e-03
-3.034694790840148926e-01
2.928068041801452637e-01
3.464210079982876778e-03
-3.342312527820467949e-03
-1.284436583518981934e-01
7.057962990359748493e-30
3.720041131600737572e-03
-1.632068157196044922e-01
-1.527664512395858765e-01
3.462404012680053711e-01
-3.332516644150018692e-03
-1.521990001201629639e-01
-4.421007037162780762e-01
-3.387998323887586594e-03
-1.345427036285400391e-01
-8.125486373901367188e-01
-2.812341749668121338e-01
-2.601617574691772461e-01
3.383694682270288467e-03
-3.532388480380177498e-03
4.366590527287678578e-31
1.527628749608993530e-01
-3.376394510269165039e-03
2.159597873687744141e-01
3.434251993894577026e-03
-3.445510054007172585e-03
-4.837881028652191162e-01
-3.481161547824740410e-03
-2.183499634265899658e-01
3.780181109905242920e-01
4.922731568953729306e-33
3.531651804223656654e-03
3.538355464115738869e-03
1.530387252569198608e-01
-3.522786544635891914e-03
2.271152734756469727e-01
4.323344230651855469e-01
3.484765766188502312e-03
-2.164574414491653442e-01
-3.421568078920245171e-03
3.500572172924876213e-03
-1.661618202924728394e-01
3.294457448646426201e-03
1.922113001346588135e-01
3.147597478210952650e-31
4.629487097263336182e-01
-1.530305445194244385e-01
-2.546001672744750977e-01
1.199725859714770851e-29
-3.465536516159772873e-03
2.769520580768585205e-01
8.269156515598297119e-02
-1.533680707216262817e-01
-3.494492731988430023e-03
-2.129186242818832397e-01
3.307530423626303673e-03
-1.529384702444076538e-01
-2.159790247678756714e-01
4.735495522676893664e-34
-1.519184857606887817e-01
4.718751609325408936e-01
1.283610314130783081e-01
2.149233967065811157e-01
3.078944385051727295e-01
-1.737174365032096049e-34
1.727167814970016479e-01
3.935537040233612061e-01
4.376024007797241211e-01
-3.425138304010033607e-03
2.403072416782379150e-01
3.286472558975219727e-01
3.445405513048171997e-03
-2.883927822883657574e-29
3.350787563249468803e-03
-3.382625291123986244e-03
-2.508440911769866943e-01
-1.784319877624511719e-01
-1.812454015016555786e-01
3.392062149941921234e-03
1.528679728507995605e-01
-1.415100544691085815e-01
-1.334379613399505615e-02
3.490470116958022118e-03
2.137195020914077759e-01
-2.403072416782379150e-01
-2.769517600536346436e-01
-2.131812274456024170e-01
3.517655134201049805e-01
-2.159019857645034790e-01
1.529384702444076538e-01
3.846612572669982910e-01
-3.370438702404499054e-03
2.193056344985961914e-01
-3.377078333869576454e-03
2.778574228286743164e-01
2.109695225954055786e-01
-2.649801373481750488e-01
3.384256064891815186e-01
-5.330018326640129089e-02
-3.304114341735839844e-01
-3.303295467048883438e-03
2.373643219470977783e-02
1.889103204011917114e-01
-3.492892021313309669e-03
-2.876889705657958984e-01
-2.005634456872940063e-01
-4.819170975823766567e-34
-3.401801921427249908e-03
3.410072764381766319e-03
1.528995335102081299e-01
4.230992496013641357e-01
4.362397863117596916e-35
2.147980332374572754e-01
-8.269934654235839844e-01
-3.297058166936039925e-03
3.426734125241637230e-03
-2.638604044914245605e-01
-2.543320655822753906e-01
-3.445296883583068848e-01
3.369687357917428017e-03
2.232287973165512085e-01
4.011382758617401123e-01
-2.462407201528549194e-01
1.519184857606887817e-01
-2.441907674074172974e-01
-3.457984924316406250e-01
-4.325481355190277100e-01
3.266298174858093262e-01
2.404944151639938354e-01
3.367203986272215843e-03
-3.324822289869189262e-03
3.555719740688800812e-03
3.767434656620025635e-01
-3.597804526510913667e-31
3.435780061408877373e-03
4.675316214561462402e-01
1.527018100023269653e-01
1.528943330049514771e-01
-3.397236112505197525e-03
-2.149899750947952271e-01
1.897093593328236238e-09
-1.664572293666934682e-32
1.521043926477432251e-01
-3.300944576039910316e-03
1.522209197282791138e-01
-1.525919437408447266e-01
3.436305793002247810e-03
-4.180732369422912598e-01
1.519610732793807983e-01
1.798365265130996704e-01
-2.641052305698394775e-01
-3.461180021986365318e-03
-3.421781817451119423e-03
-3.472552867606282234e-03
-3.420104505494236946e-03
3.083017887547612190e-03
-3.322038101032376289e-03
4.400760649310785178e-34
4.781120774700626068e-34
-1.966990381479263306e-01
-3.435871098190546036e-03
-1.520350873470306396e-01
-6.832292910985415801e-06
-3.302093446254730225e-01
3.309022784233093262e-01
-3.373907413333654404e-03
4.497003828873857856e-06
2.156895995140075684e-01
-4.435798525810241699e-01
-1.134749696241871547e-34
-2.163043320178985596e-01
-3.405688703060150146e-01
2.182695269584655762e-01
6.094550204042293216e-35
3.477637888863682747e-03
3.379000118002295494e-03
1.676217168569564819e-01
-1.773243697461982717e-33
-1.642501652240753174e-01
-3.324289573356509209e-03
-3.411486744880676270e-03
-3.451872617006301880e-03
-1.743063628673553467e-01
2.170173674821853638e-01
-1.522069573402404785e-01
-2.626191675662994385e-01
3.511004848405718803e-03
8.280353993177413940e-02
3.394313855096697807e-03
1.007447987794876099e-01
3.336746944114565849e-03
-1.391528771486464953e-30
3.127873837947845459e-01
3.193794190883636475e-01
5.754963661414158054e-34
-8.885269256464489729e-12
3.279750933870673180e-03
3.424132009968161583e-03
-3.644516691565513611e-03
2.322532385587692261e-01
3.379340050742030144e-03
2.770205736160278320e-01
-3.436584724113345146e-03
-4.402905008146074272e-34
3.416287302970886230e-01
3.381341695785522461e-03
-2.465416211634874344e-03
-2.161931991577148438e-01
3.585013151168823242e-01
2.228144705295562744e-01
-9.670934826135635376e-02
3.315894631668925285e-03
-2.417249828577041626e-01
1.524012386798858643e-01
-1.527248322963714600e-01
-1.522119641304016113e-01
3.504537511616945267e-03
3.435634309425950050e-03
6.132412234233805991e-33
6.956125497817993164e-01
-1.530336588621139526e-01
-3.467214060947299004e-03
1.520013511180877686e-01
-3.389551304280757904e-03
2.847802937030792236e-01
-3.363608149811625481e-03
-3.851860165596008301e-01
-3.384246025234460831e-03
2.280403939297542971e-34
-3.484504064545035362e-03
3.090214431285858154e-01
-3.465596819296479225e-03
1.467740772227677142e-30
8.476256545700312078e-31
-6.729471564220200578e-30
-3.315287176519632339e-03
-2.575876945759145931e-30
8.347261723445244924e-35
-2.163513898849487305e-01
3.418854773044586182e-01
-2.210462760107586128e-33
2.145312577486038208e-01
-4.284295439720153809e-01
3.487180685624480247e-03
3.478775033727288246e-03
-2.653450071811676025e-01
2.086022794246673584e-01
2.100549936294555664e-01
-3.042826950550079346e-01
-3.255836665630340576e-01
2.371228635311126709e-01
2.729751765727996826e-01
-3.546934807673096657e-03
-2.162157297134399414e-01
-2.426882378515584529e-30
-3.224003016948699951e-01
-1.530275046825408936e-01
3.508935915306210518e-03
-5.027527809143066406e-01
7.049966454505920410e-01
-1.520297378301620483e-01
-1.297640138087417921e-29
-2.147934883832931519e-01
8.349826335906982422e-01
1.518677324056625366e-01
2.155317217111587524e-01
3.407674608752131462e-03
3.524159314110875130e-03
-1.950993239879608154e-01
-3.434635233134031296e-03
1.525178253650665283e-01
-2.386191455836017395e-26
2.150271087884902954e-01
1.517998576164245605e-01
3.308356739580631256e-03
2.174738645553588867e-01
2.158456891775131226e-01
6.952052096008665418e-35
3.064523041248321533e-01
2.632967233657836914e-01
-3.341896226629614830e-03
-3.494450123980641365e-03
-2.339259148814329902e-31
1.713009737396804877e-30
-1.521224975585937500e-01
3.475743578746914864e-03
4.060002565383911133e-01
-2.795145809650421143e-01
-2.908593118190765381e-01
-3.330560633912682533e-03
3.302905708551406860e-03
-6.107704341411590576e-02
3.300987882539629936e-03
-1.528793275356292725e-01
3.392138751223683357e-03
6.187691688537597656e-01
-3.418600885197520256e-03
-1.527350395917892456e-01
3.432149766013026237e-03
-3.310460597276687622e-03
-2.989583909511566162e-01
2.463734447956085205e-01
-3.316024551168084145e-03
2.903439900632730757e-29
1.518495976924896240e-01
-1.697065234184265137e-01
-4.150765538215637207e-01
-3.085173368453979492e-01
-3.899407386779785156e-01
-9.900405257940292358e-02
1.721799820661544800e-01
-9.469593167304992676e-01
-3.474251134321093559e-03
2.428823560476303101e-01
4.416429400444030762e-01
3.267720043659210205e-01
4.544724225997924805e-01
-1.520275622606277466e-01
-1.694564372301101685e-01
7.731890499666399532e-32
1.640135794878005981e-01
2.374741435050964355e-01
4.096901714801788330e-01
-1.527937203645706177e-01
-1.528793275356292725e-01
-1.090784554482187150e-33
-7.508562505245208740e-02
2.008638828992843628e-01
2.498788535594940186e-01
-3.285918235778808594e-01
-3.299827993323231678e-31
3.486106405034661293e-03
7.319680318841514268e-30
2.548117339611053467e-01
-3.465705784037709236e-03
2.800190150737762451e-01
3.487473586574196815e-03
3.564993143081665039e-01
-2.159412503242492676e-01
-2.152862250804901123e-01
1.159368111165341178e-32
-3.596743335947394371e-03
3.134048879146575928e-01
3.521484136581420898e-01
2.993635535240173340e-01
-2.851122915744781494e-01
3.477934515103697777e-03
1.019109027417140088e-30
-3.554010298103094101e-03
3.411451820284128189e-03
-3.062949180603027344e-01
-5.334445238113403320e-01
-9.788228987997701402e-30
-1.528995335102081299e-01
-3.450089832767844200e-03
-1.524099707603454590e-01
-1.232225373387336731e-01
8.594640675811172719e-30
-1.874823123216629028e-01
-1.881420499666231590e-29
5.127370565179411119e-30
3.278309712186455727e-03
-3.085122108459472656e-01
-3.825555443763732910e-01
-4.140672981739044189e-01
-2.162953615188598633e-01
-2.647059559822082520e-01
1.764033138751983643e-01
-3.406598465517163277e-03
3.425577422603964806e-03
-4.275963306427001953e-01
-1.853943234580167361e-30
3.497260855510830879e-03
3.355404827743768692e-03
1.250073909759521484e-01
3.622935386374592781e-03
-1.649867892265319824e-01
7.719979940909936941e-35
3.436487168073654175e-03
2.163752913475036621e-01
9.793134033679962158e-02
1.528921276330947876e-01
-3.503273706883192062e-03
-2.315521538257598877e-01
5.118611172128955081e-34
3.407306969165802002e-03
3.493583500385284424e-01
-6.578028202056884766e-01
-3.933010382351665739e-35
2.919083535671234131e-01
-2.042669653892517090e-01
3.078925311565399170e-01
3.289038240909576416e-01
3.301444053649902344e-01
8.545691519975662231e-02
-3.413260448724031448e-03
1.632068157196044922e-01
-3.352742874994874001e-03
-2.252117246389389038e-01
3.629462094977498055e-03
3.308996791020035744e-03
1.051074702272479435e-34
-3.437955863773822784e-03
1.393790990114212036e-01
-3.345223842188715935e-03
3.044818937778472900e-01
-2.149486243724822998e-01
-3.444715403020381927e-03
-4.064393043518066406e-01
-3.355869557708501816e-03
2.722928524017333984e-01
3.478996921330690384e-03
9.604760259389877319e-02
-5.472635626792907715e-01
1.521645784378051758e-01
3.330174135044217110e-03
1.953680515289306641e-01
-9.296628087759017944e-02
1.121218259565724833e-29
2.858670949935913086e-01
-8.278673887252807617e-01
1.297883458692417058e-12
3.303492665290832520e-01
1.782690584659576416e-01
-3.518498269841074944e-03
-6.314080357551574707e-01
2.202080190181732178e-01
-2.160993367433547974e-01
-3.445249283686280251e-03
3.384061623364686966e-03
1.228066219772982837e-30
-3.374129766598343849e-03
3.366794902831315994e-03
-2.145463377237319946e-01
-1.661618202924728394e-01
-2.869379520416259766e-01
1.593522526876881456e-34
-3.515237011015415192e-03
6.906728148460388184e-01
1.802576333284378052e-01
-3.950923085212707520e-01
-7.849471296937908222e-30
-3.438093932345509529e-03
-3.432430792599916458e-03
-3.519322024658322334e-03
-3.334123874083161354e-03
-1.947272743283093406e-34
1.520464420318603516e-01
-1.843720227479934692e-01
3.421352477744221687e-03
-2.989161312580108643e-01
3.295523114502429962e-03
-3.413308644667267799e-03
-3.284669758570508116e-30
-3.271155147038878309e-30
-3.504891693592071533e-01
-3.701236744637507074e-31
1.143512158801951170e-30
2.651420533657073975e-01
1.291789561510086060e-01
3.453854704275727272e-03
3.449022304266691208e-03
-3.464483655989170074e-03
7.420583814382553101e-02
1.653910730965435505e-03
1.520722061395645142e-01
1.479424885474145412e-03
3.325286787003278732e-03
-3.947748336941003799e-03
3.078921735286712646e-01
1.015048325895920667e-34
1.527022123336791992e-01
-3.406820585951209068e-03
-4.061776679009199142e-03
-2.148315906524658203e-01
3.803543309373753058e-31
-3.428353229537606239e-03
3.542835125699639320e-03
-1.517128050327301025e-01
3.322366392239928246e-03
2.560398876667022705e-01
-1.055623367428779602e-01
-2.147935032844543457e-01
-1.521492451429367065e-01
-3.455578349530696869e-03
-3.468811279162764549e-03
-1.521707475185394287e-01
2.158368527889251709e-01
3.338943701237440109e-03
1.640177518129348755e-02
2.979143559932708740e-01
4.001208608956048847e-30
-3.333455650135874748e-03
-3.306136233732104301e-03
2.528122961521148682e-01
2.337620705366134644e-01
-3.368569770827889442e-03
-3.465978661552071571e-03
4.737200736999511719e-01
-4.291173815727233887e-01
-2.332549691200256348e-01
-1.788508111497009187e-34
5.106266140937805176e-01
2.332549691200256348e-01
-2.144867330789566040e-01
-3.305018646642565727e-03
-3.628317965194582939e-03
-1.521990001201629639e-01
2.901592254638671875e-01
1.527640968561172485e-01
-5.228903889656066895e-01
3.504652976989746094e-01
1.021506083191380412e-34
-3.313502669334411621e-01
-2.490504831075668335e-01
4.326814413070678711e-01
2.674298286437988281e-01
3.443049034103751183e-03
-8.073859214782714844e-01
-1.528523862361907959e-01
1.654256047913804650e-04
1.769154356857615434e-30
-2.364841476082801819e-02
-3.494470845907926559e-03
-1.518616080284118652e-01
3.949171006679534912e-01
-2.753497958183288574e-01
3.476435085758566856e-03
2.213129401206970215e-02
2.653297483921051025e-01
-3.385563148185610771e-03
-2.041767388582229614e-01
3.460223553702235222e-03
3.400944406166672707e-03
8.479519718018194748e-30
-8.500643074512481689e-02
3.451006412506103516e-01
2.143415510654449463e-01
-3.543516620993614197e-03
-3.427322488278150558e-03
-1.910654724436718457e-30
-3.620603820309042931e-03
-3.486677305772900581e-03
-6.030314564704895020e-01
1.551602631807327271e-01
1.791235059499740601e-01
3.702474246315335237e-32
2.419051527976989746e-01
-4.056434929370880127e-01
-1.529384702444076538e-01
-3.518291981890797615e-03
-3.610828220844268799e-01
3.905949890613555908e-01
-1.800339110195636749e-02
-2.732960972934961319e-03
3.528805216774344444e-03
3.372580278664827347e-03
-6.064665317535400391e-01
-3.449027193710207939e-03
-3.573992056772112846e-03
-2.653974592685699463e-01
3.613624870777130127e-01
-3.517093136906623840e-03
-4.821706712245941162e-01
-5.423092677995736523e-34
3.453080076724290848e-03
3.231360788999467460e-35
-3.402863396331667900e-03
8.083288051373162023e-35
1.517495661973953247e-01
-3.551654051989316940e-03
-1.534252166748046875e-01
-3.011890351772308350e-01
-1.612152308225631714e-01
3.377532586455345154e-03
-3.077720999717712402e-01
-3.169056773185729980e-01
-1.275023818016052246e-01
-3.489431459456682205e-03
-2.391696274280548096e-01
-3.464586799964308739e-03
2.139256149530410767e-01
5.845101177692413330e-02
3.325006458908319473e-03
4.356761276721954346e-01
1.520017087459564209e-01
2.150685638189315796e-01
3.305406542494893074e-03
1.523825973272323608e-01
-2.161838114261627197e-01
-2.156482040882110596e-01
1.519964188337326050e-01
1.529508084058761597e-01
-2.148117125034332275e-01
-2.150685638189315796e-01
1.102478653192520142e-01
-3.062702417373657227e-01
-3.443044843152165413e-03
2.595869898796081543e-01
3.095675706863403320e-01
2.626176178455352783e-01
-1.521319150924682617e-01
-1.527392268180847168e-01
1.001664400100708008e-01
-3.369146026670932770e-03
-1.529179811477661133e-01
2.106392681598663330e-01
-3.404161036014556885e-01
-1.289187073707580566e-01
-1.811933666467666626e-01
-2.151185125112533569e-01
-1.080859079957008362e-01
-2.044180482625961304e-01
-3.466830821707844734e-03
-3.932246022935679804e-30
4.004918336868286133e-01
-1.521157026290893555e-01
4.962193965911865234e-01
1.206843629479408264e-01
1.518187373876571655e-01
-3.536813426762819290e-03
3.458725521340966225e-03
-3.593148589134216309e-01
3.441171050071716309e-01
-3.440213156864047050e-03
-1.470035180804632290e-35
-4.521896958467754286e-32
-7.546437382698059082e-01
-1.520350873470306396e-01
-1.348471353811325220e-30
1.520275622606277466e-01
-2.153497189283370972e-01
-1.916876882314682007e-01
1.520275622606277466e-01
3.641772782430052757e-03
-2.019853293895721436e-01
1.781650407236235132e-29
1.632455106405981974e-33
-3.344293218106031418e-03
2.601418495178222656e-01
-3.360019298270344734e-03
1.521881520748138428e-01
4.804349607629945933e-30
-1.447678059339523315e-01
-1.051954141942562398e-34
-1.241354980452582288e-34
-2.520297765731811523e-01
3.465295070782303810e-03
7.439591839292059356e-31
-3.480658167973160744e-03
2.702672183513641357e-01
-4.951064586639404297e-01
-7.094788125065924590e-30
-3.329051658511161804e-03
-5.057514905929565430e-01
-3.444837871938943863e-03
1.056219290033051639e-30
-3.203537790508776554e-37
-2.163290232419967651e-01
3.384373849257826805e-03
2.539449632167816162e-01
3.362811803817749023e-01
-9.000029563903808594e-01
-1.522279977798461914e-01
3.402844071388244629e-03
4.137414395809173584e-01
-4.634278714656829834e-01
-1.297176861657826648e-29
3.372449195012450218e-03
1.632495224475860596e-01
1.521786004304885864e-01
-3.416636260226368904e-03
3.435043385252356529e-03
1.752354055643081665e-01
-3.349795006215572357e-03
-3.368446836248040199e-03
3.440931439399719238e-03
-3.363046646118164062e-01
3.361848648637533188e-03
-4.583289325237274170e-01
3.394839586690068245e-03
3.701057434082031250e-01
3.479537894774599391e-34
2.266241201323172034e-31
-3.555236151441931725e-03
1.520297378301620483e-01
-1.518404930830001831e-01
-3.337198169901967049e-03
-2.177110780977157490e-29
1.235692748142591142e-34
3.344629192724823952e-03
-1.527726650238037109e-01
-3.421038622036576271e-03
-3.504621097818017006e-03
3.510999027639627457e-03
3.597113071009516716e-03
3.466685535386204720e-03
-3.494311356917023659e-03
9.932202219532742255e-31
3.361372277140617371e-03
3.308430081233382225e-03
-9.919096231460571289e-01
-3.436582628637552261e-03
-2.769523262977600098e-01
3.076960444450378418e-01
-1.206415444612503052e-01
3.497846657410264015e-03
-3.386863740161061287e-03
3.290473818778991699e-01
3.349901409819722176e-03
-3.388742683455348015e-03
-1.074820124561367385e-29
-3.435779130086302757e-03
3.603254258632659912e-01
3.600593209266662598e-01
-5.804643034934997559e-02
2.560285031795501709e-01
-1.529066562652587891e-01
3.381539136171340942e-03
3.008410930633544922e-01
1.522479355335235596e-01
1.639341264963150024e-01
2.294494658708572388e-01
3.423519199714064598e-03
3.686324357986450195e-01
-2.250983864068984985e-01
2.759146094322204590e-01
-1.226435730129865628e-34
-2.371397316455841064e-01
-3.436690662056207657e-03
-2.166146934032440186e-01
-1.521736830472946167e-01
3.924877643585205078e-01
1.176108699291944504e-02
5.138078331947326660e-01
3.404069924727082253e-03
4.161956310272216797e-01
3.474984169006347656e-01
-8.837676644325256348e-01
-2.846418917179107666e-01
8.380670076456205718e-33
3.433322999626398087e-03
3.335547400638461113e-03
-2.306592613458633423e-01
-3.405497176572680473e-03
-3.522434970363974571e-03
-3.408045042306184769e-03
-3.384698182344436646e-03
-4.083805680274963379e-01
-2.120909541845321655e-01
-3.457632381469011307e-03
9.707465243908706907e-33
-3.532650414854288101e-03
3.676715772598981857e-03
-3.371293656527996063e-03
-6.078879237174987793e-01
1.077223181724548340e+00
-6.167674809694290161e-02
3.468294860795140266e-03
-3.359938040375709534e-03
-3.372038016095757484e-03
2.162157297134399414e-01
-3.456434700638055801e-03
-2.244991064071655273e-01
9.999550879001617432e-02
1.100648274516730818e-31
1.520328968763351440e-01
1.521761715412139893e-01
-2.958711385726928711e-01
-3.677241504192352295e-03
7.068687677383422852e-01
3.084821701049804688e-01
-3.466954221948981285e-03
-3.523863852024078369e-03
2.161860913038253784e-01
-6.067447662353515625e-01
2.712863385677337646e-01
2.644825577735900879e-01
1.619643121957778931e-01
3.491799114271998405e-03
-3.583346307277679443e-01
-3.351161722093820572e-03
-2.182701230049133301e-01
-1.522143781185150146e-01
3.301652846857905388e-03
-3.463972127065062523e-03
-9.287583827972412109e-02
-3.923033773899078369e-01
-3.219110965728759766e-01
3.444871865212917328e-03
3.357177367433905602e-03
3.487890120595693588e-03
-1.523011177778244019e-01
3.256928920745849609e-01
-2.165043205022811890e-01
3.386499127373099327e-03
-3.445289134979248047e-01
5.400325059890747070e-01
2.654413878917694092e-01
3.528523258864879608e-03
3.408593358471989632e-03
3.461540443822741508e-03
-2.652585506439208984e-01
-3.429329954087734222e-03
3.417339408770203590e-03
-2.970915138721466064e-01
1.632068157196044922e-01
2.663036286830902100e-01
-2.462930083274841309e-01
4.076234698295593262e-01
-3.422235846519470215e-01
5.574773550033569336e-01
-3.317614784464240074e-03
-1.126702381302287172e-34
-1.827428972082115975e-30
2.466845363378524780e-01
-3.553749294951558113e-03
-1.517862677574157715e-01
-3.365623997524380684e-03
5.587877035140991211e-01
-1.170887276530265808e-01
3.281596004962921143e-01
-3.426821436733007431e-03
-3.487447509542107582e-03
1.527592092752456665e-01
4.833201766014099121e-01
3.375096945092082024e-03
-2.129199504852294922e-01
-2.155212610960006714e-01
-2.578341662883758545e-01
2.511376738548278809e-01
2.464033514261245728e-01
3.359826048836112022e-03
3.371706465259194374e-03
-6.107704341411590576e-02
2.668076157569885254e-01
2.469695349789482066e-29
-3.514772281050682068e-03
-3.623004769906401634e-03
-3.399075707420706749e-03
3.406211733818054199e-03
1.372109800577163696e-01
3.480991581454873085e-03
-3.464364213868975639e-03
-1.522119641304016113e-01
-4.338142275810241699e-01
2.161885648965835571e-01
4.393990933895111084e-01
3.105517625808715820e-01
-2.906687557697296143e-01
-3.154987576095702207e-31
3.386422991752624512e-03
3.355830907821655273e-01
-3.616164904087781906e-03
-3.036609385162591934e-03
-4.163981080055236816e-01
-3.394023515284061432e-03
5.426159799896421113e-33
-3.309467136859893799e-01
-4.935944825410842896e-02
-2.161999940872192383e-01
-1.532690972089767456e-01
-1.519921123981475830e-01
1.517586410045623779e-01
-2.100980430841445923e-01
4.753755033016204834e-02
-7.552405989154897415e-35
2.177784293889999390e-01
-9.070853120647370815e-04
4.160337615758180618e-03
-1.520956605672836304e-01
2.812643654328324127e-31
2.159019857645034790e-01
3.409092081710696220e-03
2.797585129737854004e-01
-3.786406246945261955e-03
3.473404562100768089e-03
-4.249033862915192270e-32
-3.382000140845775604e-03
-1.727806925773620605e-01
3.123154342174530029e-01
-1.048835944187853205e-29
3.494114149361848831e-03
-3.482345491647720337e-03
1.526451259851455688e-01
-2.885792553424835205e-01
-2.899347841739654541e-01
-3.583743004128336906e-03
5.693937540054321289e-01
-3.142650127410888672e-01
-1.893063857022213958e-34
3.465849673375487328e-03
-1.262099241502230133e-35
-3.378208726644515991e-03
-3.713637888431549072e-01
7.136699988415028472e-35
-1.527022123336791992e-01
-4.632908105850219727e-01
-2.890878210649561143e-31
-2.869830131530761719e-01
-3.346879184246063232e-01
4.145146906375885010e-01
-3.359053051099181175e-03
2.331673949956893921e-01
7.012850791215896606e-02
-3.658883739262819290e-03
3.415653249248862267e-03
2.689934576892637992e-35
-1.758159995079040527e-01
-3.523176070302724838e-03
-3.363633994013071060e-03
3.547225017629106419e-33
-3.370686667039990425e-03
-1.522087454795837402e-01
2.154443036921550440e-29
-3.510877955704927444e-03
-3.440238237380981445e-01
3.989614918828010559e-02
3.531608963385224342e-03
-4.051629006862640381e-01
1.520216912031173706e-01
6.693660020828247070e-01
2.750774025917053223e-01
-2.371368110179901123e-01
-5.093946456909179688e-01
-2.939026057720184326e-01
1.830294355750083923e-02
1.830432564020156860e-01
-3.434254089370369911e-03
3.354319604113698006e-03
3.362330608069896698e-03
7.027763724327087402e-01
3.390075638890266418e-03
3.485427936539053917e-03
-3.151793479919433594e-01
2.250631302595138550e-01
1.517998576164245605e-01
-3.437395673245191574e-03
3.318703267723321915e-03
-3.408588701859116554e-03
8.642655764420792466e-30
5.522941923219466364e-33
1.771930599099604699e-35
-3.426131093874573708e-03
-2.166848182678222656e-01
-1.171232609828705728e-34
-3.395915264263749123e-03
3.617711663246154785e-01
-2.972340881824493408e-01
2.906687557697296143e-01
-3.333636792376637459e-03
-3.339455695822834969e-03
-3.425700068473815918e-01
3.391723847016692162e-03
-1.589461863040924072e-01
3.431290853768587112e-03
-2.059263288974761963e-01
-3.564549377188086510e-03
-3.431217046454548836e-03
-2.147054523229598999e-01
1.520815640687942505e-01
-3.357540350407361984e-03
2.698525190353393555e-01
5.468537406759510500e-13
-7.252455019432112501e-31
1.866307109594345093e-01
-3.511950140818953514e-03
3.579091979190707207e-03
-4.604093162176712729e-34
2.932411059737205505e-02
3.445489564910531044e-03
3.567127278074622154e-03
3.342793555930256844e-03
3.384346375241875648e-03
-3.343982389196753502e-03
3.099243342876434326e-01
1.521319150924682617e-01
1.140250414609909058e-01
-1.049413457512855530e-01
-1.830913424491882324e-01
-1.527568697929382324e-01
3.411039477214217186e-03
-3.000065982341766357e-01
-1.517586410045623779e-01
3.780812919139862061e-01
-3.605563426390290260e-03
3.457574406638741493e-03
3.299605101346969604e-03
4.228762388229370117e-01
2.044188380241394043e-01
-3.429088741540908813e-03
1.265521486246108185e-17
3.435841761529445648e-03
3.818766772747039795e-01
-1.151139438152313232e-01
-3.467374248430132866e-03
-3.422894049435853958e-03
-1.347447931766510010e-01
-1.099895864092656488e-30
-3.011565804481506348e-01
3.307879902422428131e-03
3.389048622921109200e-03
-3.433230798691511154e-03
-3.476512432098388672e-01
-5.098464488983154297e-01
-3.551953705027699471e-03
-3.517395583912730217e-03
-1.187713178380478436e-34
2.169722616672515869e-01
3.369631944224238396e-03
9.360788464546203613e-01
-3.451474709436297417e-03
3.371922764927148819e-03
5.005257129669189453e-01
1.530116051435470581e-01
3.800170421600341797e-01
2.283176034688949585e-01
-1.521761715412139893e-01
7.342224121093750000e-01
-1.148329411058753708e-34
-1.517862677574157715e-01
-3.455447964370250702e-03
-2.912600338459014893e-01
-1.352909456242741783e-30
3.356293542310595512e-03
-1.951091768308571549e-33
3.434257348999381065e-03
-3.436949336901307106e-03
4.649595320224761963e-01
-3.313665278255939484e-03
-1.376056373119354248e-01
2.947194576263427734e-01
6.385941989719867706e-03
3.548181382939219475e-03
-3.413098864257335663e-03
-6.588141843156006426e-33
2.890341579914093018e-01
3.660112619400024414e-01
-3.421350382268428802e-03
2.161121070384979248e-01
2.646747827529907227e-01
2.071615010499954224e-01
-1.597442869413495903e-34
-3.099244832992553711e-01
-1.521786004304885864e-01
-1.278903876246809124e-13
1.518686264753341675e-01
-2.518985395147303815e-33
-1.919499784708023071e-02
2.755178809165954590e-01
3.357331966981291771e-03
-2.674834132194519043e-01
-3.043442266061902046e-03
4.219028167426586151e-03
-5.125732772410297442e-30
-2.938850522041320801e-01
-3.309298539534211159e-03
-1.520216912031173706e-01
-4.045540392398834229e-01
-1.529812216758728027e-01
4.199237754896650843e-34
5.152813792228698730e-01
4.206878542900085449e-01
6.251381039619445801e-01
-3.485468914732336998e-03
-3.449681913480162621e-03
1.518462449312210083e-01
2.084014117717742920e-01
-4.553237189880561541e-35
2.156427800655364990e-01
1.521788388490676880e-01
-3.479460021480917931e-03
-4.958886504173278809e-01
-1.521881520748138428e-01
3.520134603604674339e-03
3.119932413101196289e-01
1.517313718795776367e-01
5.268890261650085449e-01
2.928068041801452637e-01
1.278302017691826041e-21
-3.392294747754931450e-03
3.589988918974995613e-03
-3.308060346171259880e-03
3.384712617844343185e-03
-1.521895229816436768e-01
-3.451769938692450523e-03
-3.426706884056329727e-03
3.515418386086821556e-03
-1.528895348310470581e-01
3.052970468997955322e-01
8.498252866190639051e-32
-1.527022123336791992e-01
-1.518182903528213501e-01
-3.339800518006086349e-03
3.634367603808641434e-03
2.364841476082801819e-02
3.119719028472900391e-01
3.587883198633790016e-03
-2.036353200674057007e-01
3.430539276450872421e-03
3.359612775966525078e-03
3.396022366359829903e-03
3.492860822007060051e-03
3.363824449479579926e-03
-4.272878766059875488e-01
8.229633316999489001e-30
3.386951051652431488e-03
1.518686264753341675e-01
-1.945326179265975952e-01
3.330213716253638268e-03
-4.555091261863708496e-01
2.160350531339645386e-01
4.349669145048269651e-30
9.505879425947874618e-22
2.025050818920135498e-01
-1.817543804645538330e-01
3.427732968702912331e-03
2.550692794057300335e-34
-4.582609534263610840e-01
-2.165309041738510132e-01
1.808234155178070068e-01
1.523924320936203003e-01
-3.917790353298187256e-01
1.710827797651290894e-01
3.431513011455535889e-01
-3.289522137492895126e-03
-2.667106091976165771e-01
3.363840747624635696e-03
1.694584488868713379e-01
3.459320636466145515e-03
1.477963477373123169e-01
-1.522278040647506714e-01
-1.782430568709969521e-03
3.448558971285820007e-03
-2.158084362745285034e-01
9.417815295567715820e-31
4.259655773639678955e-01
1.529417932033538818e-01
-2.842629571148900177e-34
6.828501226864546288e-31
-3.429351840168237686e-03
3.805958628654479980e-01
3.337336005643010139e-03
2.154987007379531860e-01
-3.150473677788544623e-31
7.653041481971740723e-01
-1.529392600059509277e-01
-4.532233476638793945e-01
-3.428249387070536613e-03
7.260736823081970215e-01
-1.521786004304885864e-01
-2.978273928165435791e-01
-1.514664441347122192e-01
1.518965810537338257e-01
-3.687934484332799911e-03
-2.161328792572021484e-01
3.398119239136576653e-03
-3.367932746186852455e-03
-3.547571832314133644e-03
-3.461872693151235580e-03
3.387233708053827286e-03
3.564697923138737679e-03
3.634430002421140671e-03
-3.539068391546607018e-03
-1.521089673042297363e-01
-2.161665558815002441e-01
2.875856459140777588e-01
4.201865792274475098e-01
3.444286296144127846e-03
1.393608450889587402e-01
1.519921123981475830e-01
1.518462449312210083e-01
1.519903987646102905e-01
2.161185890436172485e-01
3.496462944895029068e-03
1.516014486551284790e-01
1.376065058665804502e-29
-3.686931133270263672e-01
4.759469330310821533e-01
4.449612872099814771e-31
1.206415444612503052e-01
1.038929671049118042e-01
-4.538635611534118652e-01
3.400291781872510910e-03
-3.753154277801513672e-01
-3.881034553050994873e-01
2.546029686927795410e-01
5.739116069019654300e-31
-4.001600742340087891e-01
1.981514543294906616e-01
-2.221810631453990936e-02
-3.263095617294311523e-01
-1.519311666488647461e-01
-3.503706306219100952e-03
2.711455523967742920e-01
-9.313877224922180176e-01
1.689966022968292236e-01
1.527543514966964722e-01
1.318546723592781197e-32
-3.491456620395183563e-03
2.647137939929962158e-01
-3.718334948644042015e-03
-2.312227785587310791e-01
-9.036063066748342650e-30
2.364841476082801819e-02
3.363087773323059082e-03
-4.120201170444488525e-01
2.591510268308697828e-29
2.797585129737854004e-01
-3.466758178547024727e-03
3.583101788535714149e-03
-1.441275230664389478e-34
-3.446638118475675583e-03
5.480055809020996094e-01
2.640493214130401611e-01
1.526933610439300537e-01
-3.349953563883900642e-03
1.597285121679306030e-01
6.245257854461669922e-01
-1.027223841079058602e-31
7.598035124167078371e-30
-3.226518630981445312e-01
-3.349916310980916023e-03
3.767435252666473389e-01
-2.157634804202434394e-36
-3.520848695188760757e-03
-2.639437317848205566e-01
3.507599532604217529e-01
3.375358181074261665e-03
-7.118079662322998047e-01
1.715653091669082642e-01
3.383723320439457893e-03
-3.024270236492156982e-01
-6.155366897583007812e-01
-3.441167064011096954e-03
-3.383184317499399185e-03
-8.107976876571535986e-35
-1.527022123336791992e-01
-2.480494976043701172e-01
-1.528110057115554810e-01
3.151010870933532715e-01
2.161043286323547363e-01
-3.609715728089213371e-03
3.405993878841400146e-01
-3.044311702251434326e-01
3.110348880290985107e-01
-3.390768170356750488e-01
2.577001154422760010e-01
-3.503814572468400002e-03
2.663036286830902100e-01
-2.180113764673451751e-30
-1.522087454795837402e-01
-5.532741964520974080e-35
5.647103786468505859e-01
4.475321248173713684e-02
-3.344874680042266846e-01
3.256236314773559570e-01
-2.366713881492614746e-01
3.351395251229405403e-03
2.428529709577560425e-01
-3.434598445892333984e-03
3.406148171052336693e-03
-3.011153042316436768e-01
-2.163467258214950562e-01
2.946445941925048828e-01
-1.523924320936203003e-01
3.998803453474718381e-30
-3.412911435589194298e-03
2.647912502288818359e-01
-2.239339798688888550e-01
-3.478693543002009392e-03
-1.527845263481140137e-01
2.790191769599914551e-01
-3.475706791505217552e-03
-3.383810631930828094e-03
-3.385608550161123276e-03
-4.079635143280029297e-01
1.905992180109024048e-01
-3.359244670718908310e-03
-1.375085711479187012e-01
-3.440609276294708252e-01
-5.141979632481317525e-34
2.352664619684219360e-01
3.448859322816133499e-03
3.334269160404801369e-03
3.539711935445666313e-03
-1.777429431676864624e-01
-3.456777194514870644e-03
-3.376141889020800591e-03
1.790686178404226278e-29
-4.257956147193908691e-01
3.384232521057128906e-03
-3.237834870815277100e-01
-2.662728726863861084e-01
-2.163101434707641602e-01
-3.521181875839829445e-03
1.522452235221862793e-01
-3.064125776290893555e-03
-3.494377946481108665e-03
8.218972746976938168e-33
-3.128766715526580811e-01
-3.453806488582563533e-16
-3.393762279301881790e-03
-1.892500354417788524e-32
-9.105455648602242485e-32
-3.432372817769646645e-03
1.520216912031173706e-01
-9.357905219076201320e-05
-3.439014777541160583e-03
-5.373126268386840820e-01
1.527726650238037109e-01
-3.347003366798162460e-03
-3.393922699615359306e-03
3.477155929431319237e-03
3.428422613069415092e-03
-3.067449927330017090e-01
3.387029282748699188e-03
1.755875220354342348e-30
-4.826261699199676514e-01
3.514352487400174141e-03
1.833659857511520386e-01
-2.228889316320419312e-01
3.403211478143930435e-03
3.286527395248413086e-01
3.420720109716057777e-03
-3.234225809574127197e-01
-1.518965810537338257e-01
-1.187308652093249505e-29
2.563353776931762695e-01
-3.585458965972065926e-03
-1.121458051009337774e-31
1.885095387697219849e-01
3.195307552814483643e-01
3.429695265367627144e-03
2.638217210769653320e-01
2.097267659157940451e-34
3.372468287125229836e-03
3.373681800439953804e-03
3.659509355202317238e-03
1.823954431920960042e-34
-5.240368109977063710e-30
1.784424930810928345e-01
1.376056373119354248e-01
-3.079186862084415388e-12
3.445360576733946800e-03
3.334952890872955322e-01
4.735647737979888916e-01
-1.657858788967132568e-01
-3.165966831147670746e-03
3.364898497238755226e-03
3.313342574983835220e-03
-3.333922009915113449e-03
-3.442007116973400116e-03
-6.659679114818572998e-03
3.232665359973907471e-01
3.341892035678029060e-03
-1.527151167392730713e-01
6.811354160308837891e-01
1.521537154912948608e-01
-3.639432834461331367e-03
-3.527845256030559540e-03
-1.735303881135856185e-30
1.315721009146568340e-29
3.362622810527682304e-03
-2.980571985244750977e-01
-1.520275622606277466e-01
-4.885819439216726714e-35
-3.737066090106964111e-01
1.836859265148278800e-24
5.001110956072807312e-03
-1.519964188337326050e-01
3.461615880951285362e-03
2.741850316524505615e-01
2.121431380510330200e-01
-2.267151880306641076e-30
-4.121033847332000732e-01
-1.522233784198760986e-01
7.300633121924884437e-34
5.807329372942149348e-08
-3.453520592302083969e-03
3.302896395325660706e-03
-3.285219660028815269e-03
-2.165576517581939697e-01
-3.358923364430665970e-03
1.662826985120773315e-01
1.140770546044223011e-04
3.452508011832833290e-03
-2.157830297946929932e-01
-2.322532385587692261e-01
-1.528921276330947876e-01
-3.551099682226777077e-03
3.052048385143280029e-01
1.517533063888549805e-01
2.900167405605316162e-01
3.449877956882119179e-03
-2.256015539169311523e-01
-3.449075389653444290e-03
1.521486490964889526e-01
-2.508441209793090820e-01
-1.522075682878494263e-01
2.508440911769866943e-01
-1.527340561151504517e-01
2.508440613746643066e-01
3.425699658691883087e-03
-4.265221655368804932e-01
-3.467861562967300415e-03
3.560744924470782280e-03
-1.575203205649906584e-29
-3.563939128071069717e-03
6.234837174415588379e-01
5.057849884033203125e-01
2.815174758434295654e-01
7.861629724502563477e-01
1.743997030671539572e-33
2.162871211767196655e-01
-2.414594143629074097e-01
-3.401504131034016609e-03
2.418752759695053101e-01
-3.380040405318140984e-03
-5.097338557243347168e-01
-3.529415698722004890e-03
3.403108566999435425e-03
-2.604542672634124756e-01
-3.322584321722388268e-03
5.109766721725463867e-01
3.574740374460816383e-03
-2.641482651233673096e-01
3.436012426391243935e-03
-2.754714190959930420e-01
1.678576545615456004e-33
-3.436869978904724121e-01
4.353921413421630859e-01
1.999024748802185059e-01
3.328771796077489853e-03
3.403413342311978340e-03
-2.989323735237121582e-01
2.782981693744659424e-01
-3.359439084306359291e-03
-2.220269597235809535e-34
5.630666613578796387e-01
-3.598774550482630730e-03
-3.393576247617602348e-03
2.412768453359603882e-01
-1.549321264028549194e-01
2.852707595705479049e-29
-3.458144376054406166e-03
3.635036060586571693e-03
3.036631047725677490e-01
3.537019491195678711e-01
-1.849857866764068604e-01
-2.391696572303771973e-01
-3.169638663530349731e-02
3.597694030041936372e-31
-5.743240714073181152e-01
-2.148120850324630737e-01
2.124637663364410400e-01
2.847802937030792236e-01
3.440931672230362892e-03
-6.667420268058776855e-02
3.529629204422235489e-03
2.963414788246154785e-01
3.476993646472692490e-03
-1.632068157196044922e-01
-3.828447461128234863e-01
-3.422862151637673378e-03
3.494518576189875603e-03
1.518965810537338257e-01
-1.393790990114212036e-01
-3.436525119468569756e-03
2.932411059737205505e-02
-3.520320402458310127e-03
5.259277224540710449e-01
-3.311330452561378479e-03
-2.719471156597137451e-01
2.355787903070449829e-01
3.346444340422749519e-03
1.521486490964889526e-01
4.260317385196685791e-01
-9.629474808376776909e-31
-3.225270509719848633e-01
-3.327741287648677826e-03
7.073029875755310059e-02
2.704600337892770767e-03
3.319838317111134529e-03
5.413137078285217285e-01
-1.521786004304885864e-01
-3.321669297292828560e-03
-5.734360814094543457e-01
-2.780442535877227783e-01
-7.630281895399093628e-02
-9.105686545372009277e-01
-3.404016839340329170e-03
2.154266089200973511e-01
2.963416576385498047e-01
-3.381018759682774544e-03
-3.395672654733061790e-03
2.890662848949432373e-01
3.402184462174773216e-03
4.241454303264617920e-01
-3.178526461124420166e-01
3.457280807197093964e-03
-3.835075795650482178e-01
-1.530305445194244385e-01
7.508562505245208740e-02
-3.425554838031530380e-03
3.493790747597813606e-03
-4.307343261017533643e-31
-1.528679728507995605e-01
3.447108436375856400e-03
1.337254197315564610e-34
-4.602446854114532471e-01
1.013225436210632324e+00
-1.528596282005310059e-01
3.456232137978076935e-03
-3.316374029964208603e-03
1.520275622606277466e-01
-1.640177518129348755e-02
-9.687310474908897207e-34
-3.406264586374163628e-03
-1.939282619817096381e-31
-1.520676314830780029e-01
-3.435068298131227493e-03
-1.521224975585937500e-01
3.174039069563150406e-03
-3.480473067611455917e-03
-3.381304210051894188e-03
-3.361940383911132812e-03
-2.158293426036834717e-01
-3.427564864978194237e-03
1.931309700012207031e-01
3.535573137924075127e-03
-2.161039859056472778e-01
2.396427294716288441e-30
-1.521492451429367065e-01
3.313733497634530067e-03
3.486845409497618675e-03
-3.757278025150299072e-01
-2.157322168350219727e-01
3.390226978808641434e-03
1.518418639898300171e-01
1.056505968309633232e-34
-1.521969884634017944e-01
1.697992825276914574e-29
-3.115206491202116013e-03
-3.394243307411670685e-03
-2.138994336128234863e-01
1.675120145082473755e-01
3.324595512822270393e-03
3.188968002796173096e-01
-2.156960219144821167e-01
2.947475910186767578e-01
-3.455387195572257042e-03
3.289678599685430527e-03
-5.579594969749450684e-01
-4.779616892337799072e-01
-7.445535659790039062e-01
3.502627834677696228e-03
-1.192106703311046933e-34
-8.185680689846537047e-32
-9.150752425193786621e-01
-3.496946999803185463e-03
-3.302926896139979362e-03
-2.966768741607666016e-01
3.303915858268737793e-01
-1.109796291289293283e-29
-3.657464385032653809e-01
3.425005590543150902e-03
-3.382681403309106827e-03
-3.425569273531436920e-03
3.404357237741351128e-03
9.270296277526257680e-35
3.434074809774756432e-03
-3.700244473293423653e-03
-3.334165317937731743e-03
-3.443876281380653381e-03
-9.290716129685727420e-34
-6.518727432372011821e-33
-3.437235951423645020e-03
-1.027413457632064819e-01
3.331021172925829887e-03
-2.169791907072067261e-01
2.032505189905103086e-29
-3.485466819256544113e-03
1.007447987794876099e-01
4.135651110459548363e-08
2.374823540449142456e-01
3.788445591926574707e-01
4.173276722431182861e-01
3.410746576264500618e-03
7.841820716857910156e-01
3.293523332104086876e-03
-3.375884145498275757e-03
-4.227333664894104004e-01
-1.517230272293090820e-01
3.905940353870391846e-01
-5.622036457061767578e-01
-1.791545599699020386e-01
-2.295099198818206787e-01
-4.310461424352298876e-30
4.908904433250427246e-02
-3.458904335275292397e-03
3.400310641154646873e-03
-2.462407201528549194e-01
3.345442702993750572e-03
-3.605305682867765427e-03
-8.333277106285095215e-01
-3.047828376293182373e-01
3.706817049533128738e-03
-3.420140594244003296e-03
3.404773771762847900e-03
-3.339406801387667656e-03
5.355832576751708984e-01
1.887124776840209961e-01
2.163728028535842896e-01
-8.610438722588157251e-37
-2.485346902382971096e-35
-1.718929037451744080e-02
1.359473615884780884e-01
4.331034608185291290e-03
2.251171916723251343e-01
-2.158489525318145752e-01
-3.383701434358954430e-03
2.137194871902465820e-01
-3.388062352314591408e-03
2.149382531642913818e-01
-3.976956307888031006e-01
-3.447416936978697777e-03
-3.396799089387059212e-03
3.501122351735830307e-03
-1.918550623434694635e-29
3.430496202781796455e-03
-3.512146159126945511e-30
2.061173766851425171e-01
3.408221295103430748e-03
3.363040089607238770e-01
-3.034682571887969971e-01
-3.706540912389755249e-03
-4.973320066928863525e-01
2.184812997185758832e-09
3.443441120907664299e-03
2.847938835620880127e-01
-5.043913099378374548e-30
-1.536806225776672363e-01
-3.062635958194732666e-01
3.435217775404453278e-03
-2.632967233657836914e-01
3.445287942886352539e-01
1.521718949079513550e-01
2.719471156597137451e-01
2.786843410241507231e-35
3.485414683818817139e-01
1.579821525471236414e-30
-1.525922566652297974e-01
-3.506832523271441460e-03
-6.051175594329833984e-01
3.015154898166656494e-01
-4.337679147720336914e-01
-1.147954263056948313e-34
1.396307485160975782e-30
3.482057480141520500e-03
6.128463307899012369e-33
3.340568626299500465e-03
2.708617943209932757e-29
1.251707611693443778e-29
-2.154048532247543335e-01
2.151044905185699463e-01
-3.670843318104743958e-03
-3.582628211006522179e-03
-1.661618202924728394e-01
-3.648712299764156342e-03
9.287583827972412109e-02
2.947896718978881836e-03
-1.530305445194244385e-01
-4.746330082416534424e-01
3.298702882602810860e-03
2.652986347675323486e-01
3.653645282611250877e-03
-6.939976853248717509e-33
3.432417986914515495e-03
-3.373916726559400558e-03
3.988630175590515137e-01
-3.318157512694597244e-03
-2.252509891986846924e-01
1.376056373119354248e-01
-1.523825973272323608e-01
-4.081591963768005371e-01
6.570754647254943848e-01
2.910580933094024658e-01
-2.851051092147827148e-02
1.526767909526824951e-01
6.596559286117553711e-02
2.089673876762390137e-01
4.401762187480926514e-01
3.700353901360265503e-30
-3.444525413215160370e-03
1.191091397616173030e-32
1.349599771964385776e-29
-2.785577438771724701e-02
-3.394472179934382439e-03
3.401657799258828163e-03
-1.007447987794876099e-01
-1.529417634010314941e-01
-3.375119529664516449e-03
1.036125347018241882e-01
4.451832175254821777e-01
1.254363850417121183e-32
2.251222431659698486e-01
3.106619417667388916e-01
2.699869573116302490e-01
2.634448409080505371e-01
3.493109717965126038e-03
-2.719419002532958984e-01
7.139168977737426758e-01
-2.718904614448547363e-01
3.538759192451834679e-03
-1.797853112220764160e-01
-2.158672660589218140e-01
-2.166186273097991943e-01
-6.129338741302490234e-01
-3.366388846188783646e-03
3.413671394810080528e-03
4.238500893115997314e-01
-3.644280731678009033e-01
3.456958569586277008e-03
3.372920327566277519e-35
-3.453789511695504189e-03
-3.311939770355820656e-03
-1.054845675826072693e-01
3.523860825225710869e-03
-6.083714365959167480e-01
5.477542877197265625e-01
3.460409352555871010e-03
-3.443146822974085808e-03
3.415248123928904533e-03
-3.472753567621111870e-03
1.229996532201766968e-01
3.416198072955012321e-03
-3.837556540966033936e-01
-3.362855408340692520e-03
-4.056404232978820801e-01
4.416224062442779541e-01
1.521127969026565552e-01
1.517586410045623779e-01
-7.100098580121994019e-02
-2.896470129489898682e-01
-3.339522983878850937e-03
-3.063206076622009277e-01
1.493590623140335083e-01
-1.632068157196044922e-01
-4.897904694080352783e-01
4.189077299088239670e-03
1.831725537776947021e-01
1.282073484875467261e-32
-2.625949680805206299e-01
1.206415444612503052e-01
-6.107704341411590576e-02
1.258275389671325684e+00
1.929113417863845825e-01
-8.037739247083663940e-02
-2.166120409965515137e-01
-3.362894654273986816e-01
-2.349057048559188843e-01
-1.520520150661468506e-01
2.498318441212177277e-03
3.413804769515991211e-01
-2.938987910747528076e-01
-3.054129779338836670e-01
-3.784672915935516357e-01
-4.815431535243988037e-01
-2.955719828605651855e-01
3.433719510212540627e-03
1.424482166767120361e-01
-1.369630064047030263e-31
3.676151335239410400e-01
-4.781709440230998792e-34
-3.854640945792198181e-02
3.826782597590639518e-31
1.527252495288848877e-01
-1.522333770990371704e-01
-2.648193240165710449e-01
-2.162157297134399414e-01
-2.894167651592764845e-34
2.579777836799621582e-01
-1.529834717512130737e-01
2.922872304916381836e-01
1.454388797283172607e-01
3.767434358596801758e-01
-3.363236188888549805e-01
-3.373303916305303574e-03
-2.719222307205200195e-01
4.020115435123443604e-01
1.518686264753341675e-01
3.839366734027862549e-01
1.256967931985855103e-01
3.000286519527435303e-01
-2.279379665851593018e-01
-2.847802937030792236e-01
4.638087153434753418e-01
3.484068205580115318e-03
4.588357731699943542e-02
3.303282661363482475e-03
-2.516047954559326172e-01
2.963942289352416992e-01
-1.521224975585937500e-01
3.603253662586212158e-01
-3.382396399974822998e-01
-3.042463660240173340e-01
1.902713471781014885e-34
2.023671120405197144e-01
2.120909541845321655e-01
3.375785425305366516e-03
3.419063752517104149e-03
-3.491281066089868546e-03
3.436493221670389175e-03
3.372508585453033447e-01
3.440684871748089790e-03
-3.963258266448974609e-01
-3.352744737640023232e-03
1.148231104016304016e-01
-6.255407929420471191e-01
-3.528556087985634804e-03
-8.097976446151733398e-01
3.371602389961481094e-03
-3.461041450500488281e-01
-2.667906191598017075e-29
3.592411521822214127e-03
-2.162495404481887817e-01
1.529570966958999634e-01
3.097740411758422852e-01
-1.421315384562290229e-29
4.306952357292175293e-01
2.321444302797317505e-01
1.337172836065292358e-01
-1.380413174629211426e-01
1.813737732973383520e-34
-3.460041880607604980e-01
-1.838540421770834310e-29
-9.788353684438436631e-31
4.096901714801788330e-01
2.638045251369476318e-01
-2.161890417337417603e-01
4.424549341201782227e-01
6.919004321098327637e-01
3.394749015569686890e-03
-3.420856548473238945e-03
-3.366791876032948494e-03
2.163545340299606323e-01
-3.355987602844834328e-03
3.360622562468051910e-03
-4.386844933032989502e-01
-1.154134329408407211e-02
-3.321835398674011230e-01
2.321300416951999068e-04
-1.102478653192520142e-01
2.924147248268127441e-01
1.567261937161763474e-34
3.409152384847402573e-03
-3.126779496669769287e-01
1.187591222127277570e-30
1.679771555009211865e-34
1.520956605672836304e-01
-1.524994224309921265e-01
4.774546921253204346e-01
3.419730579480528831e-03
4.748137137900521944e-34
-3.396067069843411446e-03
2.290545552968978882e-01
1.521881520748138428e-01
6.247507333755493164e-01
2.232303321361541748e-01
3.388673532754182816e-03
2.577007114887237549e-01
3.406985895708203316e-03
-3.042463660240173340e-01
1.973198205232620239e-01
-2.920485436916351318e-01
-2.867550253868103027e-01
3.292593639343976974e-03
1.518592089414596558e-01
-1.703024506568908691e-01
1.457683289581815683e-31
-4.193508028984069824e-01
3.498405450955033302e-03
-1.528523862361907959e-01
-3.189236158505082130e-03
3.460096428170800209e-03
-2.146606892347335815e-01
-3.053519427776336670e-01
-3.491550451144576073e-03
-3.971667885780334473e-01
3.412737511098384857e-03
-4.965073764324188232e-01
1.521074175834655762e-01
1.518427431583404541e-01
1.528476774692535400e-01
-3.077693581581115723e-01
-1.529384702444076538e-01
5.271832942962646484e-01
-1.006691753864288330e-01
-2.081894427537918091e-01
2.129190117120742798e-01
2.508441209793090820e-01
-3.359176917001605034e-03
-2.153881639242172241e-01
-8.169692625877110030e-35
6.167674809694290161e-02
-4.608891222467857178e-35
3.442846471443772316e-03
1.036125347018241882e-01
2.461299207415569956e-31
3.377418732270598412e-03
5.701888897613081719e-33
3.623024821281433105e-01
-3.379523456096649170e-01
2.150614261627197266e-01
-3.389897290617227554e-03
-2.170114070177078247e-01
1.968287463321941190e-29
-3.408942604437470436e-03
2.163720726966857910e-01
3.461757907643914223e-03
-3.032762324437499046e-03
-1.528074443340301514e-01
-2.145349085330963135e-01
-2.921263873577117920e-01
3.461976302787661552e-03
2.643320294737350196e-05
-3.460005223751068115e-01
3.402980742976069450e-03
3.913446366786956787e-01
-3.553170710802078247e-03
3.506566863507032394e-03
2.002652734518051147e-01
2.557446481660008430e-03
-4.262377321720123291e-01
3.369924146682024002e-03
5.203866471316233906e-31
2.528020879253745079e-03
-3.412372665479779243e-03
-3.524676663801074028e-03
-1.517862677574157715e-01
-3.443468594923615456e-03
-2.769523561000823975e-01
-1.167619973421096802e-01
2.746255993843078613e-01
3.485503839328885078e-03
3.427786286920309067e-03
2.588782521684152016e-08
2.233215555293705399e-33
-3.424726724624633789e-01
-2.681430280208587646e-01
-1.527845263481140137e-01
3.500860650092363358e-03
-2.831875579431653023e-03
-2.110503166913986206e-01
-1.534252166748046875e-01
-3.445297479629516602e-01
-3.374572377651929855e-03
2.921263873577117920e-01
-3.190416097640991211e-01
-5.529296994209289551e-01
-1.527243405580520630e-01
-2.607356905937194824e-01
-2.001444399356842041e-01
4.466669857501983643e-01
-3.376798471435904503e-03
6.852769762234756090e-13
-6.120083332061767578e-01
-3.081569373607635498e-01
1.535032242536544800e-01
2.652480006217956543e-01
6.980614657229353647e-35
3.434575162827968597e-03
-3.422559006139636040e-03
-8.611658588051795959e-03
1.520956605672836304e-01
1.522430777549743652e-01
1.227987855672836304e-01
-2.802368104457855225e-01
3.119810223579406738e-01
3.370601832866668701e-01
-1.521012485027313232e-01
1.521786004304885864e-01
-2.290699481964111328e-01
-3.565619466826319695e-03
-3.306209575384855270e-03
2.126049846410751343e-01
3.330971347168087959e-03
3.601335221901535988e-03
3.385654389858245850e-01
-3.490300150588154793e-03
-2.970561087131500244e-01
-3.412471385672688484e-03
1.588835865259170532e-01
-4.099301453841519560e-11
-3.672180175781250000e-01
2.983235120773315430e-01
-4.081506133079528809e-01
-5.231981277465820312e-01
3.468201961368322372e-03
1.519610732793807983e-01
1.520275622606277466e-01
-3.452057717368006706e-03
3.402808681130409241e-03
1.699321269989013672e-01
1.699321269989013672e-01
2.575019001960754395e-01
-3.360605100169777870e-03
-4.692018032073974609e-01
2.642794549465179443e-01
-1.527022123336791992e-01
-1.521157026290893555e-01
-3.486585104838013649e-03
3.482535015791654587e-03
-1.530116051435470581e-01
3.370784455910325050e-03
3.022932708263397217e-01
-3.526439657434821129e-03
-3.305303631350398064e-03
4.389657974243164062e-01
3.892640471458435059e-01
-1.521127969026565552e-01
2.201526314020156860e-01
-3.407463897019624710e-03
-1.518686264753341675e-01
3.403427312150597572e-03
-3.460702253505587578e-03
5.376917719841003418e-01
-3.433733712881803513e-03
3.506571054458618164e-03
