1.391215482726693153e-03
6.066748499870300293e-01
-1.383445109240710735e-03
-1.382206450216472149e-03
1.388259115628898144e-03
1.396271749399602413e-03
-1.433799043297767639e-03
-1.209258437156677246e-01
4.406195282936096191e-01
7.981195449829101562e-01
-7.888487540185451508e-03
-1.793164014816284180e-02
-4.532803781330585480e-03
-1.401397748850286007e-03
-3.823448419570922852e-01
-1.391222467646002769e-03
-6.130065321922302246e-01
-1.389500102959573269e-03
1.859394311904907227e+00
-7.431386411190032959e-02
-2.852553687989711761e-02
1.461995998397469521e-03
9.259452223777770996e-01
1.380657777190208435e-03
-1.379928202368319035e-03
-3.474959731101989746e-01
1.388524542562663555e-03
-1.399253960698843002e-03
-2.754565887153148651e-02
2.099718600511550903e-01
-1.384774222970008850e-03
1.382982591167092323e-03
1.160138487815856934e+00
-1.744315475225448608e-01
1.421741209924221039e-03
-2.829606533050537109e-01
-5.811877846717834473e-01
-3.256377875804901123e-01
-1.219116687774658203e+00
-1.382435439154505730e-03
-1.394675928167998791e-03
1.387634547427296638e-03
-3.937595188617706299e-01
-3.601509332656860352e-01
-1.101798295974731445e+00
-1.399544416926801205e-03
3.076669014990329742e-02
-1.395420986227691174e-03
-1.391493133269250393e-03
1.456137746572494507e-03
-3.106063306331634521e-01
1.390888355672359467e-03
1.384572242386639118e-03
1.834883689880371094e-01
-2.638406353071331978e-03
1.382669783197343349e-03
1.384989591315388680e-03
-1.489611808210611343e-03
-2.301643639802932739e-01
1.386560383252799511e-03
-1.383060356602072716e-03
2.378689497709274292e-01
1.380730303935706615e-03
2.739652693271636963e-01
1.387448864988982677e-03
2.135451078414916992e+00
-1.384094124659895897e-03
-1.386712887324392796e-03
-1.380511093884706497e-03
-2.720914185047149658e-01
-4.406195282936096191e-01
-1.401266781613230705e-03
1.384298084303736687e-03
4.993787407875061035e-01
-1.410549157299101353e-03
-1.043747305870056152e+00
-2.519579231739044189e-02
-1.352083217352628708e-02
1.515847281552851200e-03
-6.602194905281066895e-01
1.394130871631205082e-03
-1.384243951179087162e-03
9.147541970014572144e-02
-1.378228073008358479e-03
4.277762770652770996e-01
1.395036233589053154e-03
-1.383531838655471802e-03
-6.062045097351074219e-01
1.451672054827213287e-03
-1.480783075094223022e-01
-1.385739305987954140e-03
-1.401616143994033337e-03
-1.386095886118710041e-03
-7.332722544670104980e-01
-1.391916302964091301e-03
-4.238997399806976318e-02
4.319719970226287842e-01
-1.349017675966024399e-02
-1.768876612186431885e-01
-1.378568704240024090e-03
-2.711776793003082275e-01
-7.981012463569641113e-01
-1.912336468696594238e+00
2.516241371631622314e-01
1.393133192323148251e-03
1.380185480229556561e-03
1.485373824834823608e-03
-1.386864460073411465e-03
-5.995697379112243652e-01
-1.711361855268478394e-01
-4.058178961277008057e-01
-1.380050671286880970e-03
1.515564392320811749e-03
2.234453409910202026e-01
-1.385421841405332088e-03
4.407623112201690674e-01
-1.383161055855453014e-03
-1.792337745428085327e-01
8.805204033851623535e-01
-1.393332844600081444e-03
-2.739652693271636963e-01
1.394476275891065598e-03
1.398047083057463169e-03
-2.852553687989711761e-02
-1.385799609124660492e-03
2.611337900161743164e-01
2.393470555543899536e-01
1.399154774844646454e-03
-1.100888028740882874e-01
4.963120818138122559e-01
1.391793484799563885e-03
-1.218398690223693848e+00
1.298015713691711426e-01
-1.726007438264787197e-03
-1.395407947711646557e-03
-1.381981186568737030e-03
1.393693499267101288e-03
3.859613239765167236e-01
-4.250431060791015625e-01
-1.384033821523189545e-03
-4.150394797325134277e-01
-1.385889830999076366e-03
-1.102901816368103027e+00
4.980817139148712158e-01
-1.380112371407449245e-03
9.739898145198822021e-02
-3.671800792217254639e-01
-1.385030336678028107e-03
-6.330351233482360840e-01
4.486675262451171875e-01
-2.745566964149475098e-01
-1.448578685522079468e-01
-1.380436704494059086e-03
7.043052315711975098e-01
4.851096495985984802e-02
4.241194128990173340e-01
-1.380094327032566071e-03
1.379521680064499378e-03
-2.027097046375274658e-01
1.393764396198093891e-03
1.389911049045622349e-03
9.445859119296073914e-03
1.384978299029171467e-03
-1.384164788760244846e-03
1.764499694108963013e-01
1.266451120376586914e+00
6.590203046798706055e-01
-1.410125754773616791e-03
1.816127419471740723e+00
-1.401010513305664062e+00
3.422377705574035645e-01
-8.626365661621093750e-01
-1.389789977110922337e-03
1.396415173076093197e-03
-2.186649888753890991e-01
1.393717015162110329e-03
-8.601791411638259888e-02
-1.006879448890686035e+00
2.831802330911159515e-02
-7.247421741485595703e-01
1.394579070620238781e-03
-1.400991226546466351e-03
4.394102096557617188e-02
-1.397309824824333191e-03
-1.399371889419853687e-03
4.276985302567481995e-02
-9.739898145198822021e-02
-1.403437927365303040e-03
1.402580528520047665e-03
1.360281952656805515e-03
-1.392653561197221279e-03
9.085673838853836060e-02
1.388464006595313549e-03
1.381450565531849861e-03
-1.397998421452939510e-03
-1.396934967488050461e-03
1.384114148095250130e-03
-5.345784425735473633e-01
1.380213652737438679e-03
-1.395931467413902283e-03
-1.150511741638183594e+00
1.385404611937701702e-03
-1.385401468724012375e-03
-1.384581555612385273e-03
-1.389155513606965542e-03
3.269650042057037354e-01
2.604571580886840820e-01
-1.387504278682172298e-03
1.391811529174447060e-03
-2.210488356649875641e-02
1.911791972815990448e-02
-3.398509919643402100e-01
1.387744559906423092e-03
-2.705716788768768311e-01
1.200524047017097473e-01
1.396663137711584568e-03
1.428237068466842175e-03
1.387396245263516903e-03
6.467787176370620728e-02
2.461836785078048706e-01
1.387054333463311195e-03
4.145751595497131348e-01
-5.727066099643707275e-02
-1.389578683301806450e-03
-6.064074039459228516e-01
-1.378444023430347443e-03
5.127227902412414551e-01
1.392300822772085667e-03
-3.897564113140106201e-02
5.056220293045043945e-01
1.097889304161071777e+00
-8.350461721420288086e-02
-3.231902122497558594e-01
-4.476118385791778564e-01
-2.958436906337738037e-01
-1.395468134433031082e-03
-1.500597953796386719e+00
3.180985152721405029e-02
-3.970185816287994385e-01
-9.738880395889282227e-02
1.392597914673388004e-03
2.749070227146148682e-01
-1.296359747648239136e-01
-1.384008559398353100e-03
1.010345339775085449e+00
-8.375894427299499512e-01
-5.791446566581726074e-01
-9.001398086547851562e-01
1.385738491080701351e-03
8.885477185249328613e-01
-1.110295057296752930e-01
3.505096435546875000e-01
-2.622932195663452148e-01
1.416009385138750076e-03
-1.082997322082519531e+00
1.399443484842777252e-03
1.390994642861187458e-03
1.524708583019673824e-03
-9.445859119296073914e-03
1.382025424391031265e-03
-1.388201024383306503e-03
1.389517332427203655e-03
1.383610651828348637e-03
-1.386306365020573139e-03
1.380415749736130238e-03
-3.604329749941825867e-02
1.383634516969323158e-03
5.511350631713867188e-01
-3.054443895816802979e-01
2.173849046230316162e-01
1.415965380147099495e-03
1.061862930655479431e-01
7.376620173454284668e-01
-3.357641100883483887e-01
1.386641059070825577e-03
-4.202393293380737305e-01
3.106063306331634521e-01
1.387505326420068741e-03
4.376127421855926514e-01
-1.393447513692080975e-03
4.215528368949890137e-01
-5.895856022834777832e-01
1.474739518016576767e-03
1.393005717545747757e-03
-1.392106059938669205e-03
-1.383402268402278423e-03
8.960255384445190430e-01
-1.105237938463687897e-02
5.051361024379730225e-02
-5.083514004945755005e-02
-1.396042644046247005e-03
-1.391496392898261547e-03
2.217579865828156471e-03
-1.387358061037957668e-03
-1.390098477713763714e-03
1.100888028740882874e-01
5.877506136894226074e-01
7.690886259078979492e-01
-1.429498661309480667e-03
5.939539670944213867e-01
1.324313730001449585e-01
1.387983211316168308e-03
-3.461391031742095947e-01
5.364230275154113770e-01
-1.480783075094223022e-01
-1.411252887919545174e-03
4.494627416133880615e-01
1.471005380153656006e-03
2.961959838867187500e-01
1.209258437156677246e-01
1.379567547701299191e-03
-1.393051701597869396e-03
1.390211516991257668e-03
-4.839511513710021973e-01
-2.656457126140594482e-01
2.531932294368743896e-01
-4.063585400581359863e-01
-1.395933213643729687e-03
-1.390925375744700432e-03
4.476118385791778564e-01
-4.036993160843849182e-02
1.387980883009731770e-03
-1.432907301932573318e-03
-1.389516401104629040e-03
-1.756212562322616577e-01
1.384849310852587223e-03
1.390495453961193562e-03
2.291133068501949310e-02
1.384642091579735279e-03
1.396386651322245598e-03
-1.388483215123414993e-03
3.202027976512908936e-01
1.401674817316234112e-03
1.729500130750238895e-03
-1.379961613565683365e-03
-1.394422142766416073e-03
1.407145871780812740e-03
1.425179070793092251e-03
1.406885916367173195e-03
-1.363863470032811165e-03
4.554877057671546936e-03
6.765414774417877197e-02
-8.353365212678909302e-02
-1.389534561894834042e-03
1.412102673202753067e-02
1.406488590873777866e-03
-1.912567764520645142e-01
1.382570015266537666e-03
-1.388553995639085770e-03
3.289910256862640381e-01
1.383922062814235687e-03
-1.474739518016576767e-03
1.976523399353027344e-01
2.801946103572845459e-01
-1.843254268169403076e-01
-1.397558138705790043e-03
1.391230616718530655e-03
1.393613987602293491e-03
1.393622951582074165e-03
-9.806858748197555542e-02
6.149874925613403320e-01
-3.863281011581420898e-01
-5.536368116736412048e-03
-1.382959657348692417e-03
1.377831678837537766e-03
5.619595944881439209e-02
2.320525199174880981e-01
-1.394154969602823257e-03
-1.393619226291775703e-03
3.900334537029266357e-01
1.391567406244575977e-03
-1.379736466333270073e-03
1.410716562531888485e-03
-1.431623240932822227e-03
-1.386881107464432716e-03
3.644119501113891602e-01
-9.799988940358161926e-03
-1.388957607559859753e-03
-4.809994101524353027e-01
-1.387386932037770748e-03
-7.062591910362243652e-01
3.586597368121147156e-02
-1.406779396347701550e-03
-4.645286202430725098e-01
1.982284933328628540e-01
1.381704467348754406e-03
8.364977836608886719e-01
-1.047349810600280762e+00
1.388810342177748680e-03
9.792867302894592285e-01
1.394944381900131702e-03
-1.386397634632885456e-03
1.372464466840028763e-03
3.938097059726715088e-01
1.505790976807475090e-03
1.379937864840030670e-03
7.176994681358337402e-01
4.135319963097572327e-02
-5.202482342720031738e-01
1.413287827745079994e-03
-2.395940124988555908e-01
2.937301099300384521e-01
-8.547298312187194824e-01
-6.123248338699340820e-01
1.386572257615625858e-03
-1.394454156979918480e-03
-1.393181737512350082e-03
-4.049811661243438721e-01
-1.388106378726661205e-03
8.241342380642890930e-03
-4.464673995971679688e-02
4.959830939769744873e-01
-3.954286873340606689e-01
-1.632572859525680542e-01
-1.558103412389755249e-01
-1.384318456985056400e-03
-1.379407476633787155e-03
-1.379171269945800304e-03
-1.512885212898254395e+00
-1.382354530505836010e-03
-6.495851874351501465e-01
-1.387743395753204823e-03
-1.723033189773559570e-02
1.398739172145724297e-03
5.184305310249328613e-01
2.093977183103561401e-01
-1.385762356221675873e-03
4.746543467044830322e-01
1.391455880366265774e-03
3.777566133067011833e-03
1.390467863529920578e-03
7.043069601058959961e-02
-4.885416626930236816e-01
1.046919584274291992e+00
-1.389977522194385529e-03
6.464755535125732422e-02
3.303915560245513916e-01
-1.385691342875361443e-03
1.390975434333086014e-03
3.759904801845550537e-01
6.602194905281066895e-01
-1.421320135705173016e-03
-9.085673838853836060e-02
1.450362149626016617e-02
1.389276934787631035e-03
1.412668614648282528e-03
1.391311525367200375e-03
1.390460296534001827e-03
1.452402328141033649e-03
-5.763475298881530762e-01
2.934345006942749023e-01
-1.391962287016212940e-03
5.308566987514495850e-02
-1.433413475751876831e-03
4.036993160843849182e-02
5.340111255645751953e-01
-4.008416533470153809e-01
-3.474959731101989746e-01
1.379157532937824726e-03
7.206069231033325195e-01
1.391914905980229378e-03
2.399471960961818695e-02
6.367025375366210938e-01
-1.385690760798752308e-03
-2.540338933467864990e-01
4.184546768665313721e-01
-3.823448419570922852e-01
1.381355454213917255e-03
-2.266612052917480469e-01
-1.384923234581947327e-03
3.092605769634246826e-01
-5.427845120429992676e-01
-3.479458093643188477e-01
1.394265331327915192e-03
-1.433246303349733353e-03
5.995697379112243652e-01
-1.385440118610858917e-03
1.391452737152576447e-03
-2.872446477413177490e-01
-5.641123652458190918e-01
-2.540338933467864990e-01
-9.937085211277008057e-03
1.764499694108963013e-01
2.770752832293510437e-02
-4.238599240779876709e-01
-3.409616947174072266e-01
-1.391476253047585487e-03
1.387585769407451153e-03
9.085673838853836060e-02
4.164521992206573486e-01
-5.051361024379730225e-02
-1.386016723699867725e-03
1.382578397169709206e-03
6.174155473709106445e-01
-1.809713058173656464e-02
1.384900882840156555e-03
1.386118587106466293e-03
-5.102049708366394043e-01
-1.390688470564782619e-03
-4.859494268894195557e-01
1.394320279359817505e-03
5.343195199966430664e-01
-4.610665440559387207e-01
-1.549338549375534058e-01
-1.388675300404429436e-03
8.189224600791931152e-01
2.980196475982666016e-01
-7.508820295333862305e-01
-8.446017652750015259e-02
-2.383250044658780098e-03
-1.188009381294250488e+00
-5.029585361480712891e-01
-1.383181661367416382e-03
2.243208885192871094e-02
1.412102673202753067e-02
1.075994893908500671e-01
-1.383360940963029861e-03
-1.412783167324960232e-03
-1.389065058901906013e-03
-7.345623373985290527e-01
1.111256331205368042e-01
-1.391144469380378723e-03
5.877775549888610840e-01
7.487477734684944153e-03
-1.403976930305361748e-03
5.203926563262939453e-01
3.214138746261596680e-01
-1.393051934428513050e-03
-3.675546944141387939e-01
-1.388198928907513618e-03
3.044353425502777100e-01
-1.392069738358259201e-03
-1.107638597488403320e+00
1.392819103784859180e-03
3.979171812534332275e-01
4.969872534275054932e-01
-1.384264673106372356e-03
5.812870264053344727e-01
7.682720571756362915e-02
-1.500572427175939083e-03
-1.683555915951728821e-02
-3.258207738399505615e-01
2.176988869905471802e-02
1.381470356136560440e-03
3.969294726848602295e-01
1.190464258193969727e+00
-4.539464116096496582e-01
1.394064514897763729e-03
-1.387548982165753841e-03
-4.857552945613861084e-01
3.300983011722564697e-01
5.746313929557800293e-01
-3.601683080196380615e-01
1.100185155868530273e+00
5.678220391273498535e-01
-5.827106237411499023e-01
1.392904669046401978e-03
1.389409299008548260e-03
1.391374971717596054e-03
5.268154144287109375e-01
1.407208968885242939e-03
-1.394619001075625420e-03
-1.388351083733141422e-03
-6.744915246963500977e-01
1.392626785673201084e-03
-1.050236463546752930e+00
-3.138670325279235840e-01
-1.496510952711105347e-01
-1.378196058794856071e-03
1.450362149626016617e-02
-4.400088489055633545e-01
1.380018773488700390e-03
1.388204167596995831e-03
-1.395415165461599827e-03
-1.434984151273965836e-03
-5.691998004913330078e-01
-1.388409058563411236e-03
-1.386125222779810429e-03
-3.603326156735420227e-03
8.705635070800781250e-01
-1.406641211360692978e-03
-1.386659336276352406e-03
8.783977627754211426e-01
5.051665902137756348e-01
-1.386455027386546135e-03
-1.388148288242518902e-03
1.388590899296104908e-03
1.390847377479076385e-03
1.178831444121897221e-03
3.474959731101989746e-01
1.387807191349565983e-03
6.472837924957275391e-01
2.597816586494445801e-01
-5.074443817138671875e-01
1.391654717735946178e-03
1.390140387229621410e-03
1.379345194436609745e-03
3.926552832126617432e-01
-2.649049460887908936e-01
1.391671015881001949e-03
-3.799481093883514404e-01
-1.301158308982849121e+00
-1.385108334943652153e-03
-1.697694957256317139e-01
-1.507877409458160400e-01
-2.919100224971771240e-01
-1.401101006194949150e-03
-2.419258654117584229e-01
-1.387038500979542732e-03
3.056930005550384521e-01
-2.833529710769653320e-01
1.383998896926641464e-03
1.383924740366637707e-03
1.243733391165733337e-01
-3.898125290870666504e-01
5.610486268997192383e-01
-1.390476594679057598e-03
1.379750319756567478e-03
5.677118152379989624e-02
-7.442294955253601074e-01
-5.906130075454711914e-01
-3.940263092517852783e-01
-1.391654135659337044e-03
-1.390807447023689747e-03
-1.392921316437423229e-03
8.914228528738021851e-02
-1.389418612234294415e-03
-1.390582532621920109e-03
-1.408021780662238598e-03
-6.878088712692260742e-01
-3.090313076972961426e-01
2.758850157260894775e-01
1.392042613588273525e-03
-1.389127573929727077e-03
1.400331733748316765e-03
-1.104201376438140869e-02
2.754566445946693420e-02
-1.130610823631286621e+00
-1.387404627166688442e-03
3.269650042057037354e-01
1.391996047459542751e-03
7.946518659591674805e-01
1.380097237415611744e-03
-5.789735913276672363e-01
-1.388168660923838615e-03
-4.015132486820220947e-01
-1.380495377816259861e-03
-8.456946909427642822e-02
-5.570457316935062408e-03
-1.380773610435426235e-03
-2.790148556232452393e-01
1.387037103995680809e-03
1.395941129885613918e-03
1.441997359506785870e-03
6.022654473781585693e-02
-1.381113077513873577e-03
1.412873389199376106e-03
1.731262505054473877e-01
-1.391465193592011929e-03
3.601509332656860352e-01
-7.709653675556182861e-02
-2.687427997589111328e-01
1.717041432857513428e-02
1.477008219808340073e-03
1.827030628919601440e-02
1.391253471374511719e-01
-1.410607132129371166e-03
1.387881929986178875e-03
1.391054014675319195e-03
-1.392347039654850960e-03
-1.388349686749279499e-03
1.393079292029142380e-03
-1.328182518482208252e-01
7.374560236930847168e-01
-1.390959951095283031e-03
-1.392533071339130402e-03
-1.434168429113924503e-03
1.395274884998798370e-03
4.986018314957618713e-02
2.801337242126464844e-01
-2.815883159637451172e-01
5.308566987514495850e-02
5.475100278854370117e-01
-1.460280967876315117e-03
3.250396847724914551e-01
-2.749070227146148682e-01
6.042601466178894043e-01
-1.381634268909692764e-03
1.390543533489108086e-03
-1.394955324940383434e-03
-1.380818430334329605e-03
1.233476102352142334e-01
1.382467802613973618e-03
-1.392909442074596882e-03
-4.093612134456634521e-01
-8.303191512823104858e-02
1.386482384987175465e-03
-1.379458117298781872e-03
1.412455225363373756e-03
6.483021378517150879e-01
-2.501924932003021240e-01
-5.416936874389648438e-01
1.381303067319095135e-03
3.944643735885620117e-01
-3.983466625213623047e-01
-1.390667515806853771e-03
1.386705320328474045e-03
1.400103792548179626e-03
1.077542752027511597e-01
-3.708164691925048828e-01
1.379767199978232384e-03
1.408644602634012699e-03
-1.451019663363695145e-03
9.275740012526512146e-03
-4.767322540283203125e-01
4.779807925224304199e-01
-1.381107256747782230e-03
1.384684583172202110e-03
1.447307467460632324e-01
3.148080110549926758e-01
-3.586597368121147156e-02
-1.760154068470001221e-01
-1.435811514966189861e-03
2.663590572774410248e-02
-1.397417858242988586e-03
5.904267430305480957e-01
1.397310756146907806e-03
-1.395061262883245945e-03
-1.394035411067306995e-03
-2.324464321136474609e+00
-1.378652290441095829e-03
-2.207056999206542969e+00
-1.387576921842992306e-03
-2.157812416553497314e-01
1.404479029588401318e-03
1.422402914613485336e-03
-1.387041411362588406e-03
-4.476118385791778564e-01
-4.208892583847045898e-01
-9.452788233757019043e-01
1.197767909616231918e-02
1.391234109178185463e-03
-3.933919370174407959e-01
-1.388972741551697254e-03
-6.423544287681579590e-01
1.732079833745956421e-01
1.556618697941303253e-02
8.348140120506286621e-02
1.222453713417053223e-01
-2.717859447002410889e-01
4.885130003094673157e-02
-2.089211158454418182e-02
-1.733018517494201660e+00
-1.815437711775302887e-02
1.744315475225448608e-01
-1.385203562676906586e-03
-2.754565887153148651e-02
1.327461600303649902e-01
1.378839137032628059e-03
-1.392189064063131809e-03
-1.386398798786103725e-03
1.553198248147964478e-01
-9.195588231086730957e-01
1.615228480659425259e-03
3.813441395759582520e-01
1.498365700244903564e-01
1.400834298692643642e-03
-1.391804078593850136e-03
-2.754565887153148651e-02
-1.396717270836234093e-03
-3.151006400585174561e-01
1.383419265039265156e-03
3.156644105911254883e-01
1.397423329763114452e-03
-3.474959731101989746e-01
-1.381889451295137405e-03
1.391839236021041870e-03
-1.345664560794830322e-01
1.393200713209807873e-03
6.954299211502075195e-01
1.387219293974339962e-03
1.392475678585469723e-03
-1.385161885991692543e-03
-1.393140526488423347e-03
-1.392203266732394695e-03
-1.397480489686131477e-03
-3.969446122646331787e-01
1.382751855999231339e-03
-1.390359946526587009e-03
-1.391476602293550968e-03
1.939297765493392944e-01
-7.043069601058959961e-02
1.391920726746320724e-03
-8.725953288376331329e-03
-1.389720127917826176e-03
1.384439296089112759e-03
1.392968697473406792e-03
5.633860826492309570e-01
-1.903168261051177979e-01
-1.918877125717699528e-03
1.381405163556337357e-03
-3.505101501941680908e-01
1.393302925862371922e-03
2.622932195663452148e-01
5.067059770226478577e-02
-1.438892126083374023e+00
-8.250355124473571777e-01
-3.352245092391967773e-01
1.608759760856628418e+00
4.553589224815368652e-02
-1.652974402531981468e-03
-1.434168429113924503e-03
-1.317113518714904785e+00
1.390984747558832169e-03
-2.533497810363769531e-01
1.392985926941037178e-03
1.112231373786926270e+00
-6.120898127555847168e-01
-1.127463340759277344e+00
-1.385400886647403240e-03
-1.395713188685476780e-03
-7.012431025505065918e-01
5.435054302215576172e-01
4.151346385478973389e-01
1.386163639836013317e-03
-3.452090024948120117e-01
-4.680322110652923584e-01
-3.891369104385375977e-01
5.226631760597229004e-01
3.357641100883483887e-01
1.387240597978234291e-03
5.687279105186462402e-01
-1.387343509122729301e-03
7.485557794570922852e-01
-1.390576944686472416e-03
1.460072636604309082e+00
-1.387127907946705818e-03
-1.385113690048456192e-03
4.038290977478027344e-01
1.393703627400100231e-03
3.421898782253265381e-01
-3.808724284172058105e-01
-1.364685711450874805e-03
3.702016472816467285e-01
4.996680319309234619e-01
1.258740574121475220e-01
4.072578251361846924e-01
1.387395313940942287e-03
-1.391808735206723213e-03
3.892461583018302917e-02
1.378592918626964092e-03
6.960374861955642700e-02
-4.749787151813507080e-01
3.708164691925048828e-01
6.416999697685241699e-01
-7.798253297805786133e-01
-1.411254401318728924e-03
1.675193309783935547e-01
-6.038836240768432617e-01
-6.469381451606750488e-01
6.919094920158386230e-02
1.487928791902959347e-03
2.466105222702026367e-01
7.076445966958999634e-03
1.388226635754108429e-03
1.460638523101806641e+00
-4.138109385967254639e-01
-4.057132601737976074e-01
1.396196312271058559e-03
4.277762770652770996e-01
-2.393470555543899536e-01
-1.036396995186805725e-01
1.385448849759995937e-03
5.303776264190673828e-01
-1.393548212945461273e-03
1.392090925946831703e-03
-5.200476050376892090e-01
1.393337734043598175e-03
-1.692404985427856445e+00
1.387728611007332802e-03
1.381144742481410503e-03
-6.832395792007446289e-01
1.389569370076060295e-03
5.005614459514617920e-02
1.389093231409788132e-03
1.379558583721518517e-03
-2.831802330911159515e-02
-2.441561967134475708e-02
1.384857809171080589e-03
2.931326031684875488e-01
1.381639158353209496e-03
-1.385349663905799389e-03
-1.383962808176875114e-03
-1.398798776790499687e-03
-1.386685762554407120e-03
-1.389813260175287724e-03
1.105237938463687897e-02
1.390196848660707474e-03
1.395702711306512356e-03
1.385883660987019539e-03
1.435802550986409187e-03
-5.995697379112243652e-01
3.083591163158416748e-01
-6.264102458953857422e-01
-1.410287916660308838e-01
1.385796931572258472e-03
-2.663772739470005035e-02
-2.919100224971771240e-01
-3.822744786739349365e-01
-1.384857809171080589e-03
3.893891274929046631e-01
-5.358183011412620544e-02
-1.992842741310596466e-02
3.243835866451263428e-01
2.166582345962524414e-01
1.393441110849380493e-03
-1.498865080066025257e-03
-4.501597285270690918e-01
1.603244920261204243e-03
-2.299880832433700562e-01
8.309216052293777466e-02
4.813912808895111084e-01
1.384333008900284767e-03
1.387242227792739868e-03
3.842366933822631836e-01
-1.391909900121390820e-03
-1.384466886520385742e-03
-1.403774367645382881e-03
3.083129227161407471e-01
1.565315411426126957e-03
2.672004103660583496e-01
3.893891274929046631e-01
1.383497496135532856e-03
-1.391974277794361115e-03
-1.388455275446176529e-03
1.394142163917422295e-03
2.560825943946838379e-01
1.386534422636032104e-03
-1.393759157508611679e-03
3.979073166847229004e-01
-1.386349904350936413e-03
-1.387582160532474518e-03
-1.380498870275914669e-03
-1.380489906296133995e-03
-6.312339305877685547e-01
-1.388196018524467945e-03
-7.816515862941741943e-03
-7.044979929924011230e-01
-2.668963968753814697e-01
-6.305024027824401855e-01
7.516597509384155273e-01
-3.645061515271663666e-03
1.381186302751302719e-03
-2.464967072010040283e-01
-1.386726507917046547e-03
-1.393241691403090954e-03
-1.397336018271744251e-03
-7.382550835609436035e-02
-1.393461134284734726e-03
3.748445510864257812e-01
1.393621205352246761e-03
-1.382596674375236034e-03
1.793164014816284180e-02
-1.390904188156127930e-03
7.179515957832336426e-01
-1.384440693072974682e-03
1.385326962918043137e-03
1.398052321746945381e-03
-1.398877939209342003e-03
-1.370053389109671116e-03
3.046064972877502441e-01
-1.393454265780746937e-03
1.385654322803020477e-03
-3.819105029106140137e-01
8.335623741149902344e-01
-6.604431271553039551e-01
5.855752155184745789e-02
-3.303915560245513916e-01
-1.893084645271301270e-01
1.389764365740120411e-03
1.388346427120268345e-03
-2.873171307146549225e-02
5.434572100639343262e-01
-1.387610100209712982e-03
5.738824009895324707e-01
1.385428244248032570e-03
1.102296784520149231e-01
-1.379102584905922413e-03
-1.387959113344550133e-03
1.581568736582994461e-03
-1.390821416862308979e-03
-6.056227684020996094e-01
-1.379487570375204086e-03
-1.397060230374336243e-03
-5.051361024379730225e-02
7.726675868034362793e-01
1.401944900862872601e-03
-1.382364425808191299e-03
3.975343406200408936e-01
-1.397558720782399178e-03
1.387041411362588406e-03
1.388914883136749268e-03
-2.687704050913453102e-03
1.386588672176003456e-03
1.385188079439103603e-03
-7.534654736518859863e-01
-1.396901207044720650e-03
-1.368016935884952545e-03
6.081938147544860840e-01
1.385507639497518539e-03
9.477792680263519287e-02
-1.251625895500183105e+00
-2.243208885192871094e-02
1.391304074786603451e-03
1.381439273245632648e-03
-4.363907277584075928e-01
1.387499854899942875e-03
2.998276054859161377e-01
-1.382851391099393368e-03
-1.400811364874243736e-03
-2.801946103572845459e-01
-1.389278681017458439e-03
-1.390601741150021553e-03
-1.390150631777942181e-03
-1.391811529174447060e-03
-1.386135816574096680e-03
-2.642057090997695923e-02
-1.564066261053085327e-01
3.805223703384399414e-01
-6.716566532850265503e-02
-8.782726526260375977e-02
2.468360215425491333e-01
1.386618823744356632e-03
2.754565887153148651e-02
-2.705716788768768311e-01
-1.386778079904615879e-03
1.797089353203773499e-03
-3.377801477909088135e-01
-5.339488387107849121e-01
1.393025740981101990e-03
-1.380410743877291679e-03
-4.610162079334259033e-01
1.379664172418415546e-03
4.559059068560600281e-02
-1.391738303937017918e-03
1.392489648424088955e-03
4.806446284055709839e-02
-8.966882526874542236e-02
9.851484298706054688e-01
2.654899358749389648e-01
2.919100224971771240e-01
-3.650681348517537117e-03
-1.401815214194357395e-03
-7.513745427131652832e-01
-8.919211030006408691e-01
5.293682217597961426e-01
1.389007666148245335e-03
1.782408449798822403e-03
1.391301979310810566e-03
5.144392848014831543e-01
4.200595915317535400e-01
1.390068908222019672e-03
1.378303510136902332e-03
1.379680470563471317e-03
5.601224899291992188e-01
1.397049403749406338e-03
6.005688309669494629e-01
1.386605435982346535e-03
-1.057617902755737305e+00
-1.379764871671795845e-03
1.521826372481882572e-03
1.397951273247599602e-03
1.383618568070232868e-03
1.026638269424438477e+00
1.387602533213794231e-03
2.441561967134475708e-02
6.133942008018493652e-01
-1.383535563945770264e-03
-1.391287078149616718e-03
6.995441317558288574e-01
-6.234604865312576294e-03
1.400945242494344711e-03
2.827203571796417236e-01
-5.549774169921875000e-01
1.389092998579144478e-03
-1.452682772651314735e-03
-1.391118275932967663e-03
-6.412088274955749512e-01
-1.381587702780961990e-03
-3.829849958419799805e-01
4.031827449798583984e-01
1.395476050674915314e-03
1.395884901285171509e-03
1.145283222198486328e+00
-1.389624783769249916e-03
-1.411254168488085270e-03
1.381696201860904694e-03
-4.121470078825950623e-02
1.368092447519302368e-01
-7.714908123016357422e-01
-2.132475525140762329e-01
4.937230348587036133e-01
-4.676998555660247803e-01
-4.912230074405670166e-01
-3.864052593708038330e-01
1.391059486195445061e-03
7.893017679452896118e-02
-5.209241509437561035e-01
-3.808724284172058105e-01
1.384831382893025875e-03
-1.380358589813113213e-03
-1.379609806463122368e-03
8.455654978752136230e-02
1.390424207784235477e-03
-1.382072805427014828e-03
-1.380760571919381618e-03
2.823280170559883118e-02
-1.383872702717781067e-03
4.645286202430725098e-01
-1.391630270518362522e-03
-2.464283555746078491e-01
1.386439893394708633e-03
-2.706731259822845459e-01
2.166582345962524414e-01
-1.393129350617527962e-03
1.393160782754421234e-03
5.008277297019958496e-01
1.395538914948701859e-03
1.388192758895456791e-03
1.386791816912591457e-03
1.403457135893404484e-03
-1.003826856613159180e+00
1.390942838042974472e-03
-3.342901766300201416e-01
-5.964664742350578308e-03
-1.390340388752520084e-03
-1.396764419041574001e-03
1.379587338306009769e-03
-1.513342279940843582e-02
3.857313096523284912e-02
-4.083934128284454346e-01
-1.452682772651314735e-03
2.684154212474822998e-01
3.898805081844329834e-01
8.782726526260375977e-02
1.391462283208966255e-03
-1.379778841510415077e-03
-1.383345224894583225e-03
-4.058953821659088135e-01
3.489088416099548340e-01
-8.398643136024475098e-01
-1.391462283208966255e-03
1.402019988745450974e-03
-1.492763520218431950e-03
1.320998370647430420e-01
-1.383145572617650032e-03
3.214138746261596680e-01
-6.432184576988220215e-01
-4.327925443649291992e-01
1.382537069730460644e-03
7.072209715843200684e-01
-1.394366845488548279e-03
-1.389098237268626690e-03
-5.704813599586486816e-01
-1.395264524035155773e-03
-1.386374351568520069e-03
-5.746313929557800293e-01
-1.393322017975151539e-03
-4.704541712999343872e-02
-1.384353148750960827e-03
-4.673584103584289551e-01
1.429068157449364662e-03
5.570457316935062408e-03
1.389373559504747391e-03
-2.296846657991409302e-01
-1.389148528687655926e-03
1.210668683052062988e-01
5.371267199516296387e-01
1.386458170600235462e-03
1.391753670759499073e-03
-1.435812446288764477e-03
-1.385865034535527229e-03
-2.296846657991409302e-01
-1.396010047756135464e-03
3.956759870052337646e-01
1.381802838295698166e-03
-2.188775837421417236e-01
2.291894257068634033e-01
-1.379420864395797253e-03
-1.385427080094814301e-03
1.379377907142043114e-03
-7.791825532913208008e-01
-8.209182024002075195e-01
-1.395603176206350327e-03
1.435810700058937073e-03
-1.439118408598005772e-03
1.388548756949603558e-03
3.443250805139541626e-02
1.376777072437107563e-03
-2.487772852182388306e-01
-1.400763285346329212e-03
1.381027977913618088e-03
1.384231727570295334e-03
-1.380694215185940266e-03
-1.436185673810541630e-03
-2.653097808361053467e-01
1.388213713653385639e-03
-1.382988761179149151e-03
6.161375641822814941e-01
1.742668449878692627e-01
9.667437672615051270e-01
1.386413117870688438e-03
-1.418531290255486965e-03
-7.595400214195251465e-01
-1.393236801959574223e-03
1.390607794746756554e-03
1.410293974913656712e-03
1.447965390980243683e-03
2.714321203529834747e-02
1.393384998664259911e-03
-3.175228834152221680e-03
-1.376589876599609852e-03
-2.576555907726287842e-01
-1.151128709316253662e-01
-2.065308392047882080e-01
1.349832862615585327e-01
-1.383071066811680794e-03
1.385817304253578186e-03
-1.556618697941303253e-02
-2.754565887153148651e-02
3.954304754734039307e-01
1.390372053720057011e-03
-1.384989358484745026e-03
-3.931094408035278320e-01
5.704582333564758301e-01
1.387738739140331745e-03
8.429431915283203125e-02
-1.581568736582994461e-03
-1.388436648994684219e-03
1.342280387878417969e+00
2.524798810482025146e-01
9.275740012526512146e-03
1.397151267156004906e-03
1.383465714752674103e-03
8.682331442832946777e-01
1.529925270006060600e-03
1.390605466440320015e-03
1.386819640174508095e-03
-1.388308010064065456e-03
-1.881465017795562744e-01
5.845573917031288147e-02
-7.874696850776672363e-01
1.132886949926614761e-02
1.388959353789687157e-03
-6.765414774417877197e-02
6.460939999669790268e-03
1.384423812851309776e-03
3.965952992439270020e-01
1.386922434903681278e-03
1.392531557939946651e-03
6.506968140602111816e-01
1.395255210809409618e-03
-8.997323513031005859e-01
-1.327461600303649902e-01
-5.428159981966018677e-02
-1.391530153341591358e-03
1.391144236549735069e-03
2.027097046375274658e-01
-3.676566481590270996e-01
-1.958623528480529785e-02
-1.813961416482925415e-01
-4.964379668235778809e-01
4.592647850513458252e-01
-1.393033657222986221e-03
-1.300884962081909180e+00
1.391160767525434494e-03
9.090426564216613770e-01
1.389054581522941589e-03
4.027262926101684570e-01
4.795894026756286621e-01
9.739898145198822021e-02
1.385100767947733402e-03
6.847344636917114258e-01
1.394316204823553562e-03
-1.381875248625874519e-03
-4.192967414855957031e-01
-1.255233883857727051e-01
5.746890306472778320e-01
1.386655494570732117e-03
1.612099818885326385e-03
9.344276785850524902e-01
-1.396230189129710197e-03
-6.155220791697502136e-02
1.392573234625160694e-03
2.097749710083007812e-02
1.385716605000197887e-03
1.382149639539420605e-03
-3.137945234775543213e-01
-5.717608928680419922e-01
1.385076669976115227e-03
-2.097749710083007812e-02
4.319494962692260742e-01
5.270543098449707031e-01
-6.655175983905792236e-02
-9.916546195745468140e-02
1.412602141499519348e-03
1.388393342494964600e-03
-7.274814844131469727e-01
1.178217455744743347e-01
1.711338385939598083e-02
-6.682408601045608521e-02
-1.391988480463624001e-03
-1.361632049083709717e-01
1.404097769409418106e-03
-4.853665232658386230e-01
4.589768946170806885e-01
-7.578954696655273438e-01
1.191078722476959229e-01
1.382365357130765915e-03
-2.001224607229232788e-01
7.203372716903686523e-01
-9.162600636482238770e-01
-2.739652693271636963e-01
1.388288219459354877e-03
7.933076620101928711e-01
2.368044704198837280e-01
3.034558147192001343e-02
1.380545436404645443e-03
-1.383258844725787640e-03
-3.941634297370910645e-01
1.391437952406704426e-03
-6.507243495434522629e-03
-1.388498931191861629e-03
-1.392900943756103516e-03
-3.491584062576293945e-01
-4.052013158798217773e-01
1.384728820994496346e-03
-1.392760314047336578e-03
-1.387394499033689499e-03
1.385774812661111355e-03
-1.386110088787972927e-03
1.380756148137152195e-03
-1.384628703817725182e-03
1.391655299812555313e-03
1.829713955521583557e-02
-3.214138746261596680e-01
3.823448419570922852e-01
-1.387269934639334679e-03
-3.214138746261596680e-01
-1.396476291120052338e-03
1.484375796280801296e-03
1.178136825561523438e+00
1.827030628919601440e-02
6.532306671142578125e-01
5.343532562255859375e-01
-1.380239264108240604e-03
1.406440278515219688e-03
9.530260413885116577e-02
-9.530260413885116577e-02
-1.746295392513275146e-02
-4.613895118236541748e-01
-2.717555463314056396e-01
-4.434118866920471191e-01
4.393831491470336914e-01
-1.032889559864997864e-01
-2.441561967134475708e-02
3.253711462020874023e-01
1.392294419929385185e-03
1.382858725264668465e-03
1.393106416799128056e-03
-1.388123841024935246e-03
6.464755535125732422e-02
-1.981077790260314941e-01
9.739898145198822021e-02
8.782726526260375977e-02
-1.391895930282771587e-03
-1.389378565363585949e-03
-1.384607749059796333e-03
4.657218754291534424e-01
1.491761326789855957e+00
-1.392840407788753510e-03
6.275813579559326172e-01
-1.278144773095846176e-02
1.928138732910156250e-01
1.386167132295668125e-03
3.616676330566406250e-01
5.060351490974426270e-01
-1.320828404277563095e-02
1.458699465729296207e-03
3.812960088253021240e-01
-6.602194905281066895e-01
-1.407129457220435143e-03
-1.380023313686251640e-03
-1.382613321766257286e-03
-9.796824306249618530e-03
5.780568122863769531e-01
-2.688545882701873779e-01
3.715936094522476196e-02
1.384339993819594383e-03
-1.381498295813798904e-03
-1.391968224197626114e-03
1.381845795549452305e-03
1.392120611853897572e-03
-4.440691769123077393e-01
-4.195054993033409119e-03
1.402479247190058231e-03
-2.873171307146549225e-02
3.572973012924194336e-01
-1.493575517088174820e-03
-3.946129977703094482e-01
3.482679128646850586e-01
-1.388648524880409241e-03
3.202027976512908936e-01
3.872996568679809570e-01
1.387112424708902836e-03
3.829848766326904297e-01
-6.452641487121582031e-01
6.209038663655519485e-03
1.380587345920503139e-03
4.344264790415763855e-02
2.225087285041809082e-01
1.384438131935894489e-03
2.915813215076923370e-02
4.594811797142028809e-01
1.419589738361537457e-03
-1.217313632369041443e-01
-1.403772621415555477e-03
1.425492460839450359e-03
1.386162824928760529e-03
-1.976523399353027344e-01
-1.387878204695880413e-03
-1.388195436447858810e-03
4.122413694858551025e-01
-1.380129251629114151e-03
1.402054447680711746e-03
-5.826100707054138184e-01
6.066297292709350586e-01
2.215297520160675049e-01
-3.965952992439270020e-01
-1.386286807246506214e-03
1.385117997415363789e-03
-6.221257448196411133e-01
1.398737658746540546e-03
-1.797089353203773499e-03
-1.564066261053085327e-01
6.183899044990539551e-01
-4.067336022853851318e-01
1.407014788128435612e-03
-1.921034008264541626e-01
7.626872509717941284e-03
-1.387005089782178402e-03
-4.339004755020141602e-01
-1.393858692608773708e-03
-1.765889376401901245e-01
1.386201009154319763e-03
-1.600532233715057373e-01
-1.384427887387573719e-03
9.342504665255546570e-03
9.275740012526512146e-03
-1.383656635880470276e-03
1.384989591315388680e-03
-1.410225289873778820e-03
5.484842695295810699e-03
1.207301840186119080e-01
4.337073862552642822e-01
-4.532860517501831055e-01
2.830741927027702332e-03
-1.385005307383835316e-03
-1.380883390083909035e-03
1.976523399353027344e-01
1.486476394347846508e-03
1.690944194793701172e+00
-1.400884124450385571e-03
-1.756212562322616577e-01
2.601945400238037109e-01
1.448565721511840820e-01
-6.726558320224285126e-03
-3.417759835720062256e-01
-1.379929017275571823e-03
-1.382080954499542713e-03
-1.391488476656377316e-03
-1.390727469697594643e-03
1.379075692966580391e-03
1.666318508796393871e-03
3.748531043529510498e-01
1.386607182212173939e-03
1.921034008264541626e-01
-9.330527186393737793e-01
3.547664582729339600e-01
5.050060749053955078e-01
-1.392997801303863525e-03
7.709653675556182861e-02
-7.896772623062133789e-01
-1.371764810755848885e-03
5.537392105907201767e-03
-1.397415529936552048e-03
-1.381009118631482124e-03
2.065504668280482292e-03
-1.390875549986958504e-03
-1.397367799654603004e-03
-2.006652653217315674e-01
1.382558257319033146e-03
1.381963724270462990e-03
-4.857978820800781250e-01
2.918212413787841797e-01
-1.393383136019110680e-03
-2.742177248001098633e-01
7.888487540185451508e-03
-3.336942791938781738e-01
-1.391146215610206127e-03
-1.383132766932249069e-03
-2.082507163286209106e-01
1.798072755336761475e-01
-9.530260413885116577e-02
9.530260413885116577e-02
6.699454188346862793e-01
-9.087244272232055664e-01
4.520631134510040283e-01
5.813561752438545227e-02
1.390657271258533001e-03
-3.990572392940521240e-01
-4.058953821659088135e-01
1.391581026837229729e-03
4.506468772888183594e-02
-6.602194905281066895e-01
-3.398882448673248291e-01
-1.398808788508176804e-03
-5.218030884861946106e-02
-1.392718404531478882e-03
3.792799711227416992e-01
-2.719651907682418823e-02
-3.079348430037498474e-02
-3.601948022842407227e-01
2.083393745124340057e-03
-1.486476394347846508e-03
7.393342852592468262e-01
-5.917114019393920898e-01
1.389318844303488731e-03
3.349121212959289551e-01
-1.383350812830030918e-03
-2.888558804988861084e-01
-1.557342410087585449e+00
6.396710276603698730e-01
1.393859856761991978e-03
-1.895597726106643677e-01
3.814038336277008057e-01
-6.011225581169128418e-01
-1.390941091813147068e-03
-1.377516426146030426e-03
1.390421297401189804e-03
-1.400895416736602783e-03
-8.782726526260375977e-02
1.474739518016576767e-03
-1.383200869895517826e-03
9.739898145198822021e-02
-1.035236954689025879e+00
-1.392580801621079445e-03
1.390175078995525837e-03
-1.379747409373521805e-03
1.622134894132614136e-01
-1.529925270006060600e-03
1.387515803799033165e-03
1.381227630190551281e-03
-1.413153135217726231e-03
2.682047188282012939e-01
2.608060836791992188e-01
-1.577339693903923035e-02
2.516241371631622314e-01
-1.529925270006060600e-03
5.050060749053955078e-01
-1.349076747894287109e+00
-5.193177461624145508e-01
-1.401142799295485020e-03
-1.394881983287632465e-03
8.565153926610946655e-03
2.379586547613143921e-02
5.570457316935062408e-03
-7.391884922981262207e-01
-2.289015352725982666e-01
-5.105141177773475647e-02
-2.112293541431427002e-01
-5.068867802619934082e-01
3.940263092517852783e-01
4.773193299770355225e-01
1.384616480208933353e-03
-4.848980903625488281e-01
-1.400293083861470222e-03
1.391828176565468311e-03
-6.442375183105468750e-01
5.806626677513122559e-01
1.380323083139955997e-03
-3.939504325389862061e-01
-1.371432794257998466e-03
-1.381915062665939331e-03
1.556618697941303253e-02
4.949183166027069092e-01
-1.384070841595530510e-03
-5.900481939315795898e-01
-2.313191257417201996e-02
4.341708421707153320e-01
-1.382487593218684196e-03
1.394022838212549686e-03
1.061862930655479431e-01
-1.413279445841908455e-03
-2.126483945176005363e-03
-1.240627244114875793e-01
1.345615684986114502e-01
3.268154710531234741e-02
-3.586597368121147156e-02
1.058944128453731537e-02
-1.434834301471710205e-01
-1.496637225151062012e+00
-1.387257128953933716e-03
-1.490885376930236816e+00
-4.167937673628330231e-03
1.391253471374511719e-01
1.069940347224473953e-02
-1.922690309584140778e-03
1.792423129081726074e+00
-6.862472295761108398e-01
-1.494849085807800293e+00
-1.396636129356920719e-03
1.384194474667310715e-03
-1.108886003494262695e+00
5.861888527870178223e-01
-8.748580217361450195e-01
1.390010584145784378e-03
-9.347349405288696289e-01
4.860674142837524414e-01
6.587939858436584473e-01
-7.487477734684944153e-03
-1.385513460263609886e-03
1.388709642924368382e-03
-1.395945204421877861e-03
7.075431942939758301e-01
-4.448064267635345459e-01
-1.141796469688415527e+00
-1.393314450979232788e-03
8.052588254213333130e-02
1.380065572448074818e-03
1.380365574732422829e-03
-4.085617363452911377e-01
-1.381268724799156189e-03
-1.390290330164134502e-03
-1.382217742502689362e-03
-4.158965051174163818e-01
-1.421768451109528542e-03
1.393459737300872803e-03
4.319494962692260742e-01
1.247417852282524109e-01
1.384755363687872887e-03
7.893017679452896118e-02
-1.985889524221420288e-01
-1.113715693354606628e-01
-1.383519847877323627e-03
1.397264422848820686e-03
-2.291894257068634033e-01
-1.493575517088174820e-03
6.350729465484619141e-01
4.184011816978454590e-01
1.393845654092729092e-03
-1.016151383519172668e-01
8.456220030784606934e-01
1.415996230207383633e-03
-1.636154055595397949e-01
3.933919370174407959e-01
-1.400444656610488892e-03
3.781559467315673828e-01
1.378672081045806408e-03
5.976240634918212891e-01
-3.861873596906661987e-02
-1.385970390401780605e-03
1.389553770422935486e-03
2.827203571796417236e-01
2.873171307146549225e-02
-1.377159729599952698e-03
1.389445969834923744e-03
1.252153962850570679e-01
-2.444315701723098755e-03
3.402421995997428894e-02
-1.390670659020543098e-03
3.927582204341888428e-01
-1.948257386684417725e-01
1.390584278851747513e-03
3.812960088253021240e-01
-1.389660239219665527e-01
-1.387329306453466415e-03
3.582402467727661133e-01
4.432702660560607910e-01
-1.847949177026748657e-01
1.452569849789142609e-03
-1.380561734549701214e-03
1.394491526298224926e-03
-1.993043534457683563e-02
-3.891674280166625977e-01
1.380801317282021046e-03
1.392889302223920822e-03
-1.386156422086060047e-03
1.382240792736411095e-03
-6.082091331481933594e-01
1.393005368299782276e-03
-8.455654978752136230e-02
-5.434311926364898682e-02
-9.377492964267730713e-02
1.376294647343456745e-03
-1.382371992804110050e-03
-7.453685626387596130e-03
-1.389388926327228546e-03
-4.813912808895111084e-01
2.694267630577087402e-01
-1.388714299537241459e-03
2.393470555543899536e-01
1.386806601658463478e-03
1.395537401549518108e-03
1.196946110576391220e-02
1.388508593663573265e-03
4.257633984088897705e-01
1.545587670989334583e-03
6.070075035095214844e-01
-2.291894257068634033e-01
3.811657428741455078e-01
1.595555688254535198e-03
1.390463788993656635e-03
-4.319494962692260742e-01
-1.580598801374435425e-01
-3.989704698324203491e-02
1.399615546688437462e-03
-2.801946103572845459e-01
-1.378552988171577454e-03
-1.385398558340966702e-03
7.487477734684944153e-03
7.516273856163024902e-01
-3.820396661758422852e-01
4.408556520938873291e-01
-4.817761182785034180e-01
2.980017662048339844e-01
-1.380200614221394062e-03
-2.292314730584621429e-02
-7.285442203283309937e-02
5.067059770226478577e-02
-7.400901913642883301e-01
-1.394613413140177727e-03
4.506468772888183594e-02
-4.952305182814598083e-02
1.381837995722889900e-03
1.272347755730152130e-02
1.390190212987363338e-03
1.388005912303924561e-03
1.515847281552851200e-03
3.180985152721405029e-02
1.186324879527091980e-01
1.389274024404585361e-03
-4.549991339445114136e-02
4.773195683956146240e-01
-1.387752708978950977e-03
-1.386137446388602257e-03
1.421770430169999599e-03
-4.506468772888183594e-02
-4.319494962692260742e-01
1.818882673978805542e-01
-2.425005733966827393e-01
-1.404652721248567104e-03
1.383022521622478962e-03
-3.425725270062685013e-03
1.388077042065560818e-03
-1.438008388504385948e-03
1.391495461575686932e-03
-5.125109553337097168e-01
-4.476118385791778564e-01
-4.811115860939025879e-01
-4.539903998374938965e-01
1.252276450395584106e-01
2.431081533432006836e-01
1.384742790833115578e-03
-1.380164525471627712e-03
2.735272515565156937e-03
-1.388381933793425560e-03
1.410713884979486465e-03
1.387642463669180870e-03
-1.425439608283340931e-03
1.389298122376203537e-03
1.385505311191082001e-03
-3.144417703151702881e-01
-3.349121212959289551e-01
-9.530260413885116577e-02
6.051391363143920898e-01
-6.008961200714111328e-01
1.383075141347944736e-03
1.395011553540825844e-03
1.809713058173656464e-02
-7.431386411190032959e-02
-5.358183011412620544e-02
1.388748642057180405e-03
-8.189224004745483398e-01
-1.410607364960014820e-03
-1.389287994243204594e-03
3.820396661758422852e-01
-1.521040797233581543e+00
-1.689087413251399994e-02
5.840224027633666992e-01
2.760415673255920410e-01
5.116832852363586426e-01
-1.391159021295607090e-03
-1.372280996292829514e-03
1.388306845910847187e-03
-1.255233883857727051e-01
-1.435812446288764477e-03
1.383506809361279011e-03
-3.717613518238067627e-01
-3.938085138797760010e-01
3.050799071788787842e-01
1.395849394612014294e-03
8.429431915283203125e-02
5.171507224440574646e-02
2.656457126140594482e-01
-1.388399396091699600e-03
-1.378430053591728210e-03
-3.822910487651824951e-01
3.851578533649444580e-01
1.387706492096185684e-03
-5.169999003410339355e-01
-1.387655851431190968e-03
-4.565508961677551270e-01
4.326045885682106018e-02
-1.388823729939758778e-03
-1.387367374263703823e-03
-1.402768539264798164e-03
-1.384161296300590038e-03
1.390251680277287960e-03
2.300284570083022118e-03
-1.409288495779037476e-03
-7.543139457702636719e-01
5.527266860008239746e-01
-1.394727150909602642e-03
1.384370378218591213e-03
-5.171507224440574646e-02
2.399471960961818695e-02
-1.397243817336857319e-03
1.384325558319687843e-03
5.171507224440574646e-02
-1.764499694108963013e-01
8.745226077735424042e-03
-1.670076727867126465e+00
-3.303915560245513916e-01
8.281776905059814453e-01
-1.616929322481155396e-01
1.482760071754455566e+00
1.398380263708531857e-03
1.391452155075967312e-03
-4.030328616499900818e-02
-1.928138732910156250e-01
2.767237722873687744e-01
-1.382264890708029270e-03
1.387956435792148113e-03
-1.394540304318070412e-03
-2.783697545528411865e-01
-6.308934092521667480e-02
-5.218030884861946106e-02
7.519648969173431396e-02
-1.389796379953622818e-03
-1.432907069101929665e-03
1.390657853335142136e-03
-1.395695842802524567e-03
-1.385901821777224541e-03
5.861789919435977936e-03
-3.426002860069274902e-01
2.601630389690399170e-01
1.388037344440817833e-03
-2.138645887374877930e+00
1.413365243934094906e-03
1.384592032991349697e-03
-1.380318193696439266e-03
-1.582919247448444366e-02
-1.392198028042912483e-03
1.809713058173656464e-02
-1.395776169374585152e-03
7.891547083854675293e-01
-5.210820585489273071e-02
-1.390318502672016621e-03
1.400906243361532688e-03
1.553198248147964478e-01
1.396033680066466331e-03
1.414151629433035851e-03
1.570749431848526001e-01
1.384616480208933353e-03
-1.513342279940843582e-02
1.295435726642608643e-01
-3.898561596870422363e-01
-1.392992679029703140e-03
-1.384682022035121918e-03
-1.389145152643322945e-03
-1.506456756033003330e-03
-2.112989723682403564e-01
-1.529925270006060600e-03
-1.393919810652732849e-03
-1.382952323183417320e-03
2.291894257068634033e-01
1.399414031766355038e-03
-1.391010591760277748e-03
4.610477685928344727e-01
1.385686104185879230e-03
-1.286477088928222656e+00
-1.384481438435614109e-03
-5.478880405426025391e-01
1.379505032673478127e-03
5.861789919435977936e-03
-1.409326796419918537e-03
1.396171050146222115e-03
1.388785894960165024e-03
-1.633043400943279266e-02
-1.410110038705170155e-03
5.611388683319091797e-01
-4.798691570758819580e-01
-4.665865600109100342e-01
1.410122262313961983e-03
5.937072634696960449e-01
-1.383940689265727997e-03
-1.379616209305822849e-03
-4.361122846603393555e-01
-5.144392848014831543e-01
8.015967011451721191e-01
3.702820539474487305e-01
-9.149404168128967285e-01
-1.461531501263380051e-03
5.101461410522460938e-01
-1.390833756886422634e-03
1.392919803038239479e-03
5.749033764004707336e-02
5.660922527313232422e-01
-1.480783075094223022e-01
-1.381127513013780117e-03
4.467087984085083008e-01
7.512326240539550781e-01
-1.390501856803894043e-03
2.655361779034137726e-02
5.529218167066574097e-02
1.254581451416015625e+00
-1.397999003529548645e-03
-3.870356976985931396e-01
-1.385665731504559517e-03
1.389132230542600155e-03
7.487477734684944153e-03
1.382598420605063438e-03
2.243208885192871094e-02
1.451672054827213287e-03
1.421244582161307335e-03
1.384160132147371769e-03
1.384987961500883102e-03
3.860724568367004395e-01
-1.389744924381375313e-03
-1.410296885296702385e-03
-4.300183057785034180e-01
-2.831802330911159515e-02
1.384207862429320812e-03
1.393664628267288208e-03
1.405924558639526367e-03
1.040881872177124023e-01
-1.386826625093817711e-03
1.385514042340219021e-03
6.602038145065307617e-01
2.576791346073150635e-01
-7.566541433334350586e-03
1.386799034662544727e-03
1.388948294334113598e-03
-1.349017675966024399e-02
1.387335127219557762e-03
-2.642057090997695923e-02
-1.392491743899881840e-03
4.892302751541137695e-01
1.386267365887761116e-03
3.941799402236938477e-01
1.380352303385734558e-03
1.394613413140177727e-03
1.823112815618515015e-01
2.402358874678611755e-02
1.387512311339378357e-03
2.464283555746078491e-01
-1.768876612186431885e-01
6.066944822669029236e-02
6.107318997383117676e-01
2.083490490913391113e-01
-4.251573607325553894e-02
-2.181500345468521118e-01
2.001224607229232788e-01
1.349241018295288086e+00
-1.388762611895799637e-03
1.505523803643882275e-03
8.161491155624389648e-01
1.876287744380533695e-03
1.394065329805016518e-03
-1.393070560880005360e-03
2.872516810894012451e-01
2.749070227146148682e-01
-1.379437162540853024e-03
2.601945400238037109e-01
1.167862713336944580e-01
-3.903765380382537842e-01
-2.642057090997695923e-02
4.245548844337463379e-01
1.391751575283706188e-03
-1.411427860148251057e-03
-2.464967072010040283e-01
1.197767909616231918e-02
2.243208885192871094e-02
1.390824676491320133e-03
-3.066742122173309326e-01
1.419763430021703243e-03
1.391824684105813503e-03
5.343892574310302734e-01
-1.394705031998455524e-03
1.866444647312164307e-01
3.931225836277008057e-01
-5.210097432136535645e-01
2.749696373939514160e-01
-1.384273055009543896e-03
-3.857219815254211426e-01
-1.447307467460632324e-01
1.547251641750335693e-01
-3.093003928661346436e-01
1.382990740239620209e-03
3.432156145572662354e-02
-1.390161458402872086e-03
-1.379059394821524620e-03
1.402191235683858395e-03
4.084160029888153076e-01
1.400494365952908993e-03
3.144417703151702881e-01
1.391677185893058777e-03
1.486454159021377563e-02
1.392548787407577038e-03
1.300071179866790771e-01
1.384103437885642052e-03
-4.251573607325553894e-02
-1.386168878525495529e-03
1.392156700603663921e-03
-2.083490490913391113e-01
6.419711709022521973e-01
3.534393012523651123e-01
1.444106455892324448e-03
9.739898145198822021e-02
-4.373553693294525146e-01
1.395389321260154247e-03
1.391623867675662041e-03
-4.922867417335510254e-01
2.451536245644092560e-03
-1.392963225953280926e-03
-1.387427677400410175e-03
1.447967020794749260e-03
1.392177771776914597e-03
3.647241890430450439e-01
5.877775549888610840e-01
-1.383740804158151150e-03
1.376323169097304344e-03
2.003122121095657349e-01
-7.043069601058959961e-02
1.389994286000728607e-03
-1.386266434565186501e-03
-1.305988878011703491e-01
-1.381700858473777771e-03
6.637036800384521484e-01
-5.418760776519775391e-01
7.641656398773193359e-01
-2.487772852182388306e-01
5.095356330275535583e-02
1.381417969241738319e-03
1.397945568896830082e-03
-2.399471960961818695e-02
1.415935112163424492e-03
1.388622913509607315e-03
1.387385185807943344e-03
-1.392156700603663921e-03
-7.895952090620994568e-03
-1.390393357723951340e-03
1.390557736158370972e-03
9.004056453704833984e-01
1.387533382512629032e-03
1.371909398585557938e-03
-1.395831350237131119e-03
5.027493238449096680e-01
6.627711057662963867e-01
-1.387250958941876888e-03
2.470063744112849236e-03
-1.393102924339473248e-03
-4.677476584911346436e-01
1.388264703564345837e-03
-1.413893580436706543e+00
4.874949753284454346e-01
1.104201376438140869e-02
1.376167056150734425e-03
-3.461334109306335449e-01
-1.410156837664544582e-03
1.509969239123165607e-03
-3.551452755928039551e-01
6.651102900505065918e-01
-7.867606356739997864e-03
-1.844558268785476685e-01
5.776067972183227539e-01
1.386051648296415806e-03
1.879688934423029423e-03
-9.721579961478710175e-03
1.390691380947828293e-03
-1.381967798806726933e-03
1.384215778671205044e-03
2.519579231739044189e-02
-1.383043127134442329e-03
-1.391281839460134506e-03
3.271445631980895996e-02
-1.196946110576391220e-02
3.534480333328247070e-01
1.465534092858433723e-03
1.385029172524809837e-03
8.716229796409606934e-01
1.768876612186431885e-01
-1.650275737047195435e-01
-1.379631343297660351e-03
1.393655315041542053e-03
1.384820207022130489e-03
-1.382249756716191769e-03
-1.396278385072946548e-03
-3.298396710306406021e-03
1.389481243677437305e-03
1.385864219628274441e-03
1.383880502544343472e-03
-1.290642857551574707e+00
-1.391987898387014866e-03
-1.381853944621980190e-03
1.493575517088174820e-03
1.493575517088174820e-03
7.388766407966613770e-01
-2.937301099300384521e-01
-1.460319850593805313e-03
-8.214493840932846069e-02
-7.232112884521484375e-01
1.386862481012940407e-03
1.379310851916670799e-03
-1.386457937769591808e-03
-6.602194905281066895e-01
1.384310307912528515e-03
1.379870227538049221e-03
1.603689551353454590e+00
1.386811840347945690e-03
-1.396863954141736031e-03
1.384476781822741032e-03
1.781720161437988281e+00
3.962825834751129150e-01
-1.397301093675196171e-03
-1.408871612511575222e-03
-9.255593270063400269e-02
-1.403618371114134789e-03
1.388997770845890045e-03
-1.378849614411592484e-03
-1.386739080771803856e-03
1.386471558362245560e-03
-6.527351737022399902e-01
-7.510330080986022949e-01
5.529218167066574097e-02
-1.388375298120081425e-03
1.382467220537364483e-03
1.393855549395084381e-03
1.389878802001476288e-03
-3.095432221889495850e-01
1.390732941217720509e-03
-1.381751848384737968e-03
1.403444912284612656e-03
2.360304072499275208e-02
-1.383952912874519825e-03
-1.376961823552846909e-03
-1.411153119988739491e-03
1.796772703528404236e-02
1.392037142068147659e-03
1.393969636410474777e-03
-7.576375603675842285e-01
4.996443986892700195e-01
-1.061862930655479431e-01
-3.844802975654602051e-01
5.463881492614746094e-01
-1.061862930655479431e-01
1.073431521654129028e-01
-1.394004211761057377e-03
1.398079912178218365e-03
3.812960088253021240e-01
-3.926578760147094727e-01
1.457413099706172943e-02
4.778592288494110107e-02
-2.954882010817527771e-02
6.270118355751037598e-01
-5.422159433364868164e-01
-1.380516914650797844e-03
4.599030315876007080e-01
4.217673838138580322e-01
1.394125050865113735e-03
-4.491546452045440674e-01
-2.351095825433731079e-01
-1.398236025124788284e-03
5.599092245101928711e-01
-1.389497541822493076e-03
-1.399166998453438282e-03
1.782408449798822403e-03
-8.766113966703414917e-02
-3.943581581115722656e-01
-1.386565389111638069e-03
1.389120705425739288e-03
4.753165841102600098e-01
-1.394021674059331417e-03
-6.155220791697502136e-02
-1.389887765981256962e-03
-1.388396252878010273e-03
3.963686823844909668e-01
1.420798711478710175e-03
1.792337745428085327e-01
-1.210668683052062988e-01
1.390098826959729195e-03
-1.381773618049919605e-03
-3.116669356822967529e-01
1.266959938220679760e-03
-1.378229819238185883e-03
1.181884407997131348e+00
1.387816271744668484e-03
-2.828911244869232178e-01
2.519579231739044189e-02
-7.454583644866943359e-01
1.014860346913337708e-02
-1.384481438435614109e-03
-1.386310905218124390e-03
8.625057935714721680e-01
2.441561967134475708e-02
1.386481453664600849e-03
-1.381784095428884029e-03
1.399009604938328266e-03
1.384968403726816177e-03
7.705501317977905273e-01
-1.394681166857481003e-03
1.387342344969511032e-03
3.919073343276977539e-01
8.625057935714721680e-01
-1.386819407343864441e-03
8.009331673383712769e-02
7.460730075836181641e-01
1.393244368955492973e-03
1.760848283767700195e+00
1.396781299263238907e-03
1.265136361122131348e+00
1.914929747581481934e-01
-1.381242764182388783e-03
2.001224607229232788e-01
1.490335464477539062e-01
-1.438007806427776814e-03
1.384431147016584873e-03
-6.963738054037094116e-02
1.441720291040837765e-03
-5.556368231773376465e-01
-1.383987837471067905e-03
-1.418402884155511856e-03
-1.386820804327726364e-03
-2.827223837375640869e-01
1.715777069330215454e-01
1.395003055222332478e-03
-4.068337082862854004e-01
-9.735473394393920898e-01
-5.677118152379989624e-02
1.391961122862994671e-03
-3.214138746261596680e-01
3.024898767471313477e-01
1.393175683915615082e-03
-1.378179062157869339e-03
1.505790976807475090e-03
2.173849046230316162e-01
-5.677118152379989624e-02
1.397448359057307243e-03
7.151982188224792480e-01
-1.390594989061355591e-03
-1.391253471374511719e-01
-5.792936682701110840e-02
9.916546195745468140e-02
-1.377670094370841980e-03
-1.632572859525680542e-01
2.896157093346118927e-02
1.386711490340530872e-03
3.963957428932189941e-01
1.452584401704370975e-03
3.043979406356811523e-01
1.393636106513440609e-03
5.102049708366394043e-01
-1.396535080857574940e-03
-2.804925432428717613e-03
4.277762770652770996e-01
1.391460071317851543e-03
-2.519579231739044189e-02
-1.369237899780273438e-01
3.131027519702911377e-01
-8.887754082679748535e-01
1.498485058546066284e-01
1.138983517885208130e-01
1.380845322273671627e-03
-1.395381754264235497e-03
6.517682671546936035e-01
-2.556550502777099609e-01
1.386626157909631729e-03
1.395280718803405762e+00
-1.391981495544314384e-03
-1.225328743457794189e-01
1.382608083076775074e-03
-1.619376591406762600e-03
1.394864055328071117e-03
1.938690543174743652e-01
-1.387632219120860100e-03
1.379091758280992508e-03
-1.394479768350720406e-03
-8.669658005237579346e-02
-1.409491873346269131e-03
7.335811257362365723e-01
1.395254861563444138e-03
3.517940640449523926e-01
-1.374811516143381596e-03
-1.397329615429043770e-03
1.493410207331180573e-02
2.441723346710205078e-01
5.171507224440574646e-02
7.022657245397567749e-02
4.547941088676452637e-01
1.381867681629955769e-03
-1.405390794388949871e-03
-1.378883956931531429e-03
-2.539800107479095459e-01
6.433643698692321777e-01
-1.513342279940843582e-02
-1.396664883941411972e-03
-7.261183261871337891e-01
1.389624085277318954e-03
1.390218967571854591e-03
-1.356356382369995117e+00
-5.030454993247985840e-01
1.390897668898105621e-03
1.389863318763673306e-03
-2.719651907682418823e-02
-9.543625712394714355e-01
3.090313076972961426e-01
-1.387083902955055237e-03
4.207872152328491211e-01
9.414328932762145996e-01
-2.579478314146399498e-03
1.378466375172138214e-03
5.265787839889526367e-01
1.388388685882091522e-03
-1.388003001920878887e-03
-1.388629083521664143e-03
4.914038628339767456e-02
-1.385332434438169003e-03
-1.389930257573723793e-03
-1.387192518450319767e-03
-2.719651907682418823e-02
1.394305494613945484e-03
3.657840192317962646e-01
1.388663193210959435e-03
-3.130204081535339355e-01
2.290193689987063408e-03
-1.402570633217692375e-03
-1.376444473862648010e-03
-1.391711994074285030e-03
2.676251232624053955e-01
1.399690285325050354e-03
1.388360746204853058e-03
-1.388966105878353119e-03
1.385954674333333969e-03
-7.878538221120834351e-03
-1.385885407216846943e-03
1.387628843076527119e-03
-1.388458185829222202e-03
-1.393589773215353489e-03
-1.380229718051850796e-03
1.386695774272084236e-03
-1.413942081853747368e-03
-1.382071990519762039e-03
-1.390449469909071922e-03
-1.122879624366760254e+00
1.381880138069391251e-03
-4.319494962692260742e-01
2.877481579780578613e-01
-3.402421995997428894e-02
-1.391028054058551788e-03
-1.390145625919103622e-03
1.294841989874839783e-02
1.380232861265540123e-03
1.399387256242334843e-03
-4.073867499828338623e-01
1.381602487526834011e-03
3.808724284172058105e-01
-3.706658780574798584e-01
5.637577176094055176e-01
-7.883708477020263672e-01
1.526330113410949707e-01
-1.389590324833989143e-03
4.124923050403594971e-01
1.385709038004279137e-03
-7.870941422879695892e-03
1.440318487584590912e-02
-1.378946239128708839e-03
2.291485108435153961e-02
1.474739518016576767e-03
-4.508994985371828079e-03
-1.111135259270668030e-02
2.019865959882736206e-01
-1.383773633278906345e-03
-3.956759870052337646e-01
1.389427925460040569e-03
6.441038250923156738e-01
1.752155125141143799e-01
-7.049649953842163086e-01
-1.381809241138398647e-03
3.649225831031799316e-01
8.183861523866653442e-02
-9.734729528427124023e-01
1.746515929698944092e-01
-3.418031036853790283e-01
-1.388328149914741516e-03
1.389870420098304749e-03
-3.499498367309570312e-01
1.384927891194820404e-03
-1.391863683238625526e-03
-1.392556936480104923e-03
1.392188714817166328e-03
-5.005614459514617920e-02
-1.416043727658689022e-03
1.390816527418792248e-03
-5.752098560333251953e-01
-1.397059531882405281e-03
-1.801800131797790527e-01
-1.375884865410625935e-03
5.999826788902282715e-01
1.403915643692016602e+00
1.474739518016576767e-03
1.391005702316761017e-03
-1.380995963700115681e-03
-1.394205610267817974e-03
4.597077611833810806e-03
-1.394259277731180191e-03
9.148167967796325684e-01
1.409364398568868637e-03
-1.388060394674539566e-03
3.106063306331634521e-01
-1.105237938463687897e-02
-8.208988606929779053e-02
1.380362664349377155e-03
-1.282899022102355957e+00
5.355603098869323730e-01
-1.383069320581853390e-03
-1.388229778967797756e-03
-1.959665417671203613e-01
-9.297292828559875488e-01
5.040008947253227234e-02
3.090313076972961426e-01
1.570749431848526001e-01
-1.395234721712768078e-03
4.394987523555755615e-01
1.385348150506615639e-03
4.296741187572479248e-01
-1.385340350680053234e-03
1.380441593937575817e-03
-1.390098477713763714e-03
-1.390377641655504704e-03
1.876287744380533695e-03
3.824889957904815674e-01
-1.393801067024469376e-03
1.395623548887670040e-03
-1.390846446156501770e-03
2.739652693271636963e-01
1.443458022549748421e-03
-8.861651271581649780e-02
1.391942845657467842e-03
-5.358183011412620544e-02
3.879323005676269531e-01
-4.084336459636688232e-01
1.382578630000352859e-03
1.365823671221733093e-03
1.382168615236878395e-03
-1.356708556413650513e-01
-1.379814348183572292e-03
1.392990816384553909e-03
-4.601635411381721497e-02
-2.166778780519962311e-03
-2.367281913757324219e-01
1.400143723003566265e-03
-3.969072103500366211e-01
5.069203972816467285e-01
5.902079939842224121e-01
-1.393654150888323784e-03
9.236869812011718750e-01
-1.105392649769783020e-01
-2.389042172580957413e-03
-1.387053402140736580e-03
-3.818491399288177490e-01
-1.383196213282644749e-03
6.626166105270385742e-01
-2.027097046375274658e-01
-5.800122618675231934e-01
1.386968768201768398e-03
-1.385476905852556229e-03
1.985889524221420288e-01
-4.065632224082946777e-01
-1.386285293847322464e-03
-2.801946103572845459e-01
3.474959731101989746e-01
1.386750955134630203e-03
3.367866575717926025e-02
-3.004431724548339844e-01
1.386637799441814423e-03
-1.400891691446304321e-03
-1.349017675966024399e-02
4.864485561847686768e-01
-1.536182011477649212e-03
1.390250981785356998e-03
1.401644665747880936e-03
1.383109833113849163e-03
-1.389359240420162678e-03
-1.665911972522735596e-01
1.388112199492752552e-03
1.384450006298720837e-03
-1.373662729747593403e-03
9.133868664503097534e-02
-3.814038336277008057e-01
-4.735808372497558594e-01
-6.554874777793884277e-01
2.754565887153148651e-02
1.397046726197004318e-03
-1.388837117701768875e-03
5.624329447746276855e-01
1.382818212732672691e-03
1.390587771311402321e-03
-2.579361796379089355e-01
1.393846818245947361e-03
-1.666318508796393871e-03
1.926029324531555176e-01
-1.420843764208257198e-03
1.393847051076591015e-03
6.602194905281066895e-01
1.394702470861375332e-03
2.668963968753814697e-01
-2.210580371320247650e-02
-1.294841989874839783e-02
-1.761241436004638672e+00
-1.831240765750408173e-02
9.021052122116088867e-01
-1.386575517244637012e-03
1.389984507113695145e-03
-1.402354100719094276e-03
1.405548304319381714e-03
-1.387665164656937122e-03
1.246411912143230438e-02
-3.781248256564140320e-02
-1.387449214234948158e-03
-1.200888976454734802e-01
1.380768953822553158e-03
3.504025936126708984e-01
-5.619595944881439209e-02
-7.660919334739446640e-03
1.391538302414119244e-03
1.396861625835299492e-03
1.831240765750408173e-02
-3.854521214962005615e-01
1.384076080285012722e-03
-1.378226210363209248e-03
-6.833002567291259766e-01
4.232715964317321777e-01
1.598718643188476562e+00
1.386915100738406181e-03
1.498916625976562500e+00
1.384799368679523468e-03
-3.289433717727661133e-01
1.942129254341125488e+00
3.962825834751129150e-01
1.420835614204406738e+00
-1.387257943861186504e-03
-3.311544656753540039e-01
-6.352557539939880371e-01
-5.829182267189025879e-02
1.384861534461379051e-03
-1.405964732170104980e+00
3.864052593708038330e-01
-7.456162571907043457e-02
1.385595533065497875e-03
7.739568352699279785e-01
-1.416093087755143642e-03
1.398118329234421253e-03
1.381955225951969624e-03
1.764957159757614136e-01
1.487702829763293266e-03
2.754565887153148651e-02
3.958113491535186768e-01
1.395111321471631527e-03
-1.384512055665254593e-03
-3.198931515216827393e-01
1.391074038110673428e-03
4.249658584594726562e-01
1.391355181112885475e-03
-1.135378837585449219e+00
3.732717633247375488e-01
-3.514379262924194336e-01
-1.238675341010093689e-01
7.938871383666992188e-01
1.742648035287857056e-01
-1.394183258526027203e-03
1.382588874548673630e-03
1.394794089719653130e-03
1.402426860295236111e-03
1.227612257003784180e+00
1.386814750730991364e-03
-1.388834789395332336e-03
5.915337204933166504e-01
-1.474739518016576767e-03
1.387921278364956379e-03
-1.399301690980792046e-03
-1.387019641697406769e-03
-1.385061186738312244e-03
1.500572427175939083e-03
-4.094485938549041748e-01
-1.978817701339721680e+00
-1.382592367008328438e-03
-8.119345456361770630e-02
1.738307356834411621e+00
1.383593189530074596e-03
4.977649152278900146e-01
-3.586512804031372070e-01
-2.754565887153148651e-02
1.397728337906301022e-03
-1.395184663124382496e-03
4.000040590763092041e-01
1.399344764649868011e-03
1.457413099706172943e-02
-1.224255072884261608e-03
-2.705051898956298828e-01
-1.386629068292677402e-03
1.419155159965157509e-03
4.610477685928344727e-01
-1.793164014816284180e-02
1.382550457492470741e-03
-5.957910418510437012e-02
2.176988869905471802e-02
2.819553017616271973e-01
1.379433670081198215e-03
1.394979772157967091e-03
1.391560421325266361e-03
-1.891322612762451172e+00
-1.463046879507601261e-03
-1.397733576595783234e-03
-1.385654439218342304e-03
-1.380952890031039715e-03
1.391263795085251331e-03
-1.392115373164415359e-03
-2.097749710083007812e-02
1.383521594107151031e-03
-1.384393894113600254e-03
2.944983914494514465e-02
1.104201376438140869e-02
3.849240839481353760e-01
1.392901758663356304e-03
-9.801243990659713745e-02
2.668963968753814697e-01
-5.995585322380065918e-01
1.386038260534405708e-03
-1.399508910253643990e-03
1.385885174386203289e-03
-2.654097378253936768e-01
4.277762770652770996e-01
-1.387017546221613884e-03
-1.203157193958759308e-02
-1.383884809911251068e-03
-5.813561752438545227e-02
2.656457126140594482e-01
1.382270478643476963e-03
1.384955015964806080e-03
6.155220791697502136e-02
-1.416477607563138008e-03
4.110547006130218506e-01
-1.385273993946611881e-03
-1.385225681588053703e-03
-1.383087947033345699e-03
-3.161547780036926270e-01
-4.850469827651977539e-01
1.396130886860191822e-03
1.383597031235694885e-03
-1.530043244361877441e+00
5.155150890350341797e-01
1.712027238681912422e-03
-1.382647752761840820e+00
-1.384477363899350166e-03
1.379009336233139038e-03
9.043415784835815430e-01
2.380910217761993408e-01
3.201210200786590576e-01
5.891859531402587891e-01
1.105237938463687897e-02
-1.249463796615600586e+00
-8.836446404457092285e-01
3.818491399288177490e-01
-1.389575772918760777e-03
-3.449330329895019531e-01
-1.400293316692113876e-03
-1.375357736833393574e-03
6.882222294807434082e-01
1.386463525705039501e-03
-1.391273690387606621e-03
6.255905628204345703e-01
1.398237654939293861e-03
-1.391922705806791782e-03
-1.935881935060024261e-02
1.387737342156469822e-03
-1.385214272886514664e-03
-1.384716597385704517e-03
-2.554071135818958282e-03
2.832004241645336151e-02
-6.979755759239196777e-01
-1.400187145918607712e-03
-1.765889376401901245e-01
1.941637396812438965e-01
1.877445541322231293e-02
-6.438676118850708008e-01
2.097749710083007812e-02
-1.384622999466955662e-03
7.132056951522827148e-01
-1.369490055367350578e-03
2.678595185279846191e-01
1.385485520586371422e-03
1.410751719959080219e-03
1.391921541653573513e-03
-1.217587664723396301e-01
1.392593607306480408e-03
-1.384315313771367073e-03
1.383143244311213493e-03
-5.096877738833427429e-02
1.395360217429697514e-03
-1.379511668346822262e-03
8.577502965927124023e-01
8.456946909427642822e-02
1.261866807937622070e+00
-2.750422954559326172e-01
3.524549901485443115e-01
-1.001497030258178711e+00
1.382776303216814995e-03
1.395173952914774418e-03
-1.386499498039484024e-03
-7.135482430458068848e-01
1.636456608772277832e+00
2.680399082601070404e-02
1.386390649713575840e-03
-1.392045523971319199e-03
5.820071697235107422e-01
-1.391432946547865868e-03
-1.388889271765947342e-03
-5.552315711975097656e-01
1.387209049426019192e-03
7.436614036560058594e-01
-2.873171307146549225e-02
1.637540340423583984e+00
1.381871756166219711e-03
4.876129031181335449e-01
1.379877794533967972e-03
-1.391376485116779804e-03
-1.385952113196253777e-03
-1.386271324008703232e-03
1.402694615535438061e-03
-1.385521725751459599e-03
-1.505790976807475090e-03
5.221990123391151428e-02
-1.285049468278884888e-01
-3.962825834751129150e-01
-3.823399543762207031e-01
-1.386658754199743271e-03
1.384965144097805023e-03
1.388952136039733887e-03
-6.521623730659484863e-01
-1.387288211844861507e-03
-1.026543751358985901e-01
-1.381990849040448666e-03
1.384441973641514778e-03
1.393988495692610741e-03
1.382612972520291805e-03
1.396233565174043179e-03
-6.528360843658447266e-01
-1.387330703437328339e-03
1.398545340634882450e-03
1.385516370646655560e-03
-6.499667651951313019e-03
-1.379258232191205025e-03
-9.112114906311035156e-01
5.122769474983215332e-01
-6.310574244707822800e-03
1.880476236343383789e+00
2.670987844467163086e-01
-4.209105968475341797e-01
-1.386635121889412403e-03
7.047516107559204102e-01
4.242691025137901306e-02
1.416780203580856323e-01
-2.601945400238037109e-01
-3.933919370174407959e-01
-1.242686510086059570e+00
3.534460365772247314e-01
5.928270816802978516e-01
1.392541453242301941e-03
-2.555927038192749023e-01
-1.392153790220618248e-03
3.103850595653057098e-02
-1.379666500724852085e-03
-1.386972493492066860e-03
-1.381443929858505726e-03
2.100484212860465050e-03
1.389526878483593464e-03
3.927582204341888428e-01
1.414633123204112053e-03
-5.687982216477394104e-02
-3.960757851600646973e-01
-3.892935514450073242e-01
1.409519230946898460e-03
-9.297850192524492741e-04
7.896553277969360352e-01
1.393298734910786152e-03
1.895597726106643677e-01
1.390756224282085896e-03
-1.167752981185913086e+00
8.123026043176651001e-02
3.046064972877502441e-01
1.394985709339380264e-03
8.933270573616027832e-01
-1.389380544424057007e-03
-4.209105968475341797e-01
-2.540338933467864990e-01
-1.378395245410501957e-03
-1.391979167237877846e-03
1.393749378621578217e-03
-1.387822907418012619e-03
1.391737605445086956e-03
-1.391915138810873032e-03
-1.396912033669650555e-03
1.389820594340562820e-03
1.379612949676811695e-03
1.422369387000799179e-03
-1.388928852975368500e-03
1.385104609653353691e-03
2.668963968753814697e-01
2.834412083029747009e-02
-8.045570850372314453e-01
1.382885384373366833e-03
3.604329749941825867e-02
1.381601905450224876e-03
-1.378439483232796192e-03
1.381934271194040775e-03
-1.379297231324017048e-03
1.388791482895612717e-03
-1.829713955521583557e-02
1.389572862535715103e-03
5.210820585489273071e-02
1.234056800603866577e-01
3.967885673046112061e-01
-1.388077856972813606e-03
1.861086040735244751e-01
1.526119560003280640e-01
1.390241435728967190e-03
-5.568296909332275391e-01
-3.081292212009429932e-01
2.629499882459640503e-02
1.474900753237307072e-03
7.332725524902343750e-01
1.551224589347839355e-01
4.379814490675926208e-02
-2.166582345962524414e-01
1.383131602779030800e-03
-1.386179705150425434e-03
-3.935694992542266846e-01
1.002754807472229004e+00
1.664108037948608398e-02
-1.746295392513275146e-02
1.058944128453731537e-02
-1.394502469338476658e-03
-5.024511367082595825e-02
-1.384229981340467930e-03
4.387414753437042236e-01
1.491837552748620510e-03
1.389826415106654167e-03
1.391269965097308159e-03
-4.364461600780487061e-01
-1.419142819941043854e-03
-1.246411912143230438e-02
1.394131686538457870e-03
1.401832909323275089e-03
-1.246636629104614258e+00
1.401989487931132317e-03
-2.231782972812652588e-01
2.132475525140762329e-01
3.934651315212249756e-01
1.381658948957920074e-03
-1.393381156958639622e-03
1.117937922477722168e+00
1.706707663834095001e-02
1.388985547237098217e-03
1.405457733199000359e-03
-1.387160737067461014e-03
1.255233883857727051e-01
4.440667927265167236e-01
1.391052268445491791e-03
1.189958572387695312e+00
4.688457846641540527e-01
-1.386802177876234055e-03
1.040734291076660156e+00
7.572339475154876709e-02
1.378035289235413074e-03
3.891464769840240479e-01
4.680549502372741699e-01
-1.379622030071914196e-03
1.390506862662732601e-03
-1.474297940731048584e-01
-3.962825834751129150e-01
-3.508766889572143555e-01
-1.432907069101929665e-03
-5.575266480445861816e-01
-7.055971771478652954e-03
-1.387297874316573143e-03
-3.212415277957916260e-01
4.892824888229370117e-01
1.300071179866790771e-01
4.981637001037597656e-01
6.379831433296203613e-01
-1.384286559186875820e-03
-2.368005216121673584e-01
-8.988624811172485352e-01
-2.754565887153148651e-02
-1.385610667057335377e-03
-8.962621688842773438e-01
8.326249718666076660e-01
3.872582316398620605e-01
4.393831491470336914e-01
-1.103208422660827637e+00
1.379051245748996735e-03
1.410894328728318214e-03
1.357824075967073441e-03
-1.388536766171455383e-03
-2.964208126068115234e-01
-5.139040350914001465e-01
2.029799669981002808e-02
3.933919370174407959e-01
-1.436636666767299175e-03
-1.347860437817871571e-03
-5.687825083732604980e-01
-4.580279886722564697e-01
-1.391573459841310978e-03
1.461995998397469521e-03
2.672004103660583496e-01
-1.382102607749402523e-03
-1.392580219544470310e-03
1.392428064718842506e-03
-2.329172194004058838e-01
2.198614645749330521e-03
-1.392297679558396339e-03
-2.582450397312641144e-03
1.413709600456058979e-03
1.433246419765055180e-03
4.366249442100524902e-01
1.394763821735978127e-03
-1.383713446557521820e-03
-1.396336010657250881e-03
-2.574907839298248291e-01
1.386022311635315418e-03
1.383573398925364017e-03
3.941920697689056396e-01
-5.450880527496337891e-01
-1.391344470903277397e-03
3.964213430881500244e-01
-6.025188565254211426e-01
1.405356219038367271e-03
1.967015676200389862e-03
1.389017910696566105e-03
1.397595740854740143e-03
1.366320182569324970e-03
-3.126403689384460449e-01
1.412148703821003437e-03
-3.364089131355285645e-01
1.379105146043002605e-03
1.831914931535720825e-01
-5.491603016853332520e-01
1.386349322274327278e-03
-1.392288249917328358e-03
-2.046392764896154404e-03
-1.393440179526805878e-03
8.460705876350402832e-01
-7.878538221120834351e-03
1.392650301568210125e-03
-1.390905235894024372e-03
-1.388659700751304626e-03
-1.382453017868101597e-03
4.750796854496002197e-01
1.384417526423931122e-03
-5.143128633499145508e-01
-2.697657048702239990e-01
-1.393326674588024616e-03
1.380083034746348858e-03
3.921062648296356201e-01
-1.399551983922719955e-03
-4.952305182814598083e-02
1.384839415550231934e-03
-1.209258437156677246e-01
-1.381379086524248123e-03
1.380781759507954121e-03
3.754166886210441589e-02
1.378606539219617844e-03
3.244039416313171387e-01
-2.827239036560058594e-01
-5.364230871200561523e-01
-1.389534794725477695e-03
5.511350631713867188e-01
-9.375448524951934814e-02
-1.392717240378260612e-03
-1.382664893753826618e-03
-1.383840921334922314e-03
6.310574244707822800e-03
7.235156893730163574e-01
1.515505313873291016e-01
1.444958965294063091e-03
1.253349542617797852e+00
1.385984709486365318e-03
-4.073458313941955566e-01
5.199395418167114258e-01
6.726558320224285126e-03
-1.392567995935678482e-03
1.378609449602663517e-03
1.378849614411592484e-03
-1.392823178321123123e-03
1.386306597851216793e-03
1.379263703711330891e-03
2.727900445461273193e-01
-1.393343554809689522e-03
-3.941920697689056396e-01
8.152512907981872559e-01
1.377950655296444893e-03
-1.392165431752800941e-03
1.379698864184319973e-03
-3.989616632461547852e-01
-1.394157297909259796e-03
-1.381861511617898941e-03
-6.529719233512878418e-01
1.392425387166440487e-03
-8.260638117790222168e-01
3.067612349987030029e-01
4.082141909748315811e-03
-1.380698871798813343e-03
-1.392004778608679771e-03
-1.384193310514092445e-03
-5.671584010124206543e-01
2.663590572774410248e-02
7.512896656990051270e-01
-1.207579113543033600e-02
-3.269650042057037354e-01
-9.244772195816040039e-01
-6.438711881637573242e-01
-1.397421350702643394e-03
-1.387256314046680927e-03
1.390326651744544506e-03
-3.690813481807708740e-01
-1.391373574733734131e-03
3.987376391887664795e-01
-9.466884732246398926e-01
1.384921488352119923e-03
5.585736632347106934e-01
-1.582919247448444366e-02
-7.043069601058959961e-02
-1.388536766171455383e-03
1.327461600303649902e-01
-1.392597681842744350e-03
2.402358874678611755e-02
1.388021977618336678e-03
1.406685565598309040e-03
-1.233329996466636658e-03
-1.392452744767069817e-03
1.515847281552851200e-03
1.382057089358568192e-03
1.515847281552851200e-03
3.601509332656860352e-01
3.601926267147064209e-01
-1.396695734001696110e-03
-4.176033735275268555e-01
1.380804460495710373e-03
-1.394191640429198742e-03
1.058944128453731537e-02
1.381523674353957176e-03
6.787664443254470825e-02
7.713458538055419922e-01
3.654265105724334717e-01
1.200535967946052551e-01
1.349017675966024399e-02
-1.104201376438140869e-02
-7.650502324104309082e-01
-1.392562990076839924e-03
1.411390840075910091e-03
1.394085120409727097e-03
-9.715119004249572754e-01
1.383581547997891903e-03
1.383298193104565144e-03
-1.376330703496932983e-01
1.394471386447548866e-03
8.745226077735424042e-03
-1.392672420479357243e-03
1.410117605701088905e-03
1.393287442624568939e-03
2.835184037685394287e-01
-1.073431521654129028e-01
-2.251015752553939819e-01
3.857313096523284912e-02
-1.443944405764341354e-03
-1.392890466377139091e-03
-1.393516431562602520e-03
-1.474910415709018707e-03
-5.704582333564758301e-01
-1.395260333083570004e-03
2.955214381217956543e-01
-5.799070596694946289e-01
1.383555703796446323e-03
-1.392186386510729790e-03
-3.834265768527984619e-01
-1.409119344316422939e-03
1.397423679009079933e-03
1.395245781168341637e-03
-1.389528624713420868e-03
2.113371193408966064e-01
-1.384382019750773907e-03
8.280543684959411621e-01
1.418402884155511856e-03
-7.709811627864837646e-02
1.385219860821962357e-03
-8.817455768585205078e-01
2.173849046230316162e-01
-4.173043742775917053e-02
-1.392025733366608620e-03
-1.387291471473872662e-03
1.700766980648040771e-01
-1.401520916260778904e-03
5.232605338096618652e-01
1.383260823786258698e-03
-1.396845094859600067e-03
-4.598863422870635986e-01
1.378915738314390182e-03
1.386552816256880760e-03
1.397741492837667465e-03
1.403510454110801220e-03
1.390430610626935959e-03
-1.387904630973935127e-03
-1.355087035335600376e-03
1.972883343696594238e-01
-1.389518147334456444e-03
2.919100224971771240e-01
3.079348430037498474e-02
1.382622634992003441e-03
1.379198511131107807e-03
-3.853723406791687012e-01
1.388748059980571270e-03
-1.477675884962081909e-01
1.391951227560639381e-03
-8.441674113273620605e-01
-2.312012203037738800e-02
1.391399418935179710e-03
1.251440763473510742e+00
-1.384832197800278664e-03
1.391949481330811977e-03
7.939934134483337402e-01
-1.437941682524979115e-03
1.391723984852433205e-03
-1.683897376060485840e+00
1.391291501931846142e-03
1.382583053782582283e-03
-5.232605338096618652e-01
-1.380317611619830132e-03
1.397540676407516003e-03
5.149073600769042969e-01
-1.389206154271960258e-03
-6.650499105453491211e-01
1.441055210307240486e-03
-1.385986455716192722e-03
-5.286185145378112793e-01
-1.396988285705447197e-03
-1.382214948534965515e-03
-1.392116886563599110e-03
1.388318836688995361e-03
1.599348499439656734e-03
-4.549991339445114136e-02
1.382000977173447609e-03
8.251864910125732422e-01
5.770818889141082764e-02
8.622073531150817871e-01
1.380959991365671158e-03
-1.402492052875459194e-03
1.386178540997207165e-03
1.391489407978951931e-03
-1.882984535768628120e-03
-2.873171307146549225e-02
-1.389342709444463253e-03
-7.382550835609436035e-02
1.386974588967859745e-03
-1.384303905069828033e-03
-1.376798492856323719e-03
-1.388534437865018845e-03
1.317672431468963623e-03
1.385335694067180157e-03
1.379799214191734791e-03
-1.861736178398132324e-01
1.390537363477051258e-03
-1.220702826976776123e-01
-1.399653381668031216e-03
-7.055971771478652954e-03
-1.412167330272495747e-03
1.392851117998361588e-03
1.388999517075717449e-03
-1.379660097882151604e-03
4.368132352828979492e-01
-3.131027519702911377e-01
-1.384314731694757938e-03
3.474959731101989746e-01
-7.348001003265380859e-01
-1.387783559039235115e-03
-1.434168429113924503e-03
-1.384030096232891083e-03
1.398567110300064087e-03
6.984899751842021942e-03
-8.348140120506286621e-02
-1.329133403487503529e-03
1.044012233614921570e-02
7.709653675556182861e-02
-5.292848348617553711e-01
-1.387416385114192963e-03
-1.380446017719805241e-03
1.087725237011909485e-01
-2.738737463951110840e-01
-9.313960075378417969e-01
1.382328337058424950e-03
-1.537713408470153809e+00
-7.382550835609436035e-02
1.137062191963195801e+00
1.385284471325576305e-03
1.393360784277319908e-03
4.465112090110778809e-01
-1.553657501935958862e-01
-1.387100550346076488e-03
-2.299658209085464478e-01
1.395063940435647964e-03
1.387738506309688091e-03
1.381204114295542240e-03
1.388966338708996773e-03
1.396247506141662598e+00
1.379824825562536716e-03
-1.395289786159992218e-03
1.397494110278785229e-03
1.384015544317662716e-03
6.221257448196411133e-01
-6.342651844024658203e-01
-1.392722828313708305e-03
1.382717746309936047e-03
1.380101894028484821e-03
6.308934092521667480e-02
1.506456756033003330e-03
1.391162048093974590e-03
-1.390732359141111374e-03
-1.563140511512756348e+00
-5.442917346954345703e-01
3.350085318088531494e-01
-4.831508100032806396e-01
-1.372606260702013969e-03
1.200535967946052551e-01
1.389985904097557068e-03
-1.379695953801274300e-03
-3.349121212959289551e-01
-1.390711404383182526e-03
-2.441561967134475708e-02
4.531378746032714844e-01
1.381246256642043591e-03
-4.939340054988861084e-03
1.423095120117068291e-03
-3.934651315212249756e-01
1.390535617247223854e-03
-1.391079043969511986e-03
-1.389578101225197315e-03
1.386332791298627853e-03
-1.410861848853528500e-03
-8.320277333259582520e-01
-2.678851783275604248e-01
-1.391524914652109146e-03
1.397361978888511658e-03
1.394535647705197334e-03
1.381149981170892715e-03
-2.258004546165466309e-01
1.393640995956957340e-03
6.997938454151153564e-02
1.144002526998519897e-01
-1.556024670600891113e+00
8.350461721420288086e-02
8.348378539085388184e-02
1.427404349669814110e-03
6.587939858436584473e-01
-1.303668767213821411e-01
1.396404695697128773e-03
1.421771594323217869e-03
-1.388263190165162086e-03
5.915530920028686523e-01
1.824879199266433716e-01
-1.382820191793143749e-03
1.385184586979448795e-03
1.390769612044095993e-03
-6.236055400222539902e-03
1.384614501148462296e-03
-1.493575517088174820e-03
1.413191203027963638e-03
-1.390742254443466663e-03
2.719651907682418823e-02
2.827203571796417236e-01
-1.410292461514472961e-03
-7.757318615913391113e-01
4.215892404317855835e-03
-1.393519691191613674e-03
-5.879092216491699219e-01
1.648946083150804043e-03
3.474959731101989746e-01
4.506487399339675903e-02
1.390370889566838741e-03
-2.831802330911159515e-02
-5.358183011412620544e-02
-1.388159347698092461e-03
2.919100224971771240e-01
-1.051046967506408691e+00
3.988433182239532471e-01
6.960473060607910156e-01
3.931225836277008057e-01
1.394718419760465622e-03
1.454028533771634102e-03
-5.619595944881439209e-02
-4.278225004673004150e-01
7.871304750442504883e-01
-1.058944128453731537e-02
1.391569967381656170e-03
9.722306132316589355e-01
1.384680625051259995e-03
-1.379281748086214066e-03
5.324995517730712891e-01
-3.090313076972961426e-01
1.396842417307198048e-03
1.393254264257848263e-03
1.389273442327976227e-03
-1.196946110576391220e-02
1.390382531099021435e-03
-1.385416253469884396e-03
-1.385163166560232639e-03
1.397185376845300198e-03
7.619004249572753906e-01
-1.382452086545526981e-03
-1.822924613952636719e-02
1.385573181323707104e-03
1.401910558342933655e-03
-1.395141123794019222e-03
-1.388529781252145767e-03
1.421787892468273640e-03
-1.388457021676003933e-03
-1.888888478279113770e-01
-1.390807447023689747e-03
3.214138746261596680e-01
1.433246419765055180e-03
3.465031683444976807e-01
-3.874665200710296631e-01
-3.864052593708038330e-01
3.849243223667144775e-01
1.481968760490417480e-01
-3.296320512890815735e-02
8.045570850372314453e-01
-1.974576385691761971e-03
-1.389977755025029182e-03
1.434208010323345661e-03
1.387449796311557293e-03
-7.540736794471740723e-01
1.393447164446115494e-03
1.398117747157812119e-03
1.382332411594688892e-03
3.860724568367004395e-01
1.386872609145939350e-03
1.384029514156281948e-03
-4.248804748058319092e-01
-3.309210836887359619e-01
-6.587939858436584473e-01
2.749070227146148682e-01
5.360641330480575562e-02
2.460193783044815063e-01
1.400947337970137596e-03
-4.291826114058494568e-02
1.081435680389404297e+00
-1.346466094255447388e-01
1.827030628919601440e-02
-5.511350631713867188e-01
-2.464283555746078491e-01
-1.448565721511840820e-01
-4.616575539112091064e-01
-1.389303361065685749e-03
1.383285271003842354e-03
5.860406756401062012e-01
7.913604974746704102e-01
-1.389774377457797527e-03
2.467319816350936890e-01
1.394209102727472782e-03
-1.386649673804640770e-03
-9.754926711320877075e-02
1.393359620124101639e-03
9.191738367080688477e-01
-1.465425372123718262e+00
-1.384383649565279484e-03
-1.380810863338410854e-03
-1.384564093314111233e-03
1.389091252349317074e-03
1.406413852237164974e-03
1.383360126055777073e-03
9.588330239057540894e-02
1.389436423778533936e-03
-1.014860346913337708e-02
8.308649063110351562e-01
-3.817750811576843262e-01
-2.668963968753814697e-01
1.395154395140707493e-03
-1.798072755336761475e-01
-1.384693314321339130e-03
-3.782373368740081787e-01
-1.058944128453731537e-02
-1.379141816869378090e-03
4.866613149642944336e-01
1.388158183544874191e-03
-1.416845829226076603e-03
-2.574907839298248291e-01
-1.408013398759067059e-03
-1.396531588397920132e-03
-1.349017675966024399e-02
1.448410987854003906e+00
2.896499335765838623e-01
-3.915419280529022217e-01
4.885130003094673157e-02
2.719651907682418823e-02
1.400708337314426899e-03
1.392888952977955341e-03
1.384428469464182854e-03
-1.238245218992233276e-01
-7.938871383666992188e-01
-3.137547671794891357e-01
1.396057778038084507e-03
-8.088344931602478027e-01
1.427840627729892731e-02
-1.384793431498110294e-03
1.412348821759223938e-02
1.547367963939905167e-02
-7.431386411190032959e-02
-7.521204352378845215e-01
-1.382672344334423542e-03
7.382550835609436035e-02
-3.903841376304626465e-01
1.294129490852355957e-01
-2.668963968753814697e-01
1.395950675942003727e-03
4.370537698268890381e-01
4.614526405930519104e-02
-3.857378661632537842e-02
-1.914929747581481934e-01
1.388790551573038101e-03
1.255233883857727051e-01
6.602194905281066895e-01
-1.396915758959949017e-03
-3.697967827320098877e-01
6.225101947784423828e-01
-1.379819586873054504e-03
7.232112884521484375e-01
3.505096435546875000e-01
-6.574816107749938965e-01
-8.072433471679687500e-01
-1.396012143231928349e-03
6.863650679588317871e-01
-1.398222055286169052e-03
2.074806451797485352e+00
1.387178781442344189e-03
1.813961416482925415e-01
-5.976240634918212891e-01
-1.383413327857851982e-03
-3.808724284172058105e-01
2.287415787577629089e-02
8.784269690513610840e-01
-2.111237645149230957e-01
-4.954186975955963135e-01
-1.416042214259505272e-03
-1.388996606692671776e-03
1.388555392622947693e-03
-1.385727664455771446e-03
-1.395161147229373455e-03
1.468583755195140839e-02
-1.398090389557182789e-03
6.341373920440673828e-01
-1.384057453833520412e-03
1.416034414432942867e-03
8.544112443923950195e-01
1.384987961500883102e-03
-5.710364580154418945e-01
-1.386066433042287827e-03
1.392271718941628933e-03
2.911121770739555359e-02
-1.392533071339130402e-03
-1.385831623338162899e-03
-1.401735120452940464e-03
3.094675838947296143e-01
-1.434168429113924503e-03
-9.089261293411254883e-02
-1.440511317923665047e-03
1.394259510561823845e-03
-2.862674370408058167e-02
7.441897988319396973e-01
1.391509198583662510e-03
1.390765304677188396e-03
1.200107187032699585e-01
-2.465001642704010010e-01
-3.822910487651824951e-01
3.958113491535186768e-01
4.821157157421112061e-01
2.467300444841384888e-01
1.386051881127059460e-03
1.389804878272116184e-03
1.384132541716098785e-03
9.082756191492080688e-02
1.388173317536711693e-03
1.383252674713730812e-03
-6.996806859970092773e-01
-1.843254268169403076e-01
-3.992069065570831299e-01
-1.275540709495544434e+00
1.394025515764951706e-03
-5.795661807060241699e-01
-1.436499063856899738e-03
-1.394157065078616142e-03
-4.363817274570465088e-01
1.417826861143112183e-01
1.814191490411758423e-01
1.389702083542943001e-03
-7.688954006880521774e-03
1.038494110107421875e+00
-1.385713694617152214e-03
8.719583153724670410e-01
-1.385039649903774261e-03
1.390069955959916115e-03
1.397865125909447670e-03
1.399957299232482910e+00
8.189224004745483398e-01
1.383994822390377522e-03
-4.396885037422180176e-01
-1.379829831421375275e-03
8.784269690513610840e-01
2.983764708042144775e-01
-1.922677755355834961e-01
-4.151346385478973389e-01
1.379799796268343925e-03
1.881465017795562744e-01
-1.233012303709983826e-01
-2.299880832433700562e-01
2.266111969947814941e-02
-1.385742216370999813e-03
-2.351095825433731079e-01
-1.615221146494150162e-03
-2.490504877641797066e-03
-1.408677198924124241e-03
1.499698311090469360e-01
1.386075746268033981e-03
1.247417852282524109e-01
-1.400151289999485016e-03
8.166841268539428711e-01
-2.311636358499526978e-01
1.383023103699088097e-03
1.401274697855114937e-03
1.471598446369171143e-01
1.392346806824207306e-03
5.102015137672424316e-01
-8.745139241218566895e-01
-5.456688404083251953e-01
2.801946103572845459e-01
1.515847281552851200e-03
-1.391501980833709240e-03
-9.739898145198822021e-02
-1.497624754905700684e+00
1.475029508583247662e-03
1.923013925552368164e+00
-1.391201862134039402e-03
-1.395613071508705616e-03
-1.386546646244823933e-03
-1.386050833389163017e-03
-7.874498143792152405e-03
9.342504665255546570e-03
4.645283222198486328e-01
-6.131138205528259277e-01
-1.389026292599737644e-03
-6.308934092521667480e-02
1.391493133269250393e-03
-1.389238168485462666e-03
4.767322540283203125e-01
1.394820865243673325e-03
1.396318431943655014e-03
3.918902873992919922e-01
-4.195717275142669678e-01
3.471861481666564941e-01
-1.394252176396548748e-03
8.091887831687927246e-01
-1.391103491187095642e-03
-1.390813034959137440e-03
1.051083765923976898e-02
1.390957040712237358e-03
-1.384774805046617985e-03
9.088043570518493652e-01
1.393721438944339752e-03
-2.439586818218231201e-01
-1.384093193337321281e-03
7.382550835609436035e-02
1.395246712490916252e-03
1.388390082865953445e-03
-1.392949256114661694e-03
-3.818491399288177490e-01
1.386920339427888393e-03
4.319494962692260742e-01
3.864670395851135254e-01
5.193177461624145508e-01
1.401310786604881287e-03
1.397843589074909687e-03
-1.384711125865578651e-03
1.312579959630966187e-02
-3.097122013568878174e-01
3.055273182690143585e-02
1.461995998397469521e-03
1.384197967126965523e-03
1.385969575494527817e-03
-1.395139843225479126e-03
-2.001224607229232788e-01
-5.358183011412620544e-02
1.390611287206411362e-03
-8.637271076440811157e-02
-1.666136682033538818e-01
1.982284933328628540e-01
1.553198248147964478e-01
-3.938085138797760010e-01
-9.445859119296073914e-03
7.870943285524845123e-03
-1.387279480695724487e-03
5.499917268753051758e-01
9.913341403007507324e-01
-1.396181178279221058e-03
-7.460256814956665039e-01
-5.615137815475463867e-01
9.234228730201721191e-01
1.380978035740554333e-03
1.378407818265259266e-03
6.728036999702453613e-01
-1.389556331560015678e-03
3.965952992439270020e-01
-3.589295446872711182e-01
-3.176599144935607910e-01
-1.060825493186712265e-02
-1.394077087752521038e-03
-1.382303307764232159e-03
-6.187456194311380386e-03
1.522425282746553421e-02
1.390645164065063000e-03
1.380294561386108398e-03
-1.926700235344469547e-03
-1.384924980811774731e-03
-1.392111298628151417e-03
-1.241595670580863953e-01
1.392958220094442368e-03
9.351598620414733887e-01
1.388249220326542854e-03
-4.594811797142028809e-01
2.266761660575866699e-02
-3.423906266689300537e-01
-3.260983228683471680e-01
7.878818549215793610e-03
-3.299225866794586182e-01
-1.389153767377138138e-03
-1.386187854222953320e-03
-1.387136871926486492e-03
-1.380004105158150196e-03
1.388415461406111717e-03
-1.522425282746553421e-02
-1.522425282746553421e-02
7.880196906626224518e-03
-1.390515826642513275e-03
6.760490536689758301e-01
7.055818568915128708e-03
3.962825834751129150e-01
3.131027519702911377e-01
-1.387679949402809143e-03
-1.382260816171765327e-03
-2.380910217761993408e-01
-1.384063856676220894e-03
-1.895597726106643677e-01
1.399795408360660076e-03
-1.386631047353148460e-03
-1.394693404436111450e-01
4.520225822925567627e-01
-3.817750811576843262e-01
3.044353425502777100e-01
1.399909146130084991e-03
1.391941681504249573e-03
1.394788036122918129e-03
-1.389912213198840618e-03
5.958196520805358887e-01
-1.380954054184257984e-03
-1.392625854350626469e-03
